[[-13696.036530797483], [-638245.8332633647], [-495724.2496180271], [-149982.6885512302], [-186495.46540638385], [1037925.043605747], [-639615.8220877678], [-462217.3946212334]]
[[-0.8741189572207859], [-1.238607585127811], [1.007955088261251], [0.8103709814018863], [-1.6224355061338753], [1.4073524556440615], [0.24706516251075342], [0.960433519242874], [-0.29305905376310143], [-1.2575368849683388], [-0.8312527622506278], [-0.40238566146475546], [-1.4371355748308428], [0.3781297321937301], [0.6699726908529727], [-0.48798917633636524], [-0.4613486166380864], [0.9863423448760746], [-0.27810892508450835], [0.33857855238959284], [-0.8812971105056625], [0.7937685399638121], [0.8334732271514734], [0.10551155715535485], [-1.218979535177813], [-1.087653406792612], [0.8270740932966563], [1.1232572415105109], [-0.9876717232503393], [-0.18136361419722524], [2.0765315955156747], [1.9198069017645443], [-0.6149536577484579], [0.33827631288494747], [0.5097324643192033], [0.8657968803352089], [-1.7744603860321178], [-0.745953195375017], [0.4263929418913065], [0.329159443024072], [-2.0507306767928277], [-0.7842908793469139], [0.6380389146225515], [-0.6087703278747055], [-2.8491795855896913], [-0.27687250221468346], [-0.208641070736359], [2.4387804505995683], [-0.46450346776953905], [0.37745141401710447], [0.4171033111398865], [0.9627611240501758], [-2.759381675214093], [0.292506113953331], [2.3555188168451475], [0.6058230037148914], [-1.2905435522284074], [-0.4342030763308313], [-1.3690366804201957], [0.738110338351121], [-2.580743491068516], [0.7991654447968257], [0.15829847381944423], [-1.2421744572959044], [-3.577040554910599], [-2.053018254432682], [-1.7881348400239712], [-0.6348638786095987], [-1.6837417700047905], [-0.7893951888506947], [-0.7451483255936516], [-0.20932070308507034], [-2.211213314062585], [-0.6160364284256533], [-0.4231763300906009], [-0.4810445215431531], [-4.434619424744075], [-2.023962419995031], [-0.7752595132087755], [0.41851879361512434], [-12.848056847746042], [-1.4542726931539265], [-1.3137195812673061], [-1.568847666416634], [-11.888246176484202], [-0.7497269139915854], [-1.263267282634637], [0.7718488395077938], [-12.57256063990833], [-2.324175556950263], [-1.1712917694764], [-1.0659998552107273], [-1.803429012898375], [-1.4612257920651859], [-0.3619849094261026], [-0.9709476249586836], [-13.322102215320992], [-1.7233602007767734], [-1.1656760739221907], [-0.4998425922058987], [-18.34358819881899], [0.003561949487497661], [-0.19231212587665514], [0.5598799144050729], [-43.9281347706191], [-2.265784596971033], [-0.5476163232361899], [0.6157418257947442], [-8.740702063775451], [-1.164478985975785], [-0.7770798255330529], [-0.3347159097763691], [-3.0907077465377144], [-0.988440969682637], [-1.533845856952656], [-0.09593019583113], [-124.71963386908592], [-0.9569675872052218], [-1.0835662199932221], [-0.9880819215134201], [-149.8601485774508], [-2.377236517333248], [-1.703403360992451], [-1.394213554623175], [-112.39563044247083], [-1.8965882729284584], [-1.126608750422582], [-0.44138022365471224], [-1117.8474839863234], [-13.806168972879634], [-1.3313985190726654], [-3.097142449553933], [-118.6937428135461], [-10.391858007311129], [-0.4321397973898847], [0.22008969639874618], [-2706266.947502573], [-3.7195897734927614], [-0.4399292527424737], [-3.1170643992642257]]
