[[-6.115688097654951], [-1.3382190971113894], [0.9383260942600957], [-3.360137517408249], [2.8957885678269553], [-0.9680171601264879], [-1.9231762651741078], [-0.3924884758637705], [-0.9129119213003442], [-1.0400553511824366]]
[[0.332160894709194], [-0.6480236867077223], [0.636012495611105], [-1.341437849725538], [0.17546107791782578], [-0.7114648241161919], [-0.009426054707156142], [0.5376324802195929], [0.24093634469608213], [-0.4083545444020242], [-0.3038993633678742], [1.258724678204952], [-1.2923897385010616], [-0.6575548276146911], [0.23397007681843646], [0.5515152751566085], [0.7922142136035164], [-2.66830368523548], [-0.5160981733736801], [-0.36979836937259497], [0.2773206524940816], [-0.20055330813313393], [-0.1426030552051539], [0.3949062322942644], [-0.7115092185279792], [-0.05511298805903996], [0.4887147465370104], [0.35960470853808096], [-1.6765731002184612], [-0.7670644866731695], [-1.261447496966166], [-0.5204723588414933], [-0.5301005691789915], [-1.8106758593185006], [1.8678209716192553], [-2.0310572034658816], [0.0026470873628085755], [1.72215473159779], [-0.7053063981114832], [0.08744067932820972], [0.8143617414352029], [0.4371404380865845], [-0.5097033256505132], [-1.07609247250601], [0.15905984332142828], [-0.6456267559628335], [-0.2618731890844268], [-1.1888833356669175], [-0.07231848218121564], [-0.3049108973860623], [-1.3271438557859827], [0.23892998896718773], [-0.181768051625516], [2.290398821432351], [0.9606976750969183], [0.5796859828239804], [-1.9462929999680676], [-0.8817236478621108], [-1.592871822925276], [-0.15197042413143771], [-0.21101597018564183], [-0.024490432874112063], [-1.1165740352325424], [-0.21953130145515604], [0.5693707268773089], [-0.4390964019603117], [-0.7294690707506536], [-0.3284315117258625], [1.6030804566254633], [-1.258378202324469], [-0.388071406232977], [-1.8834275795655155], [-1.2617449302054975], [-1.0656930188309286], [0.6396961535880659], [0.09556566158525982], [-0.2744561712011952], [-0.35439577396553906], [-1.0055895343460033], [-0.9905407186204267], [0.20433986353230876], [0.5217443319197212], [-0.028378171246029153], [-0.5470829433996613], [-1.828375440901618], [-0.26142077584076306], [0.14783340500600883], [-2.4649503995474005], [0.09663194702915308], [0.4587834484892048], [-1.3905721944168676], [-0.3216658573402752], [0.5350293958007608], [-4.193047795201144], [0.493891265627098], [-0.908521852010897], [-1.0704895397526195], [-0.5190708387565903], [-2.7081729611880005], [-5.533261991500798], [-4.784619449425445], [-1.7485022961326202]]
