[[-13696.036530797483], [-638245.8332633647], [-495724.2496180271], [-149982.6885512302], [-186495.46540638385], [1037925.043605747], [-639615.8220877678], [-462217.3946212334]]
[[-0.8735135985475243], [-1.2380979940467525], [1.006986350045802], [0.8100289036525758], [-1.6223709646596156], [1.4079554781140748], [0.24506078029654965], [0.9597987458144421], [-0.29315389392804536], [-1.256726798807228], [-0.8339474542001115], [-0.40080285108663954], [-1.437458403647994], [0.3797732998615137], [0.6699339391307938], [-0.49239900282263294], [-0.46128686717800543], [0.989911181037305], [-0.35203523761426675], [0.33510164065466624], [-0.8789166794419563], [0.7910352205647072], [0.834442982183122], [0.10808202996853726], [-1.2166590521948428], [-1.0882762029039856], [0.8280877857700871], [1.1247793887845687], [-0.9837545492157258], [-0.18058471977564355], [2.077214013233315], [1.9259592342875225], [-0.612286441255379], [0.33870654589481364], [0.5104779584799944], [0.9299377387410624], [-1.7729564309022674], [-0.7453408897690045], [0.4410940583289834], [0.4146673155884268], [-2.050364359241662], [-0.7829164941065635], [0.6382734724535528], [-0.7772461463995258], [-2.848997439280746], [-0.27571153635256224], [-0.20455019951287828], [2.446237486638279], [-0.46317228274913935], [0.3780756184338197], [0.4155370642856217], [0.9631066281141628], [-2.7591956642159325], [0.29251816367895667], [2.353998247051522], [0.6084336738856604], [-1.291517914151201], [-0.43545978393819196], [-1.3686638983973054], [0.7392371038280348], [-2.5809855262704544], [0.7992332986585815], [0.1581694590080105], [-1.238796153294083], [-3.5767943514461162], [-2.053782813875899], [-1.7863602470794235], [-0.6341171824788883], [-1.6842819875572164], [-0.7904359827015011], [-0.7456588983156774], [-0.208092907965215], [-2.2119002740592695], [-0.6158343195471027], [-0.4226416479364776], [-0.4831055090460924], [-4.432127048623887], [-2.0223195798980482], [-0.7725968585115179], [0.4220267712882204], [-12.848181703425881], [-1.4529595239398472], [-1.3119126473157963], [-1.5673091659843958], [-11.888515292451695], [-0.7470875763672798], [-1.2615893157398463], [0.7751907863920887], [-12.572742248422642], [-2.3223365219544942], [-1.168332087326094], [-1.0622353640014095], [-1.800546935420842], [-1.4598777321623462], [-0.35976037831460406], [-0.9675238926834384], [-13.322105976617546], [-1.720661512956593], [-1.1641979563466596], [-0.4980921432286904], [-18.343588206139426], [0.0060560119913415445], [-0.18978872182736747], [0.5628643327617792], [-43.9281347706191], [-2.2632396680952773], [-0.5453134522189657], [0.6181588082609445], [-8.740706243421958], [-1.1617452895653855], [-0.7747373003600343], [-0.3326683420753502], [-3.0907077885789622], [-0.9838274060121418], [-1.5298642874731498], [-0.09209682500923326], [-124.71963386908592], [-0.9530857485892292], [-1.079625037737041], [-0.9846882288537745], [-149.8601485774508], [-2.3745565490379534], [-1.699713463807287], [-1.3909328885071204], [-112.39563044247083], [-1.895884466138489], [-1.1249760101482538], [-0.43848757687123907], [-1117.8474839863234], [-13.806189205124554], [-1.3303000716186026], [-3.096149678243907], [-118.6937428135461], [-10.393745276905396], [-0.4316277566223487], [0.22103314114328196], [-2706266.947502573], [-3.7191709115436824], [-0.43875657093730847], [-3.1160423148768057]]
