[[2.6363638306951387], [-2.2449779022727703], [0.24914686685850407], [-1.9614861510547206], [-1.2724672336874017], [-2.2966981551608603], [-1.7821336704463255], [5.91610675941215], [-7.93792171986034], [-2.766265966679644]]
[[-0.9625149798576056], [-0.2783429630444241], [-1.1502200096693438], [-0.9843597965230784], [-0.12631466311240447], [0.5357415812718541], [-2.046812028178564], [-1.7221798504368473], [0.1966304843290296], [-0.7273272017562619], [0.23004264015221187], [-1.3855446626816685], [-0.7796410270027196], [-0.3249565439969841], [-0.22955288228407272], [5.2972697789099235e-05], [-0.25605586688391585], [-1.7614657453422677], [-0.6265993854793911], [0.11611717012876309], [0.3804177827449809], [0.1482473346639476], [-0.9389399614618044], [-1.2778263921792443], [0.5434123536721814], [1.0430795008038654], [0.3646267615107484], [0.15246907901615483], [0.7670927569585118], [1.676480126672236], [0.9255302330646288], [0.28262132565266845], [2.134352990288081], [0.21558628163755536], [-0.8176441111274346], [0.8821726724586654], [0.27677527119166867], [1.635885951228887], [-0.10463814418334116], [-1.4459538258875195], [0.0017435319096617595], [0.7901288565986415], [-1.3983872466416378], [0.8049564261190422], [0.6498510389271008], [-0.13021119297664882], [0.049851260160457336], [-0.4981858390186961], [-1.2469900188576142], [0.21516296635848742], [0.9041504451972663], [-0.5549170797687066], [-0.5109485688924926], [-0.009776804885899605], [-0.11348430590268356], [0.7947902771316097], [0.9637482323835614], [-0.04040732890587645], [-0.9822700768117875], [0.9723804273018946], [-0.8265516157310885], [-0.07543827921861643], [0.7328164492465208], [-0.36623329966008084], [-0.4538465719822392], [-0.4081757264422734], [-0.20503492402716816], [1.2243766904590403], [0.0386807078554084], [0.032838121882667645], [-0.38865670095703586], [-0.1453057509102696], [0.02968290719703187], [-0.171789434813784], [0.7678329258452746], [-0.3472913819706663], [1.2938024015131926], [-2.0222607940756343], [-0.2753617281879258], [0.8801345088780759], [-0.9847024089327503], [-0.11746650437122495], [0.273955820211045], [-0.6571023916982833], [-0.5251160872391326], [-2.2697019810087014], [-0.25232630531970796], [-1.4017301853114705], [-1.146599798549541], [-0.33609406018029614], [-0.013398348714220352], [-0.036478167402452424], [-0.890935912836669], [-6.343189421368019], [-1.1875208130530819], [-0.8013260842215446], [-4.376383040503624], [-0.3622129940646496], [0.5138250493076795], [-4.96345938160627], [-5.953258350117582], [-0.9910885501563131]]
