[[-0.4893573690615278], [0.4257712545854229], [-0.6385160219392008], [0.7356301350303109], [-1.4643130797745505], [-0.45103968916396214], [-1.2819435796658418], [-1.347044777068001], [0.3362421332753461], [1.6748046540306814]]
[[-1.2304940243534739], [1.0537606253775975], [0.209754267654831], [-0.9740051936682184], [-0.3277724095385368], [-0.4595550760103225], [0.06470747513612829], [0.9143340495890195], [-1.0270375650571424], [-1.2837496540286597], [-0.2785075632729024], [1.7931872192877643], [0.0836841603707741], [-0.3167605320047972], [-1.6635728816950361], [0.25111179216386736], [0.2261104126182891], [0.18995784971362065], [-1.0397594989631422], [0.7113385529188381], [-0.7441093963709], [0.426212667605143], [0.5325910491767236], [1.284651702467533], [0.3395468628939015], [0.44795377209333004], [-1.656410328149896], [0.1572380887697447], [-0.35581468833660634], [-0.009445782527652076], [0.3518408427985324], [-0.958294724915704], [0.2700713596841898], [1.1451920604653756], [-0.5549268527954473], [-0.909778142272234], [0.5698733095343521], [-2.4063289771141956], [-1.0366145288578417], [1.1206646766594484], [0.5042394063437311], [0.31292038262962196], [-0.7329416964468544], [0.13324039920689273], [-0.260383384903633], [0.7259756194219478], [0.40761879260796885], [-0.2694173933698273], [-0.9796391093952531], [1.4005266071160165], [-0.9635693457995088], [-1.6037501150307418], [-1.694434880450684], [1.2032268132780943], [0.46246613823059396], [-0.6805116036837299], [-0.6881626812022267], [-1.142651136169957], [-0.5895874401333807], [-2.1650230913113457], [-1.8850710271085684], [0.2309383998707961], [1.5671692843856695], [-0.9486536759750805], [-0.18527499804343725], [-0.7921226602233657], [0.7402443850250987], [0.8480483534473976], [-0.45174218080429324], [0.043089956057456524], [-0.8678418191362413], [-0.22835242709648257], [0.7388796954399536], [-1.4914925086010304], [0.49987390605126286], [-0.14685121862446301], [0.6289501313233472], [0.634364907608909], [-1.6338141900488747], [-0.482800039199945], [1.9131149566964776], [-0.3273287766659949], [0.5217799684702005], [0.606262061945496], [-1.3952921249635444], [-1.529345169761181], [-1.2655268719858217], [0.10719909256746109], [-2.73783649788632], [0.17299687792271473], [0.885327439616773], [-0.896408757321014], [1.469920161606676], [-0.939033236592801], [-0.6454629956015112], [-0.08065056501296468], [-1.576859960701748], [0.09016302022931838], [-0.06443941033064693], [1.5182377420294118], [-0.15630563807181935], [-0.14212702003279745], [0.43470162440548565], [-1.6018861228289807], [-1.6999387029105946], [0.3708659416857528], [1.694754225989986], [-0.15031769520710525], [-1.336390810664464], [0.4179551677124455], [-1.1557484210841844], [-0.01705120545029379], [0.9338530967088635], [-1.7087082364589505], [-1.3040941725100759], [-1.345448401040607], [0.07699241885706547], [0.7303997717614554], [-1.3068632993263742], [-0.7330879310598779], [-0.9107275155909265], [1.1905840302675572], [-0.7396973562078307], [-1.5823759162560047], [0.1821465441314148], [0.3601876115645968], [-0.990672071959928], [-0.28168602495157424], [-2.322207309397528], [0.8695196195367936], [-0.9956418055981833], [-0.5829557310702032], [-2.2295962170458514], [-1.9433562418866785], [-1.1730017767232905], [-0.44242153829585873], [0.1050780769395192], [-0.07084572357341877], [0.7044089203204318], [2.5296219399027042], [-0.39717560657054424], [-1.4741610205208557], [1.2923013942738926], [0.4284047445168554], [0.8225300115179108], [-0.6997537224075732], [-1.1839598690990187], [-0.588355904699992], [-0.294447831606145], [1.2054437942772136], [1.3683093880406072], [1.581018381571504], [-0.4844806890968477], [-0.8586014842745527], [0.14251298805915097], [1.1404155927197643], [-0.6203004470490705], [0.7627645290015955], [-0.4229784057283094], [0.19359942030690314], [0.8229461205524805], [0.9586440051340924], [0.14121831187300346], [-0.992221275268743], [0.8549651859987177], [-2.1429006621065607], [1.149604349705693], [-0.20645083799869673], [-1.0656148403147119], [-1.21766864878539], [-0.8008878380848911], [-2.0291107198383185], [-0.25076125090568535], [-0.6167465534634893], [-1.2623502426536295], [-0.3353204502222156], [-0.44875300001489166], [-0.5069906805889949], [-0.03026167606652232], [-0.9336177921503093], [0.03846031348545872], [-1.0230282418836123], [-0.07964352573657883], [0.7390639424524056], [-1.0245931487405768], [1.1168234018287553], [-0.8709388315188942], [0.3376320069592933], [-0.8081679112523955], [-0.6011704154476673], [1.109639021883803], [0.033820974840867], [-0.3570364234727475], [-0.06643307371120362], [1.9459458638233087], [-0.12302649779057978], [0.2630523040425135], [-0.4417661580729828], [-1.148746248981654], [-2.760266141437006], [-0.5405901718546992], [-0.7893265165085902], [-1.360357193669266], [-0.2166851189977943]]
