[[-90.02749670297001], [-56.66853518813701], [-116.10761079536547], [13.749721695030702], [19.611350918152688], [-54.65500418595727], [-51.53844421035657], [-15.867010025020777]]
[[-0.8777038728888914], [-1.3710619403232165], [-0.944705301855725], [0.46708228992489315], [-0.043148319541793385], [-1.4955579713732672], [-0.5438037216061291], [-0.5606236928200009], [0.5149508944337982], [-0.6910857530642145], [-0.2340147594919021], [1.2928426720061879], [0.5109809139242556], [-0.6192903008364654], [-0.5673492130608561], [-0.24587983442971525], [-0.35894061049304404], [-2.2952288801796796], [-0.4778539004995537], [0.8471819651501045], [0.2984959856759913], [-1.374327343893207], [-0.9165865796487329], [-0.2669048094846208], [-0.21108227468180651], [-0.17064330490197144], [-1.9616266520542591], [-0.7352863451734087], [-0.8682789034528196], [0.3368808284241494], [-0.5505294551306238], [1.7815088714330827], [1.2530014238845397], [-0.996661268828103], [0.06684073449358101], [0.471497501166259], [0.03840737198059731], [-1.4033077871372872], [-0.6891710661233726], [-0.021511530639637476], [1.4079233641353357], [-1.2281097391008493], [0.7880170598942047], [0.6135623172682585], [-0.7737652779061396], [-1.7408252347275965], [0.1824597954855889], [2.676579589787808], [1.0681290350112087], [-0.26599830139606756], [-1.6438940152654236], [-0.5075957317977402], [1.6309887424394007], [-1.6256683864016088], [-1.5937276196087211], [0.6022035353479432], [0.8734141160316435], [-1.173395362649632], [-0.8397716763512071], [0.08585307825835756], [2.5181934068241345], [-0.8818714050247332], [-1.5474428746980677], [0.22195333838929016], [0.03655941374857762], [-1.5384633857916155], [-0.7976667174989482], [-0.42815799342057215], [-0.43221065582773555], [-1.8873746343279816], [-1.4141315325629318], [0.26398702353639597], [0.5296887184205148], [-2.007268561971684], [-1.544853154124659], [-0.8064662124197363], [-2.2270367242831215], [-1.0808576062405275], [-1.44712376710965], [0.16051977205545337], [-1.073554457791667], [-2.1001764320741385], [-0.2521706972712205], [1.0366973018949661], [-2.008621548541221], [-2.380177413605006], [-1.1680203931089332], [0.7453722414601073], [-1.6759693321966493], [-1.53290172052318], [-2.031528507005022], [0.9415770397600588], [-2.8801399316219505], [-3.07167671814312], [-1.186043560154953], [-0.9091953495763846], [-4.72201842395434], [-3.193237834308728], [-0.8398518620368358], [-1.5045448043921088], [-2.8804697331442273], [-3.9481488873385278], [-1.4898589263708177], [-1.2287488336505636], [-12.413597075805946], [-3.352759852441953], [-3.295633335951941], [-1.3845653012368804], [-11.574293994127537], [-2.394677677814137], [-1.593823335700478], [-2.1887921444389073], [-10.110701599885347], [-3.2634036589009447], [-4.301754797405846], [-2.655354184266963], [-26.09073781133008], [-5.627085910453792], [-1.0855124612809457], [-2.9514010196769327], [-15.343091805281999], [-15.989920196844547], [-6.754811395171421], [-3.9148002239274384], [-30.49139385429002], [-6.385145193873898], [-23.34275002930497], [-10.460461771139759], [-83.03351004244455], [-21.561523454521545], [-11.294358960252136], [-57.17251410449382], [-85.81962592173078], [-124.82267260639831], [-40.329252426571045], [-20.118228044724724], [-269.56933054592577], [-163.30401239725322], [-185.31179936793214], [-262.43822897636517]]
