[[-0.4797386667511756], [0.42116720351015025], [-0.6321879572801569], [0.7366460229321871], [-1.4690549138238176], [-0.44991139327538154], [-1.279081132201773], [-1.3440109714234625], [0.34627813368196153], [1.6800313763334684]]
[[-1.2284584365337248], [1.0544704599971648], [0.21164521275791956], [-0.9718646007254903], [-0.32811235649213144], [-0.4580190174036974], [0.06697860850234326], [0.9144186086633095], [-1.0271973317386802], [-1.2834537039720382], [-0.27843910501124874], [1.7937857811266495], [0.08343768890869326], [-0.31673990868559954], [-1.6639139862795762], [0.2507613409215295], [0.22642886175536978], [0.19031025140874952], [-1.0389292259640743], [0.7116176405658253], [-0.7436982446706842], [0.4275830471718684], [0.5329394338744432], [1.2842984146873966], [0.3391446831470972], [0.4482898425180641], [-1.656183182863438], [0.15909166240556172], [-0.3561581884764066], [-0.009376128601450666], [0.3516569607113286], [-0.9584777483016992], [0.2702151226160649], [1.1469207902767788], [-0.5552681618691007], [-0.9098913925519005], [0.5701227770373598], [-2.406685111995842], [-1.036914567214991], [1.1221989827398446], [0.5042760286995305], [0.31300153129793645], [-0.7331245349820896], [0.13299451708689003], [-0.26054889965080474], [0.7260271318836247], [0.4073246702120485], [-0.26975333886333025], [-0.9796732931307102], [1.4006537815003597], [-0.9638875247823697], [-1.6041361422106517], [-1.6944793673355174], [1.203264438064096], [0.46444689166317515], [-0.6803685820561439], [-0.688440333952827], [-1.1403792654585643], [-0.58973295294115], [-2.1653480597637627], [-1.885361798113768], [0.23059743552309478], [1.567185482402302], [-0.9489787165030845], [-0.18541956894307915], [-0.7924229117908415], [0.7409302393330692], [0.8478879384508019], [-0.4519947356279903], [0.045842086084660234], [-0.8682030854356799], [-0.2284445572592176], [0.7386329886422659], [-1.491619304266311], [0.49991206038512104], [-0.14724568133960034], [0.6292755901273385], [0.6340544340531886], [-1.633901557363966], [-0.4830317907841899], [1.9131548250419728], [-0.32320815071490644], [0.5214367622623828], [0.6059415758621574], [-1.3914207640519307], [-1.5290298339532709], [-1.265514070258678], [0.10994222464575311], [-2.7379667099459235], [0.17300658271299524], [0.8878569989449598], [-0.8959067070729575], [1.4700282725724105], [-0.9371835697802692], [-0.644834590976917], [-0.08058643648329825], [-1.577001688379466], [0.09017841013722709], [-0.06476823116865803], [1.519382649399397], [-0.1557399782229145], [-0.14238038247104534], [0.43585748595361706], [-1.602200632586838], [-1.6997159458794169], [0.37059372436837906], [1.6956829543370135], [-0.15067723330212987], [-1.335015457633575], [0.4185101964258239], [-1.1559237411876364], [-0.017460059656038536], [0.9341002385389363], [-1.7089326774887488], [-1.3041769353119732], [-1.3458557101961979], [0.07744213740171496], [0.7426030547847527], [-1.3072532493749018], [-0.7326426165241048], [-0.9107452567732267], [1.1906397379611207], [-0.7399242486178711], [-1.5828232498981214], [0.18180292029001838], [0.3606552936014357], [-0.9876213992810091], [-0.27996979908502306], [-2.32223094500024], [0.8698423588531601], [-0.9958611102640655], [-0.583043312941648], [-2.2240468610492052], [-1.9436913962154012], [-1.1724766071336201], [-0.43120364244180637], [0.10603636794153247], [-0.07107223922636774], [0.7108683211462381], [2.5301588319950756], [-0.39716665422470293], [-1.4679303380640265], [1.2933095116199849], [0.429594173008578], [0.8437277907948817], [-0.697017888081072], [-1.184333393397808], [-0.5888034302140718], [-0.29442961209884727], [1.2064233867574632], [1.3797390296709946], [1.581107260508013], [-0.484798968098394], [-0.8564413417134021], [0.1428722780563782], [1.1420753254004836], [-0.6200109212016776], [0.7672614286241864], [-0.42229332419667814], [0.20068136165241557], [0.8262476007602975], [0.9607285246764322], [0.143650545227858], [-0.9868459174716098], [0.8553059999446747], [-2.1426512940927283], [1.1555770680064756], [-0.2059276758175395], [-1.0617870809760726], [-1.2179564256045654], [-0.8012652520361944], [-2.0228085501024333], [-0.2504984307101449], [-0.6170235956157811], [-1.2543595849451683], [-0.3317526396476847], [-0.4490755043406396], [-0.4980053216794445], [-0.030676785317034307], [-0.9339982493608716], [0.04174146053147251], [-1.0234757190345203], [-0.0781886566208945], [0.7400092567743439], [-1.025015889719236], [1.1209518328891597], [-0.8560380476136311], [0.34099731615412143], [-0.8027519723439027], [-0.5976202415395112], [1.1219634942928962], [0.04001938557274094], [-0.3491866462680311], [-0.06541102370640997], [1.951363789530842], [-0.12339801363734458], [0.2688304169315037], [-0.44158413403413266], [-1.1441528891648098], [-2.745497598262465], [-0.5372370383246953], [-0.7864131202438008], [-1.3595297004395899], [-0.2126542868857478]]
