[[4.72647091378118], [-24.076009732176416], [2.450597041066245], [-1.0065671298630907], [5.0503683214600255], [-4.514045581131425], [1.5061992447132972], [-4.359005680560832], [-1.1444302860061764], [-5.3949936375267]]
[[0.19273750380464866], [0.7276965989174793], [0.6088597157663933], [0.6252224948516129], [1.7253121535341538], [1.065835278059515], [-1.3268976516412918], [-0.7058493590489511], [-0.3854711057519077], [-0.6009383008422639], [0.06009276850189393], [0.7697627862953974], [-0.6246226733207079], [1.3321464396906637], [0.7906667448015161], [-0.4375952941093003], [-1.706299758658281], [0.5812680137306219], [2.505188878073394], [-1.0175475242372805], [0.37367109611776866], [0.477465867780306], [-0.21208511971050914], [-0.5482451888830786], [0.3233248547020328], [0.09361326589512867], [1.2713582496755522], [2.369816000600344], [-1.0601451044906567], [-1.0729375737663098], [-0.971788869928027], [0.3047374726747381], [1.0799280234847697], [-0.36856300638304385], [-0.17146266787081438], [-0.5236380188386045], [-1.705880446068382], [-0.35571286278845893], [0.953212967819631], [1.3472028101092566], [1.8415431813276482], [-0.4240352775366507], [0.7367728496270556], [-0.17543977642733227], [0.5005589950670501], [-0.6920569131307037], [-0.3878986569534003], [0.3311319470015663], [-0.679546779396626], [0.9659060086011153], [-0.17129504245114247], [1.3174423577559293], [0.657380585391973], [-0.6737713507829315], [-1.3680457559305554], [0.2953249218372608], [-0.9327093633739295], [0.8896866816259559], [-0.5673730798637789], [1.0839322356986232], [-0.16982604447130104], [0.5552379891205258], [-1.0169025028859047], [0.9124299478983978], [-0.6270068348364246], [0.5728613736420297], [1.0090124869136037], [0.13448931344605167], [-0.5876927470844306], [-1.1844936434949844], [-0.10483430546899469], [0.38662771661638523], [0.027337350320685162], [1.6269096423092315], [-1.1769639883708876], [-0.5837858363275311], [1.4899237756889776], [-0.049342329364191286], [-0.3051099620861989], [0.6811089844986518], [0.29761821461402105], [-0.05326362301352256], [0.6941557480005176], [-0.7147809326807086], [-1.1556047330297876], [-1.58620554249405], [0.26632598407911784], [-0.9933182914634079], [-1.0783844291425104], [-0.22438407322157478], [-2.08022503929846], [-1.229126213854714], [-1.336519675380194], [-1.3049250629719056], [-0.990664485418739], [-1.2564152084172695], [-19.508621074539803], [-2.7207801659558624], [-1.6689554102254365], [-64.81471277512111], [-7.245892870935955], [-0.6394982962290152]]
