[[4.7264709886834435], [-24.076009732176416], [2.4459490137490736], [-0.8003624070397473], [5.0503681489835355], [-4.514045583817852], [2.373233151026915], [-4.359005677421274], [-1.3219784155879322], [-5.3953250100763075]]
[[-0.2586943412523474], [0.7693790367510164], [0.5672568229236079], [0.6521262581040841], [1.7139057062888774], [1.059654595272052], [-1.4946330115437447], [-0.7985895406016962], [-0.5093158994396331], [-0.7214922230301348], [0.16357030179706492], [0.7433017345320477], [-0.8209874352422968], [0.9132346702534437], [0.40310514502534495], [-0.6082072102254633], [-2.191061007027274], [0.4248649351614571], [2.1362068234360096], [-1.4158623551157379], [0.09083673336339156], [0.3426090233542917], [-0.5731337657869754], [-0.7766552054368698], [-0.13924130909866228], [-0.04082396326877372], [0.9053431547319803], [2.2614486476757536], [-1.1463529576544293], [-1.6890118557016736], [-1.1186261697645146], [0.21960292751470736], [0.7400657030036655], [-0.4293277170334338], [-0.4113840175960861], [-0.7154608168035396], [-1.7999362409929975], [-0.49474679161787904], [-0.2362297125443064], [1.2348269089169042], [1.6018744093507282], [-0.755221213584259], [0.5812407806383091], [-0.3456394920897462], [0.029035678735433272], [-0.7091088671390209], [-0.7530254696240686], [-0.34494200505383055], [-0.6840865946664012], [0.7015888703188579], [-0.46791559807883976], [1.1313114615877593], [0.622171245579054], [-1.4942682690760607], [-1.564003133527902], [-0.28187195166115864], [-1.0564383339819545], [0.6788217685275548], [-0.5190217803343604], [0.8625514524627548], [-0.2257541527506501], [0.5539836235264132], [-1.7353193918916865], [0.8900206437684383], [-0.6362602860981303], [0.4685903391103821], [1.0021501502057928], [-0.3750965728335464], [-0.9139428950139953], [-1.1144384860077314], [-0.17430583090307028], [-0.21506195648029855], [-0.1366992033965081], [1.0729034266597195], [-1.7912324101078405], [-0.8011916551651674], [1.5208383702017434], [-0.6201815204819721], [-0.17479272659821943], [0.3553852810916678], [-0.3180092423901906], [-0.011711597577936458], [0.2808769463202873], [-0.9309001195640815], [-1.081950250268335], [-1.6662689802772837], [0.14552810903654373], [-0.930163634485825], [-1.5530657554054175], [-0.7716580495119306], [-2.419947642567896], [-1.8768677520860566], [-1.5045092553961645], [-1.2812735506785646], [-1.0042080905986805], [-1.6023257664961372], [-19.508621074895075], [-3.606068208233967], [-2.199138443862689], [-64.81471277512111], [-8.138048098926054], [-1.1592674159888703]]
