[[-0.8634249059602543, 0.07528274665054248, -0.12273064230688961, 2.247059051745515, -0.32863460739004746, 2.3725498583678775, 0.3931192239035453, 2.8545524528690223, 0.16585048312228956, 3.325193711353735, -0.762629667000338, 3.2735208310430934, 1.0141219195945208, 0.2717163666781412, 0.29222670873536133, 2.0540244625692656, -0.03991691625136994, 1.2781203537063972, 3.5087618905060505, 3.2585905174538055], [-0.41129202286286987, -0.912790701627759, -0.028102589651071874, -16.43908767988203, -1.0575650927166962, -22.37924607315368, -2.777230712221534, -19.660366740343342, -0.939566546092656, -23.780833827329463, -0.3836921088224965, -22.168993705479323, -2.2381033176747156, -19.030620127575848, -2.1349375743159986, -22.84433901109839, -2.2410885021728717, -21.273353273230725, -23.959833733011614, -13.776173598157069], [0.8531183444556851, 0.3686394355426644, -1.1111282527731257, 0.602227187562325, -0.8624898279456911, -0.0835424150078881, -0.45057404725444256, 1.251540646480762, -0.15685831586606616, 2.706657037045954, -2.438927161414079, 0.9855222510929206, 1.622650057162423, 0.9742890369249985, -0.7920683187033859, 2.001593374989025, -0.22990163741103783, -0.054230921644751906, 2.857394872953853, 2.079119470556526], [0.24230620501860664, -1.186127288258223, 1.2995397821328054, -1.144851382983125, -0.7955639294828901, -0.31061085461512966, 1.182641945455628, -0.33319990153810447, 0.4564193887124506, -0.632990634240103, 1.002676503580905, -2.043785890886199, 1.8658732165377698, 0.7816044342931816, -0.12264393016973373, -0.18028066144564903, 2.042894039946761, 0.3347248523073311, 7.264778682744546, 2.2373811470902956], [0.7503525007102628, 0.6284253108860276, -0.41876678681509266, 3.4103726699614945, 1.867167421797149, 1.41367192270432, 1.235182867073798, 2.105078893667956, -1.0601991286625914, 2.1897156387799566, 0.5464479492055274, 0.9522564082713437, 0.8180774293260069, 1.7877289416892366, 0.25645349072679074, 1.873368482311479, 1.4838491231061, 3.7260662438424945, 4.630368501713257, 2.2411449075157654], [-0.6756091687697907, 3.224682945926476, -0.052488554863031896, 3.8013336871129937, 0.2233842004631955, 3.8829856269548344, 0.8690988362913753, 6.0438365144574195, 0.6166646244276257, 4.724051915387301, 1.666248764916982, 4.2242410365325735, -0.32451353387682935, 3.8981257463936494, 0.3981293913938015, 3.7233010337236414, 0.2558628294446822, 5.276874201285309, 3.778984573278156, 2.403183683865026], [0.6460769061887635, 0.3109814132309213, 0.6132444177938836, -0.500615320930878, 1.4634063888203679, 0.2574208584206229, -0.4364032333036941, -1.5922601520105717, -0.39084236328978783, -0.563872570092915, -0.8293394616244503, -0.8140880369483994, 1.4388325331657852, 0.0207746986560815, 2.9122152777021326, 0.8190343655126728, -0.7342631377321783, 0.3039838496887556, -1.4231858542041538, -0.1074560559260089], [-1.14135561305409, -0.5365977242156943, -2.0165953770525755, -2.0332016810273337, -0.1016870020029582, -4.009227212688715, 0.20933693138050638, -3.683672066113947, 0.760081779751029, 0.47560964298928915, -0.11660293634064735, -0.31686063897549144, -2.579878518127523, -3.3317015521374285, -1.3551316165928813, -3.868463443304095, 0.5935740985397614, -5.049779337017846, -3.4029548137704047, -2.036532033706557], [0.3348390414336195, -0.06681143475334839, -0.2088649311324629, -0.054758285476215224, 0.046335298942399114, 0.3755718049380907, 0.15758947256087025, -1.4355143167651745, 0.14812888005225058, -0.9930589745550377, 0.1278452722569316, -0.5895977267792939, -1.8982760423916927, 1.3700622845737227, -1.2810111247311795, 0.1456969755987094, 1.534261769554979, -0.7233059068348306, 6.911065624854877, 0.7129664718805062], [0.46589589216640015, -1.0892082286217728, 2.265367360863784, -0.9485787473455303, -0.7064962913357563, -2.2067570390163413, 2.232020468357067, -0.5283194443598994, 1.2534960923567304, -0.16270814530399255, 0.1620535207865581, -1.4800505627355822, 0.8820343388519443, -1.332167338328629, -2.078341375728352, -1.0290639342475412, 0.21056206205983735, -1.4146977285888136, 0.1805875123009066, -1.6449487008703072]]
[[-1.992605230511421, 0.7998499734232313, 1.219997957872142, 0.23914968510277712, 0.14215708913948416, 0.20138807818920118, -1.3277840154698506, -0.4651315922803339, -2.064985067950724, -1.0604759167047537], [1.021985276949498, 2.005681471717253, -3.032356779206545, -0.5044877311891014, -0.12115866266160796, 0.7521370123799761, 0.019719023977980005, 0.9847261586953097, -0.7237529248979834, 0.3837473875095075], [-1.1721287991300655, -0.10185177686089741, 0.31293314768879693, -1.0917120437944554, -0.18372387850168712, -0.28014260053611867, 0.008354793262366635, -0.4126985090237919, -0.056209399472799945, -1.5714346379375248], [1.0297731303258644, 1.0430362473701462, -2.7568372324503696, -0.2594476828863419, 1.0771659933531614, -0.4712426835489227, -0.6909285965749876, 0.2621316175616413, -1.4428755826888549, 0.8268359096014495], [1.446787996397646, -0.18224087355802845, -0.5023314471364351, -0.8987773250509719, -1.0545035186152818, -1.780012060383037, -0.43909103794759047, 1.4530535283955641, -0.5456990924979028, 1.5354604571089066], [0.17065844070454966, -2.7003114856484762, -0.698766878240823, -1.2125086250013442, -0.19829892036734129, -1.1039728909391389, 0.6728797807261682, -0.1771593705194723, 0.20109078966639685, -2.4403155887985064], [0.5290142054990167, 0.7521831925853965, -0.16033471292586665, -0.47758032580115567, 0.2964406950129313, 0.28311863293308676, -0.8184797150509876, -0.7670196146278933, -1.35853004001816, -0.9994128158337968], [0.3557674071442269, 0.7217182502877862, -0.23977234727739857, -0.4925976437945447, 1.1286242145771688, -1.0317375756455283, 0.8417039152049263, -1.2465550170805086, -0.6863889681658154, -0.5532500898983514], [-0.9811722535520931, 0.1718993101409118, 1.3557106253580937, -0.8736868406009217, -0.13929785710510562, 0.15413633484470046, -0.23474440065823987, -1.1383589249047745, -0.5299420655472075, 0.7929203155606503], [-1.6169952210916234, -0.4139853134328307, -1.6009964536021812, -0.876202593218644, 3.39863572855868, 0.265613752957125, -1.2115163098184312, -1.7529049700787196, -1.1688258474700675, -0.566518003111671], [0.46108669897165594, 0.3797991068287765, -0.8940880946274243, -2.005219206517105, 0.46793582887437785, -0.05446223386954136, 0.1896680139912586, -0.9268339525512324, 0.5540696593531067, 2.510464095653898], [-0.2431583232349542, -0.8524835967957236, -0.16771355586788778, 0.6767277622955422, -0.5620929610373976, 0.49592506050931773, -0.05313303464165835, 0.41600008927582166, -2.233332600483773, 0.11456671329114697], [-0.24198721363887335, 0.13653880555413922, -0.07372116351049654, -1.4865650884173587, 1.3530222989869405, -0.7171392925619762, -0.9122431388319429, 0.7863867033476323, -0.5418504143900243, -1.844416470616625], [-1.0949756207408265, 0.76206011548474, 0.9115669728994524, 0.7075218088785332, 1.277476462537033, -1.5903844432224745, -0.714121751712245, -0.5925777282172144, -2.7139747302706345, 1.2865553647220997], [0.08715570760544974, 2.2774159957291897, 0.4288203995772003, 0.19292967892757365, -0.3804489183065536, 0.03874570505692615, -0.8821766747112916, -0.017097488259776368, -2.133257160452383, 1.4447463644211458], [-0.35488631145212424, -0.23379599974816137, 0.49119489771189495, -1.2160290489450913, 0.3895317333860251, -0.3853770744400498, -0.8689122132716611, -0.03338373678981752, -0.9070325520460177, 0.6399624699951891], [1.4467545884030735, 0.21890632244249728, -0.37051305740251156, 0.01446354126108412, 1.3037321172435439, 0.04843299412954135, -0.010213512916953183, 0.47041087953047095, -1.982651087947427, -0.5295145688090132], [-0.8059704616423433, -0.4714229896198672, -0.8499633219057665, -1.9047555142094486, 0.6888181749144168, 0.6350308175124885, 1.1413661200680072, -0.0694538685223624, 0.44382934276790575, 1.2082747815061872], [-0.9427179712660168, 0.31777847657981584, -1.2074677644946898, -0.5313097681897805, 0.6941742168813122, -1.4449540703019736, -0.5983693690274028, 0.8925468569821798, -1.624292900212977, -1.6617525823455546], [0.46517765041213294, -0.0708429734947019, 1.4980687509748556, -2.1518295783536505, 1.6925823462968994, -1.463355067443674, -0.8076730312776609, 1.0202548989750229, -0.12096817227738066, 0.3198727559009915], [-0.7832751791532061, -1.6045618274203126, 0.2829306329288178, -1.396884663274358, -0.11952453830090982, 0.861413269657375, 1.1742843042005513, 2.101799595919381, -0.35254291732479837, 1.0846240508329603], [0.09501211698513982, 0.25736047128638284, 0.8429601312725193, -1.5272241052150588, -1.3181627189750884, -0.35331286652222893, -0.9732347476205055, -1.0581813386072216, -0.7529214633014912, 0.8582216435792037], [-0.6848074812247138, -0.45663713913410564, 0.17976777199100846, -1.543231332240536, 1.9255071361946365, -1.2763730640352031, 2.183248706931702, -1.2260068293263415, -0.06049632187568843, 0.5547655937255104], [0.7212827221106345, -0.47193056084878765, -0.9928548019932413, -1.3889094911480873, 1.8829485496927394, 0.4287835112514235, 0.16789656186764834, 0.14247166880805767, -0.9897398611453958, -0.2748880196987897], [0.00020860931440982525, -3.349296781798786, 1.2156459911873005, -0.5528116046038666, -1.5944629481477117, -0.6640320559476292, 0.008315762268814067, -1.297279425636463, -1.528783249340195, -0.953242578968791], [0.2999845342778857, 2.4983101068461755, 0.526782625711654, -0.958069490556066, -0.7690242299073287, 1.0090825844249711, -0.23833519584187304, 1.0042864669205462, -1.5408640924172856, 0.03874929909365569], [-0.546423686123279, -0.45130680684545715, 0.3811008712915417, -2.4695161036579125, 0.6820386129134949, -0.3979883877868193, 1.1850745391183621, 0.612372979446636, 0.06464024737100603, -0.2658515630794589], [0.1925354720757051, -1.8124486894054292, -0.9464239539000697, -0.8430180684369376, -0.8927645929558696, -1.7215215460537225, 0.49378147750017637, -0.09007275985349773, -1.1116743885192921, -0.37412202968155656], [-0.06918808452436455, 0.44104721889115417, 0.9887050440952145, -2.394100143575102, 0.4016582588221382, 0.34036602448062464, 0.8918090054803396, 0.07141112388386472, 0.14409527062931557, 0.8403519184576643], [0.23045399467522912, 1.2991430523791085, 1.7038680266945792, -2.366486865718371, 1.0165767971023707, 0.0035112086531961443, 0.7728087516233967, -0.4724702760096123, -0.45509703716524663, -0.768583644644608], [0.26468788095289153, 0.25776718723556025, -0.15113525890909468, -1.4697527690025298, 0.813416717061681, -0.14391983464417152, -1.2075357041984411, 0.8119518679460139, -0.9911917801208158, -1.8843491454374097], [0.508089515670326, -0.1851999225144855, 1.1771769339771985, -1.5461805516705096, -0.3374268240645872, -0.46836246461654735, -0.3633193621646299, -1.4039927356028044, -1.2046052515327275, -1.0996630968067982], [-1.816676119253452, 0.5491982448416617, 1.7378643327319312, -3.0152656418222823, 0.4597695159000756, 0.3055531244182133, 1.4859713349057253, 0.5258176209356091, 0.14295145462211087, 1.668621576971268], [0.24342269541874104, -0.4119467104389374, 0.6672901792915217, -2.381675195646983, -0.44897428001777684, -0.35914840036987594, -1.1966340326324478, 0.6396904537881927, -0.05082937324597449, -0.25318302702345996], [-0.5537466700808222, -0.19508908004240139, 0.9101366151563572, -1.4324104162487752, -0.0678937983983335, 0.4919343106626247, 0.7377484591998974, 0.9088254681295321, -1.0769776936966884, -0.919666541456294], [1.8252349991192713, -1.3846150526720102, -0.26315883526387024, -1.963008020320456, 0.9301153829735842, 0.10548659118864087, 1.2595458134637427, -2.0915380048516874, -1.2786911055603423, -0.1062249374726821], [1.1936207661707239, -0.9852837567887559, 1.434730963474525, -1.037314868738961, -0.42179338445358716, -0.6020210870811038, -1.4690342616873986, 0.6127674322573701, -1.5654009176602017, 0.8915844963461335], [0.1620005689443886, 1.1118426879922445, -0.3258606482725993, -0.9134415300008963, 0.883261735263, 0.44624363197000705, 0.1744993233090248, -0.5064691510916264, -1.8373673527897683, 0.043011236982064674], [0.6771697832494946, -0.5410135064446729, -0.4983643500505097, -0.9589885683365137, 1.3399824380220005, -0.1670846579102827, 0.48084442867571714, -0.7949337748440454, -2.521452446682543, 0.17794704067513623], [-0.5720880027971718, 0.20525767152498592, -0.8872174850826331, -1.6838309135738563, -1.2588340772102915, 0.716888180798665, -0.49864469073880835, 0.4376343030433503, -0.6125754781759526, 0.46063593695448984], [-0.48307591123048166, 0.4811513085827498, -0.9717361449557673, -3.949266916239982, 2.0489902587580064, -1.4664487408673752, -0.6690038689035822, -1.1387118210744382, 1.0734818057055087, -0.8607076190970046], [1.6130076194934628, 0.31257350708160897, -0.5565719845533388, -0.34175119462123665, 0.4750973781268473, 0.8439322751652114, 1.2236842795000995, -1.94343123704353, -3.088077492124849, 1.0509344041491104], [0.40245859269419193, 0.4954930638251121, -2.2498434568181414, -0.5706869092631047, -0.6147095112653708, 0.7366074346806071, 0.19115505423920914, 0.6821658806465948, -1.5955893697103523, 2.12485174496408], [0.7509273832158194, 0.08137618200670212, -0.36561155043378585, -2.7185840483715373, 0.4024321008360153, -0.13047429456134454, 0.24085929953512814, -0.7760129336605225, 0.0283912039930845, 0.5027056541296719], [0.21626980439781826, 0.16252266540170077, -1.0645139092641462, -1.336312467275562, 0.34480077099647954, 1.7973643137572597, 1.0114569651307779, 0.4278941289080849, -2.0835837975924423, 1.874585086587168], [2.005389969012347, 0.32209593860450775, 0.07634680526282724, -1.080794963744091, -1.1266829300175831, -1.3445658042180109, 0.24232601403032583, -0.2547064352110572, -1.0691584516425316, 0.501712906813062], [-1.956886015303538, -0.06358687792274266, 1.633754145357932, -0.7333445217436392, 0.16760537720864183, 0.9227959985489432, 0.4033354770295053, 0.5842782124597472, -2.0021280250456335, 0.27141268597555834], [1.5208017725965157, -2.7234255311289197, -2.1484571733027145, -0.24122708207840235, 2.2553089045886536, -0.5381740021274246, 1.3446481241827828, 0.0792903924772427, -3.056501786163588, 1.4055472384595347], [1.0075709873971572, -1.0531149296073996, -1.0705199689697666, -1.1224120252063265, -0.36812033028369656, -0.4823786424974329, 1.1668777918802442, -0.9727158975306066, -0.7714896970190909, -0.45890249003616107], [-0.009711663688925454, 0.5276408304775988, -1.2666360725113395, -2.1480322530849416, 1.0750247890593103, 0.17885670267087955, -1.1173807878930804, -0.5671101596754635, -0.9580679147007872, 0.728007793570227], [-0.46440285968676226, -0.31433058426679333, -0.1873363152285742, -1.615694454342727, 1.0203385824284497, 1.571431422195507, -0.03973656332716371, -2.8284803054552268, -1.9715344905764431, -1.4634862411557672], [-2.656830454769165, -1.7871930335677377, 0.7122501608481375, -0.33437588134754676, -0.454502183236676, 0.22546710747615867, -0.34102201128712545, -0.926579835728341, -2.0801540990104597, 0.787927937939925], [-0.9952216891953859, -0.40243500601968346, 0.9557434854512066, -1.7012050748260787, -1.338198203587789, 0.7518347115715611, 0.6133524220824593, 0.5996382577078261, -0.898261341207902, -0.6816833642416159], [-0.46800089636906056, -0.4966464293655618, 0.45082757029649845, -1.1484254890810535, 0.8317646152566837, 0.802183464033851, 1.1792451835135507, -1.3930408315886114, -1.9895760376389235, 0.3367909991249792], [-0.21260532363664852, 0.30349884764955615, -0.24538914648633028, 0.2932537880358717, 0.06258240682996198, 0.6182282734256629, 0.2017484942968384, 0.018778504556806158, -2.5973244903482855, -0.09658705492346849], [-0.5405355018263734, 1.1432411716100308, -0.4530087056520076, -1.3600745611372724, -0.629508220867158, 1.463979947087495, 0.24627283309342074, 0.10683862523002742, -1.3458066818124634, -0.22453868929025866], [0.7364807177861962, 1.4647987449194093, 2.090412180119527, -0.7713298876512963, -0.5319125141587326, -0.5841250234067792, 1.0939555584452636, -0.6899963359777825, -2.334999723235836, 1.6314918370225515], [-1.4835642357655476, -0.49386941798260425, -1.1602429536767498, -1.2556061791529292, -1.7338356747891697, 2.061959146274316, 0.5250073566242507, -0.28162673097079727, -0.8928942751779558, -0.9536515926934087], [0.9342793313083437, 1.6625824906236077, -0.07663285188686074, -1.030891773378165, -1.829576034804289, 1.7891909966927837, -0.1877022581673625, 0.706014620641003, -1.7803472672596983, -0.008309065192347686], [0.8483401925035923, 0.772748152671377, -0.7255056402053877, -1.1322844317179903, 0.39907008825941986, -0.42179729523235143, -0.18430515615466178, -0.5852347718533673, -2.2705850961389067, -1.5016984767836725], [-0.48439087600771186, 1.1297865330824557, 0.8726376862967647, -1.4337826343538558, -1.251388034295605, 0.4141924593679239, -1.2763721692392738, 1.9407596734725419, -1.2578821513034535, -2.0240157029482853], [0.18566362434711037, -1.3405787195160466, -0.7021490436318485, -2.463010866063059, -1.1332623170415081, 1.0678216648788386, 0.10901058280104456, 0.9399761642219112, -0.18427797430374196, -0.8421621375547491], [1.2678236255358324, -1.121396613971094, 0.15060211673140092, -2.10876723838813, 1.1301712884918422, -0.7230967556195871, 0.163728853342817, -0.8761324880636976, -1.0721643537122272, -0.20203089935966853], [0.5029953083960015, 1.7846341397703378, -2.0626965260391557, -1.6280740641954599, 0.15451892084307745, -0.5773857402093732, -0.4546735036536813, -0.8175953069273647, -0.8383616342580015, -0.6305255005855002], [0.677745361089886, 0.28165533261076336, -0.3693209364836244, -1.8914050426607292, -2.2093271989281575, 1.7625012880503563, 1.5315542229235337, 1.005491553304056, -0.35236833187788275, 0.7585051028008493], [-1.2722879422951678, -2.142686603107025, 0.9435326703120451, -2.3437134402780497, 0.7407556265372213, -0.25419068672183526, 3.883990274125505e-05, 0.612702421879427, -0.8074228408197018, -0.02297009978669986], [-0.5531404928772736, 2.2677513045202566, -0.16883962470480782, -2.3294182781714574, -0.5737805721744621, -0.7565387736359519, -0.6940548592991218, 0.8886100108613587, -0.19289047038438886, -0.8382797591666534], [-0.45487274777727005, -0.5379306972058178, 1.5511025105434348, -1.0474357397559002, -1.9828075295930696, 1.474299030230905, -1.6460813275910302, -0.6224625950241162, -2.175272056248407, -0.5625517830390292], [0.5830666681227553, -0.8560595945873617, 0.01686040982045324, -0.3716199561178975, -0.4517481678756744, 0.7976257479610599, 0.6759395742574237, 0.5178021244404807, -2.606107859973713, -0.4027935811926811], [0.42346770663629857, -0.5592965758338386, -1.2133480828418444, -1.438897039122403, 0.49296893822076565, -0.11985095711560503, 0.44065739555636835, -0.049270119517156916, -0.8240559132254702, 0.0928780868822522], [0.39635026034503773, -2.115048815560914, 0.20614465828091752, -2.4040124788992805, 0.6035775596648769, -1.4043242243986918, 0.2002477215203786, 0.5067220465325493, -0.2051972150570074, -0.09016507215832757], [0.5358358055195346, 1.217986896628367, -0.17524604302066246, -1.3854169196057304, -0.9905079630946703, 0.35307858141519033, 0.830252758225536, 0.7839722039704021, -1.4465176380275293, -1.6264661823028972], [-0.2270033819541576, -1.294254228782209, 0.1017345208618453, -2.4444048045676916, -0.039250853371081036, -1.289879267685228, -0.12788583165083947, -0.3959805122315486, 0.023142767660586382, 0.04074910757480439], [0.21611751738155413, 0.5363142378448466, -0.8882552251958518, -1.3170073969674112, -0.21640022464830974, -0.8460358391637964, -0.27982939621451636, 1.2627658537471291, -1.4892238285421653, 2.435672189924453], [1.2308417857620129, 0.27659093373475024, -0.6389137848927642, -1.410027020935955, -0.1156031915236998, 1.3278836805063448, -0.45907242232880924, -0.012646907516585931, -1.7776643882631786, 0.9803577018671046], [0.33383972004520585, 0.3344779379098065, -0.3452902141844381, -1.8080419616080425, -1.8516774296606142, 0.9366521318559605, -0.01773792891333634, 0.28006309349974534, -0.6589306049136211, -1.327742991499481], [0.5415170380282192, -1.2393832872703658, -0.19836243152274302, -2.1763013013619505, -2.0041677927566584, 0.07060274266981863, -0.5425671269157322, 0.6178882006132435, -0.687386296842914, -1.0152821983931346], [0.6703307938504852, 0.3961832714423871, 0.24504717055132288, -2.996797879734126, -0.4109042456952957, -0.6342588840790055, 0.8585085820798724, -1.020137831479405, 0.2959254423415547, -0.1994873674585948], [0.2788084111893929, 1.651821559523646, 1.128881766539105, -1.7515201322866898, -1.7315669932008213, -1.3823513908643252, 0.9071810498943158, -1.2716275624983449, -0.5127525274171184, 2.046242067502765], [0.4321509272608444, 0.2472790625870278, -1.5186534731116716, -0.3739761239468897, 0.443746515956344, -1.1082569264337474, 1.496185341100893, -0.7804273561919655, -2.0244988785315146, -0.9764480958915724], [-0.6958570176603414, -1.1794990964302616, 0.6625511295540963, -2.620792440709737, 1.1504116552244568, -1.7984506472166726, 1.1102186108409007, -2.339176859020806, -0.027612475437303666, 0.42202442449384847], [-1.606817923021092, -1.3636419793827963, -2.2036225303767463, -3.1769193943242175, 0.3931059549796671, 1.3303311350585705, 0.906279559921241, -0.2352269356446482, 0.9017555832942985, 0.23108814502027497], [-0.37001581779732123, -1.594758743025162, 0.34691343798418267, -1.937260664092389, -0.4046655354634399, -0.49945234998876886, -0.5785528983174462, -0.3604041849048721, -1.0417873830060782, -0.7453378298291259], [-0.8299829595413958, -0.03715603926225029, -0.026396835134207364, -2.3230709177195767, 1.8021290794551257, 0.19655608500465244, -0.7928738163793625, 0.9969422670391244, -0.9137195703606941, 0.8096757346460417], [0.4350513228066613, 0.5321597035708303, 1.5371128774728786, -0.6311441654405467, 0.10617545635390485, -2.632730386418171, 0.129066859472775, -1.2089295374857605, -2.1163642211906826, -0.15299084223509646], [1.3292552558824058, 1.5053001603151817, 1.3139067378335618, -2.098369528567387, -0.21429002216507503, -1.7076648450086818, 0.5614068130935226, -1.0112918749839808, -0.623813346323687, -1.7723779062178304], [-0.18828248023623542, 2.26226505003833, -0.3961401279732073, -1.0514062931988877, 0.6114085854253705, -0.8196509297431567, 1.0664594010198178, -0.11641893768700982, -1.7319942044157688, -0.18211401485882536], [-1.363640483913853, -0.3387425661726037, -0.5778567106869096, -2.0772802060060274, 1.2371919223242398, -0.43624533903154694, 0.7438052380337824, -3.3281511893082505, -0.5777710151340099, -0.7009365939438569], [-0.1457681171975947, -1.4301859182378596, 0.1638043053034158, -1.0676060644896392, 0.8721240628074948, -0.6807348179073425, 0.45421513733598506, -2.7802229381949557, -1.851924716594528, 0.9825676684632028], [-0.7695621323852422, 0.6085111788142867, -0.4024554837140896, -1.1530397781105803, 0.7591499136584177, -0.42472529128163145, 1.9950795820636487, -0.5699410923917015, -1.4732246215187677, -0.7495040748656527], [1.0300529788171808, 0.14375019533016564, -0.7901112749773523, -1.6882895268563498, -0.25458504614298044, 0.33852359808260446, -0.15148059971924707, -0.05292990769364256, -1.496275759710687, -0.4939709901434547], [-0.44104918243756164, 1.0166049910572417, 1.5914173177852762, -2.0817837410780307, 0.240520701043031, -1.0684923476781572, 0.2616554840206159, 0.8612072193245301, -1.0444031412017825, 1.1960266738345304], [2.131583271598912, -0.008556707323379611, -1.6287483783414345, -2.542147213866714, 1.0372169673079261, -1.1449484114787494, 1.3794638036428426, -0.8342511717724612, -0.3565859328120319, 1.7619805674682938], [-1.7844772344856368, -0.8166106166285272, 0.8050825418253702, -2.047647842208817, 0.7026838369339932, -0.479885192567416, 0.3258029351636229, -1.4457733574867941, -1.3569703864552325, -1.062210577334143], [0.009776484764055807, -2.571747174351888, 0.26995881485424156, -2.8614989684482866, -0.4759081736495113, 0.5209011287408788, -0.5020866692599015, 0.007320471073342564, -0.7657190717147002, 0.9156583269105867], [-0.2655715584912421, -0.865561943769166, -0.36276077478645397, -2.765518481145562, 0.8153088439827764, -0.5969090990983287, 2.6557976495142577, 0.9607966777035358, -0.022549744036790692, 1.110976686906642], [-1.3701967477501757, -9.237102189601396, -1.4234340654793673, 0.25257898983889066, -9.679336870030276, 0.6770668289205399, -1.2260672827701673, -14.386785547795776, -1.37036635395413, -0.589998845270471], [0.5908498785140973, -1.4327939312661615, 0.6712570970248534, -1.8990908037066658, -0.1692212755585548, 0.4235557815820744, 0.5465757621874369, 0.6175433545076193, -1.9438020913070375, -0.668419438597587], [0.6852069687977118, -0.9929901469972066, -0.56828549754617, -2.2268852398343375, 1.0378347821318832, 0.2619653664629978, -0.45261745584530444, -0.3034253503899273, -1.933887242604537, -0.6354899384805781], [-3.559625590132006, -29.219710194102163, -2.3382063511694007, -3.408744410440273, -27.721488446025482, -5.553873618982922, 0.020713290401580986, -48.70730804586292, -1.450394730087301, 0.5908793855414844], [-0.15122761701385465, -3.832470775505692, -0.4486744347681493, 1.0821682615588526, -0.6163199306730852, 2.2437768863808225, -1.488585659411483, -5.735674125616514, -0.029595149053954262, 1.2852085913539821], [-0.6468066000096488, -1.8449377346602276, 0.2545903916689474, -1.9905024430493539, -0.3725167373474336, 0.04486755831836235, 1.6860257838345418, -2.135215704505231, -2.022334864185209, 1.0603291420921364]]
