[[8.888635318572483, 17.184528050562516, 13.206221817580953, 34.23170171166582, 12.443035545395999, 17.615699661502752, 14.541202614397287, 23.37826336688817, 10.667803606427071, 19.976114864706535], [-25.406236474200636, -29.431831025526897, -26.929546061959403, -40.6672852527, -28.976513817513865, -30.612428634071247, -29.20387765698734, -41.20211861139823, -26.839767901825503, -33.431382058433876], [9.583017098462687, -5.291942181795528, -3.460563982054521, -15.992128319301605, 5.320915381018703, -8.894368747616804, -5.430359444339742, -15.519473114022608, 1.7060915238046759, -7.325425962309842], [-9.627523139706533, 8.342257992240798, -8.09506128330534, 4.939816203871911, -9.452083885778427, 12.264748855139084, -8.362760439272428, -0.5901837697206498, -11.255006394841589, 13.520286788955785], [52.42869688707384, 23.456575827418572, 34.86215899505105, 40.84263957294596, 34.27590540180596, 35.92483874067074, 34.33160638143696, 38.42678164832005, 37.74640739000523, 31.310045559773997], [-14.625197789824849, -12.728077670854423, -17.37446748422576, -16.319917077522547, -15.584163337176255, -13.75650148637092, -17.017638050292256, -18.24666036894917, -15.143115412611046, -13.539615389709498], [-57.27703919834951, -55.3775067594221, -64.95305889224848, -64.59502911832101, -31.999369068565635, -56.226370476997424, -63.03135763065301, -73.95704486507958, -36.848684700978495, -56.51923797719929], [-42.02935228393009, -47.30530856926527, -32.96643166852001, -50.23909463871055, -55.45244534052553, -46.92554701083843, -37.24776569845007, -45.54259876149395, -54.26124299488847, -55.947486258136145]]
[[-1.0980282298960973, -0.8501238538477659, -0.9004295490060163, -0.7971739912544888, 0.22637916516069892, 2.1302388434473842, 0.15113159249088376, 0.19375077224631032], [0.44090383174929376, -1.035468321881423, -0.6284845574810174, 0.7808209740163672, -0.649806660692949, 0.828185993940601, -0.17065279992430152, -0.2983056627874168], [0.2873753383107791, 0.64192042250251, 1.5776838298581184, -0.7797959929713835, 0.22663682923268264, 0.5097120788681123, 0.3677714994852283, -2.9343471189717887], [-2.0043683640546135, 0.404623900262558, -0.5370200606445059, 0.8026686321166123, 0.31080543290006035, -1.6478958286855898, -1.0698341472052042, -0.6922677316488869], [-0.44277242989152704, 0.022562442941977623, 0.267297816586888, -1.023291849880985, 0.3624942667702064, 1.8577985715008705, 1.6980315598569442, 0.2709709733029642], [-1.3380884233703403, 1.1642053075363985, 0.4580910497657985, 1.0160315481791382, 0.6310132205936353, 0.6833093072176567, -0.40399715387091806, -1.0878689936994506], [-1.1339692657519673, -0.2802322788983346, -0.8056361063727202, -1.0208847710500668, 0.0960993007554485, -0.45994824420874875, 1.690993412431657, -1.0781295089598202], [0.510873097031911, 0.19994332690477096, 0.11244406010498219, 1.0362991030746234, -0.9343395601323866, 1.699654704938523, 1.595482923369232, 0.11265917167467464], [-1.0438980539381073, -1.2554629601110074, 1.0070767187509388, -1.2251206204536933, 0.1648986225574889, -0.3765555221885275, -1.0088121596338493, 1.4891872172687814], [-1.2801642818268701, -0.7584815493613278, -0.21639773851650984, 1.2302678429358116, -0.09395835580214153, -0.6040837643186743, 0.7996825245765353, 1.532017917578077], [-0.11545750836961603, -1.2423004972644236, 0.6740943667603254, -1.2437959565126264, 0.37010553485786035, 1.9659912312413814, 0.6000340259155225, -0.9073939643810358], [-0.9374468657513453, -0.665446133548535, 1.163135881806504, 1.246149438977744, -1.089852605551747, 0.6088210689274828, -0.6434370178132581, 0.8067078371450122], [0.21304391761580266, 1.0370685206256174, -0.6869088252940359, -1.3927227004055518, 0.27719499733277714, 0.658405129968894, -1.3846619294960627, 2.0933147088420876], [-1.424946890043853, -0.20619948796911836, -0.3420662545912733, 1.409793301892209, -0.24382519157057334, 0.01205325088285393, -0.3355621431589621, 0.08284762249481505], [-0.7081785514653889, -1.4934749577975703, -1.2876629358432765, -1.4316995568214141, 0.5842173199956141, 0.6582093068550314, -0.8036799719739338, -1.3359581623512773], [-0.8198818414251947, 0.5861743504381599, -1.357541689166461, 1.4227465892620863, -0.6149794265806, 0.8813157352272645, -1.0195824934701214, 0.24885806780884134], [-0.3508094637611641, -1.2510524436194426, 0.09553321032760358, -1.525902693069173, -0.06488547488624295, 2.4960786555229717, 0.3088038298431606, -1.152166058698713], [-0.11444592429819961, -1.6691237904703675, 0.6842035482023869, 1.5533895835960883, -1.4768060002515004, 0.7005813677514117, 0.676990548330988, 0.5817729772246735], [-1.6465947188709356, 0.8855956942054019, 0.174658290642535, -1.5828400688580746, 0.04024247413755631, -0.24924230097839561, 1.0480358665451668, 0.9802612836271226], [-0.8591506230209439, 0.6797141851022025, -1.006171161595248, 1.5643098669154893, -1.1069065390777255, -2.0988539536396065, 1.6367219697696087, -1.0697510426298218], [-0.27213526041990455, 0.7221247064644547, -0.09406228778107442, -1.626549010984824, -1.015575620185953, 2.519982749037666, -2.75316616461083, -0.31195898055150395], [-0.6348942909910812, 0.7704298493558912, -1.6985885657667816, 1.662293293479108, -1.1614108548660393, 0.8448530672676673, -1.2296425433878073, -0.5765905771944972], [-0.3039422257851051, 1.06446504070062, -1.1752753642317766, -1.6978930445580975, -0.7406201872805585, -0.01021027797728041, -0.545501616624438, -2.097774223668071], [-1.5336440965144102, -1.0474883170992098, -0.2389677871045722, 1.673391157768221, -0.7969187241913007, 1.4499047829833354, -1.4025948231312713, 0.2722191930465031], [0.30712570368979847, -0.29899540978471023, -0.19988057678246463, -1.7035693218333527, -1.0005332753413247, -1.8713442846769535, 0.4382472317200714, 0.41049663106503875], [-0.00621069808654424, 0.6236466155189742, -0.7022231044630831, 1.7451770458044233, -0.4107986326102077, 0.48355106697646316, 0.34651936233806435, 0.13253693891535676], [0.6572567154968898, 0.17115680686675697, -1.1305075428794387, -1.785675345006209, -1.0433412825664128, 0.833716451316555, -0.21513310504986433, -1.2174270519113506], [-0.3958979325638389, -0.15660490844281463, -0.7884682176250766, 1.7567404680609178, 0.6928559561907539, -0.705931394967095, 0.5312755935572218, -0.31181471045262193], [0.09923124625277907, 0.40560259225372924, 1.2707062930051451, -1.7605670613327107, -0.5060764870618115, 0.14576711485169658, -1.4925729086974868, 0.5862060294993134], [-1.168186664865113, -0.5708716611524164, -0.06398377640012551, 1.8077073749845929, -0.8489733102897824, 0.2632865541508769, 1.0060737761920304, 1.1553968954137892], [-1.3125845106517384, 0.99087919941756, -0.11802459144030591, -1.8506365038575336, 1.2667453061645344, 0.8643858629269665, -0.6213256343641448, 1.7605174945858064], [-2.1670139802482002, 1.4515737383106389, -2.0761886401684437, 1.820183083350411, -0.8958667063314527, 1.0207349094990377, 2.2841985768357524, 0.6318868797585908], [-0.9392295583830179, 0.21841654425860788, -0.11336714343826701, -1.8007344464382982, 0.5208777496953922, 0.6702626835825845, -0.5366978725877605, -1.0084634133439696], [-0.7379261188394431, 1.266631384921738, -1.0582877553330527, 1.8492798235943766, -0.129983403928517, 0.6535256053078289, 0.5931853951469108, 1.0752007615537016], [1.3246767069957661, -1.0419977042247832, -0.4250938010508443, -1.8947973392657802, -1.0157654962375045, -0.30623571145169215, -0.6283155181240628, -0.12405637813874429], [-0.8208648077198122, 0.18731285130433334, 0.5085039648001141, 1.8647663176292735, -1.7130254112684378, -0.012066745415593959, -0.6485109816158555, -0.440537004919593], [0.9633358867755657, 0.9842987961816871, -1.2280498796192714, -1.8261162846309278, -1.3918662244180235, -1.070349412651214, 2.109237751766311, 0.4964903789527111], [-1.005951938773687, -0.8518939276547624, -1.1263411796122609, 1.877407465348279, -0.49480465469089785, 0.4986855385249719, -1.180630024896277, -0.2984428788459834], [0.6818639132571361, 0.9794215960532893, -1.7306592395598206, -1.925151566697433, -0.6462076858413478, -0.7745878888170894, 0.26961574351872886, -0.5585426654898332], [-0.4255687139170661, -3.3616268968483376, -0.6514379220068612, 1.8954217954901884, -1.7870804491642864, 0.7623459622323375, 0.15308878800106226, 1.0416777392258352], [-1.3722796813320852, -1.0625436507489443, 0.9389976672082552, -1.8429377542852676, 1.2154949688357348, -1.424849364066029, 1.0349603694246423, 0.7358720633620177], [-0.6891363661985344, -0.7848928297292074, -0.5219757539825325, 1.8953476549595896, -1.093437098630774, 1.1863500656577537, 0.7355199525765077, -0.34010295543089464], [0.5452001905833181, -0.1723888303554657, -1.4190093177777066, -1.94433436882515, -0.3552020291511149, 2.552738764987258, -1.859960783514134, -0.2609427216209674], [-1.8620002927343795, 0.24178934195730595, 0.5626893939554029, 1.9181618971644363, 0.15880708481846634, 0.44914798771597547, -3.0441288143174536, 0.8469461616983853], [0.5661307036384213, 0.601407232250345, 1.4243861913343059, -1.8528854669764139, -0.9220911152788236, -0.5532814149138815, -0.37768736043247225, 0.6939382149338194], [0.15142942870081513, -1.6219318107036476, -1.2573436999330498, 1.9058626284035138, -0.3625874686823156, -0.6339809885096087, 0.5896747349521196, -0.9147567450746871], [0.1593832095211964, -2.294765203827877, 0.19771170547238248, -1.9561527645996954, 0.30708132506249136, -1.0415685431615374, -1.725020812969515, 0.14072955409639992], [-0.05340739373468901, -0.822098918356825, -0.5058362855230165, 1.934754972192018, -1.6727686490438969, 1.3761991909729552, -0.4795424299720464, -0.3860410853978356], [-0.2252386548115039, -0.5987985160490223, -0.0099853131017035, -1.855566274348476, 0.14042777170855592, -0.24374989284654858, 1.3087977633309367, 0.7165083292636779], [-1.0009512707480548, 1.8441351368957162, -1.05290937225304, 1.9079900229118048, -0.47715153230536433, -0.2882026967993266, -1.7568595278433339, -0.21320045492626896], [-0.6386366336136803, 0.7940876701279219, -0.7874819368662753, -1.9602748544054365, -0.10894601018823173, -0.3749439188018484, -0.902322654812612, -0.3293377761795463], [-0.9726204989220706, 1.3535038346936101, -1.0326417040864293, 1.9437325027296866, -1.7630488387649417, 1.145538049273486, 0.8558189621291704, 1.2799849116205755], [-0.9906492058929116, 0.269562166725638, -0.6852165460675763, -1.8544515613104608, -0.054322674819575666, -0.755862641611405, 2.0227915521191355, 0.9296136653381284], [-1.3598797988607583, -0.6294932101707444, -0.05388880353246032, 1.9054400417675592, -1.7084053451635535, -0.14353888927399772, 0.2740995623787611, 1.2573645448084798], [0.9483361898029805, -0.6760130522878811, 0.006599095187281776, -1.958672008510966, -0.22809840825487399, -0.3383452189042821, 1.2137737799784458, -0.6681693796704767], [-0.04552220969220113, 1.0246237101951179, -0.3320914596662965, 1.9539369306020609, -0.8606690980417687, -1.1915240912372778, -1.066826341215949, -0.7092445552020574], [-0.9681547639685932, -2.604411745319969, 1.9293435039762268, -1.8499343781290885, 0.0775461876010453, -0.467987827868485, 0.5397529042298879, -1.092899348585843], [-1.1116896290511586, -0.16713991626363742, -0.42760888230392646, 1.8986819335060579, -0.9664553872359064, 1.3860020943840037, 0.8420227241486082, 0.9547019529879991], [-1.60304595969903, 0.7890018859541734, 0.6100132851231523, -1.9543234203512168, -0.6821398873559643, -2.292098017516309, -0.9777717081737903, 0.8401247221088872], [-1.5070144951813724, -1.0363305231600237, 0.13896363075098989, 1.960100888272089, -0.4950253181407024, -0.34999115738574493, -1.0901623487807441, -0.6714568146504267], [-0.8431742065704142, 0.885782694601902, 0.48883232807695587, -1.8430598814744052, 0.7899082477486236, 1.0386405014864832, -0.3423690779951098, 2.3020818483771537], [-1.6479652686333632, 0.05689006193861079, 0.4837124508720669, 1.887965844559453, -1.159869137323175, 0.3684128118662763, -1.8384103709133863, -1.8181236781210748], [-0.5978103569182954, 0.7976898760676713, -1.3138023662021765, -1.9461465533254936, 0.014106678510015727, -0.9034370565216889, 0.7085570778530463, -1.2510795847431715], [-1.663839663914381, 0.2025081409813284, -0.027911180013444004, 1.9622097171343553, -0.37567964681874416, -0.4294449351455444, -0.021170497806557165, -0.7835602274149267], [0.17981128790607667, 0.18303446940376222, 0.3896649657069101, -1.8346149923254005, -1.610033839716572, -0.51617826816863, -0.0891060419868831, -1.4250123060008932], [-0.7364390206655941, 0.46043533291764277, 0.4230664046889132, 1.877272562034011, -2.0735654424122143, 0.8802267982018198, -1.578011301213068, -0.9664523426232239], [-0.2996235574567291, -1.8572269335152563, 0.006183293657963782, -1.9375992496307235, -0.9401023643318672, 1.6000086679272498, -0.16575349358999314, 0.27349246718716613], [-0.9651354647222943, -0.8563531891936583, -0.5175508639411648, 1.9624720053053901, -0.3328515476141968, 2.8389768591712623, 2.329501320254512, 1.4264659890877092], [-0.6098128640291688, -1.0374302018760735, -0.8040895804603897, -1.8257346025063839, 0.06754219825283275, 0.4614291252411968, 0.1676870620124596, 0.4271823224002591], [-1.2351058496866913, 0.16984814888282795, -0.37968898203006685, 1.8670053327182634, -1.898600782815948, -0.7003141485089114, -0.5736887816845081, 0.3608440905155215], [-1.110230700600675, -0.7012426586792689, 1.1459077748573272, -1.9284280306304213, -0.08268966752702663, 0.06743447235957112, -0.24246876832245523, -0.5106631898570428], [-0.9308895222027148, 0.5065393920836564, 0.2999704255532648, 1.9579908865813915, -1.9632205915557113, 0.8099437335772339, -0.2673250777953371, -1.1556492222097319], [0.5157733188271917, -0.19811718938181377, -2.0588462289293106, -1.8162979619189397, 0.5500645638666469, 0.6287556799026551, -1.1835817931093136, 0.9079506699191497], [-0.22370495081942365, 0.8402980704122412, -0.908089357345254, 1.852202524808338, -0.8281955761265505, 0.5257819884114494, 0.8614482369758545, -0.37947060239498176], [0.12260606870476018, 1.1452554821256231, -1.4620962062137832, -1.9175958857504352, -0.379598119672418, 0.08643640736384423, 0.14414920150355054, -0.23157437066073586], [-1.4871122300417217, -0.0030268951053475934, -1.0137065444699678, 1.944510982722666, -2.080367352038605, -1.5961477570276432, -0.2186916477011481, 1.9594818665145235], [-0.2028501070179468, -0.17253584964492208, -1.270585454690096, -1.8035740733668868, -0.11139823098381951, 0.35782015456124566, -0.5297710709687696, -0.9833994780885617], [-2.225031973710915, -1.1919296006779465, -0.19099776469169166, 1.839200884559449, -0.7415314676004303, -1.0377072609262046, 0.20275030790445098, 0.7469544593620524], [-0.4473921266423412, 0.9386679537803027, -0.21762591963724215, -1.9026397645174231, -0.711680131883683, -0.47484317525093306, 0.9090078120645083, 0.030806098627711553], [-1.1954563572660908, 0.5207098991747573, -0.36857588584389905, 1.928788761005879, 0.03756238266332289, -0.062026455441402645, -0.851084584713261, -0.9570778424431824], [0.20863823840741522, 0.9340179015459926, 0.20844064037265514, -1.7907111061636745, -0.4615757150762011, -0.6502056680529158, -0.07132624868649776, -1.538337613089318], [0.05742824942852298, -0.19622068019472722, 0.5901718346020239, 1.8247608118026042, -1.0226874760473532, -0.7260792651919237, -1.4895327541341603, -0.3388217745518137], [-0.3245102140067358, -0.7471749294834086, 0.34859581163458125, -1.8899119494591279, -1.5082372764642569, -0.17797422323963133, -0.11522176042730954, -0.2303556744736905], [-0.449487819952509, -0.7113051759183139, -0.3735862012033706, 1.9079779569570197, 0.12271801391157668, 0.11281793975393316, -1.5290490546742332, -1.161599517647484], [-0.7400693549167109, -0.5683925434246556, -0.18970505918889374, -1.7771658982451204, -0.26197224086654886, -0.8096237673311283, 0.3455592437107895, -0.35671669299704567], [-0.17462871369608152, -0.27300123726330155, 0.9647108519250019, 1.810130060974015, -2.9524874417365705, -1.437011246882109, -0.5782021719856569, 0.8236381890998554], [0.4661819582295587, -0.7517976768928956, -0.4510835167423647, -1.8760319264719825, -0.07108139281575987, 0.8465139091671708, -0.7661142717369254, -1.2589367499623951], [0.40993636006992773, 3.01836633442669, 1.0300421734092733, 1.8873026857571, -0.6754115692900319, -0.8343051122244296, -1.4571257520958962, -0.08729848007081054], [-0.43074432203112184, -0.8209958164317901, 0.4397424148625798, -1.7629064666167267, 0.3386465173022623, 0.6275736181539631, -2.109784138725584, 1.085119703906492], [-2.4757534711979443, -0.33245807973883934, -0.9730252454454, 1.7945127948999147, -0.37670520841316585, -2.396542515913045, -1.844826456106636, -2.5795013251680596], [0.009014977223779783, 0.28690599043315135, 0.40335672400077643, -1.8609548539114906, -0.6492098525944549, 1.506818822049393, -0.41679181525164927, 0.31211576135611685], [-0.5027016742194128, -1.08259390142963, -1.1801345058790322, 1.8674947369678925, -0.6033258751934256, -1.7237867957902362, -0.017450758471252964, -0.4566618559593356], [-1.1620947381873892, 0.3018730257791393, -0.3630956025399946, -1.7485588711130666, -0.3035954518270017, 0.5860282974714489, -2.6084930588134756, 0.9591445736764447], [-0.6494403790059985, -0.2895600805058234, 0.47520811911124394, 1.7788466076984109, -0.8742863639528246, 1.1210158578260279, -0.5185828987330416, -0.208944514637322], [-0.827395132543917, -0.6184369454151604, 0.08807088491920963, -1.8454727152160302, -1.1334325895997557, -1.9150712094082036, -1.3368313886953471, 0.7682914617641137], [0.10307264440274501, 0.943209118546417, -1.7403622030918424, 1.846098794991725, -1.5779022650426182, -0.3051929044475763, -1.2031651225690534, -1.5935438718693096], [-0.4651697866665431, -1.552788936955966, 0.6320933982220467, -1.735543920026879, 0.6859836544689965, 0.42439682360386044, -1.1922970047062078, -1.354497139478659], [0.17401577679439495, -2.111347957512298, -1.4536573282769163, 1.7653939720565048, -1.430005446419102, 0.7985561711836542, -0.8319677002478938, -0.535559811277367], [-0.3173002242399166, 1.3599132252616537, 0.5095624539862047, -1.8321025256778143, 0.40649170483052116, 0.8160191463357179, -1.0167869228352908, 0.6062089838852083], [-1.1300234898940924, -1.526610243642154, -0.3426776892967676, 1.8273537444284218, 0.8005338335711091, 0.20037682749078978, -1.116403502036718, -1.4309608747094336], [-0.8500715542039046, -1.2689991629352686, -2.2866085677504535, -1.722436100518457, 0.6100480762843232, -0.7734427932110758, -0.6323583006221257, -1.6522520964324388], [-0.502873157711109, -0.6019171692542511, -2.2381234489597346, 1.7518596589514883, -0.9406973978457565, -0.5802164686510164, -3.1944514965587243, 0.6899449024432547], [0.2188288194274048, 0.5371946000476315, -0.5176756138107637, -1.8183891462308581, 0.5127075411990407, 1.133341851657333, -2.4286291707601597, 0.4359376717119068], [-1.708572391911216, -1.9690370982724472, -2.6121410495035713, 1.810024869025799, -0.8287315507168217, -0.3433986456936887, -0.2959653259105854, 0.20688266768553276], [-0.20878566077096822, 0.28541465244087233, 0.42881085991693985, -1.7136615525139889, -0.7266185275759776, -0.19573704599717728, -1.7022899018525566, -1.495464829070681], [-0.1410191863930164, -0.6462610726102014, -0.7847784294263802, 1.7423470748140333, -1.9943840890606723, -0.19451269134066249, 1.051697559791864, -0.5187045991232483], [-1.144973884677208, -0.7231410164766999, 1.1570691310491927, -1.808387379205085, 1.4451265443871237, -0.24119676480189717, -1.9160245895451868, -0.29975886117023787], [-1.4540945128608924, -0.03360759872111499, 0.8879963203212734, 1.797155853663612, -0.6681584547755479, -1.455424219022951, -0.003931242752129938, 0.44234020286351616], [-1.1547685871575581, -1.2131539764604236, -1.4624769506310265, -1.707721904631457, 1.289776556556357, -2.2831268668763984, -0.8713000565894662, -1.4636865758355884], [-1.0102258990076742, 1.5161466966776598, 0.7851387801743882, 1.7373024079978978, 0.17131409134256342, -1.1483247804504528, -2.456496786906579, -2.212512281672212], [-0.4372097105373135, -0.4158090973230964, 1.143037307526756, -1.802827982254517, 0.9756909037792248, -1.506907170852357, -3.771344653669325, -1.6794259140940087], [0.18940564725502915, -0.8240769248777818, -0.48535044650826836, 1.7875902410918472, -0.9570440595382558, 0.18258383072684573, -0.3292823941089782, -1.6969964799135335], [-2.7730436775386007, -3.9139777394144657, 1.0147776092870449, -2.140180167276495, -1.8989818899839839, -0.5697039669252902, -3.5102281133181656, -1.5316326951761254], [-1.0659983780032964, -2.0807887086847687, -0.9613125376911894, 1.740161992961765, -1.5580779068542405, 0.29537886005981506, -2.740163566815399, -0.17600099304133804], [-0.18551130149209485, -2.0915140580386002, -0.09980774842552784, -1.8051195402951434, 2.218897724298993, -0.15392409892965148, -0.3248825354008198, -3.820926085258277], [-1.070647004274421, 0.36862323216540466, -2.0250499667111055, 1.787161238757237, 0.5116061567614733, 1.1578368977262439, -3.469639620271561, -2.7457733158450597], [-6.376300150513456, -4.135931631974587, -1.8961215642823293, -4.486291544795834, -1.416996654298083, -3.794245910846821, -5.03621562675104, -4.3375248157362805], [-3.6391436534668857, -4.5692592780362045, -1.276758073182336, -1.0721066705312206, 0.2933656544606135, -0.1989440442365134, -5.456812732004406, -5.373714899837056], [-2.1251789707742126, -2.188919690480843, -1.0147629243847223, -1.5792295419897464, -0.7336257912266081, -1.712717555519557, -1.6775742440027497, -2.2873838048020723], [-2.2489036503909836, -0.8520361725288306, 0.07172300637888118, -2.040510532175952, -0.26781361866933956, -0.9360455195945995, -4.412387358739518, -4.397526916465352], [-1.0372016653370633, -0.6531480352994088, -1.8981616635428793, -2.3222588903102377, -1.3088442576366601, 0.17666072487151382, -3.240454138423848, -3.5477325978422094], [-5.439802646823395, -5.067223788559052, -1.5299775157938482, -6.059970749154109, 1.0693613868159868, -2.271820530118867, -12.20170048650335, -9.082708322581063], [-5.697309438485973, -3.7515299450246933, -2.938966617441316, -7.783409867314392, -6.2725135907925775, -0.288764915296705, -3.544031623742521, -5.320155931152961], [-10.779471219173104, -15.863713448127694, -17.080277142854474, -18.2432974147649, -13.20954796455975, -1.9991574506386933, -10.67920645981073, -10.909819152215881], [-15.372004194513348, -18.36307007693706, -20.23572956384604, -21.87414647552337, -18.787960899403963, -5.3628528358711485, -11.69369225731905, -15.434265274277637], [-10.850471172856444, -15.334861361927887, -12.583424070384016, -14.69218690549319, -14.265640671204592, -0.3964802191923973, -4.068464002680367, -12.99516142707199], [-11.2631617424491, -22.200382231381383, -26.60905485650494, -27.010481529203712, -19.764562144051954, -4.596501676675254, -13.33874026337094, -18.675958119949875], [-0.39332814751395406, -2.0426864518382333, -0.24682164243101842, -1.9912202231668465, -2.241404221169127, -1.3139756347689837, -2.8066786506994523, -1.706170034870371], [-39.50067622832025, -49.71856803164044, -50.91964917397947, -53.1043628791318, -50.533756128992486, -13.185359846712958, -25.03784972991379, -46.83492697173671], [-13.35707912119572, -17.103982764735097, -11.874639192269328, -17.334155759173512, -15.825358216377339, -2.1496487400952993, -4.817015436792027, -15.2871489090056], [-1.0049852592728705, -0.5973826225366365, -2.336448870398816, -1.2732413728581662, -0.766308312312973, -1.0166529510218725, -0.6782623501813938, -1.3849310320149608], [-32.58495808232349, -50.90248333655753, -54.52581182132984, -50.21372430793996, -39.94252783982066, -9.612855566292536, -30.57481174519393, -33.90310117648498], [-89.04388997382152, -115.10983763492237, -108.31267735592873, -119.13111608590717, -111.59090125548931, -32.82803982352722, -62.54458158066912, -94.79432525974448], [-2.4427511548422984, -1.1707643153198157, -1.8461355439875977, -2.582124693320591, -0.9706599193128341, -0.030070798721485992, 0.3202983309889136, -4.0814462105309826], [-41.03650562886811, -59.40093901364611, -76.2609072788228, -85.06273283206374, -61.33800302930022, -12.985869237037024, -41.36909350569335, -51.49624408979546], [-82.58586796656165, -132.96173037900232, -134.48256262938725, -128.89024576042377, -98.66062774324324, -24.00414560020359, -81.18085770425587, -84.46765763877178], [-192.55175756263867, -255.92816566528455, -238.35825039545713, -263.80158638310513, -248.72198334959387, -74.76858165324813, -139.36874224675725, -211.78486358470147], [-9.300325330468853, -12.461256257457313, -8.420887873878858, -10.894107023104846, -11.49949159727124, -2.984195754831254, -6.287708189819138, -9.544575800825404], [-20.86614838583632, -34.60846004172825, -46.25713932167369, -53.508019638296375, -35.52446105633276, -7.014617194240115, -25.729106898287505, -36.628599791726096], [-26.64234411580471, -56.40904122488195, -62.5635274468906, -59.55109884779488, -31.35958875880083, -9.783008412997306, -54.19747907454765, -33.20750201096133]]
