[[-0.7488144713550425, -0.28194015192287153, 0.673632588327628, 0.5832922062277489, -0.24650100290145058, 0.5019166409326526, -0.2113229487846003, -0.6694043285204271, -0.19207432457453352, -1.6594813441917826, 0.8208971504995318, -0.6154916341644056, 0.3309479774455633, -1.0302528381121163, -0.4550430236470977, 0.08279403182427605, -0.05197474409830924, -1.5425722214742423, -1.3114765433550948, 0.40963974981257384], [0.24067144905265148, -0.14855664735658794, -0.028261298634534106, 0.2974069056820672, -1.9066189310802057, -0.23350347274775257, 2.4995354698662466, 0.28134869194870377, 1.0207404849864201, -0.9308483639781875, -0.6314941779106744, 1.371271981393553, 2.4253052707108775, 0.062497370842084815, -0.9987581419577016, -0.2666398569239787, 0.7781997703348821, 0.22327633568583935, 0.7334099037606265, 2.05817119886954], [-1.870889346311342, -0.05540502737633734, 0.26374865706919887, -0.41311779999801496, 0.6651439756532408, -0.10098215230459537, -1.5725549753619854, -0.692823025553117, -0.2643935477951193, 0.7674989590789081, 0.17477485513082558, -1.8074033471224922, -1.2885857729146855, -0.3148223006839852, -0.54446200562004, 0.08733148329570384, -0.9812377429729179, -0.2724332684078429, -0.9807528025740558, -0.38363490805336214], [-0.74730529211818, 0.83268033417295, 0.1767967654042797, -0.20363242462470496, 1.4237957901077976, -0.4730174180746797, 0.020545018726878937, 1.6904382411144043, -0.15754730577100395, -0.5824684270833772, -0.7617005133000639, 0.7895415317638586, -0.12034786567890751, 0.1860762083727649, 0.6034132188226347, 0.2947458671763523, 0.45058005927573974, -1.5309983547183208, -1.0038688614839397, -0.849047748801534], [-0.06139598978301207, 0.48964256156363206, 0.7417325541065499, 0.5217215752855305, -0.39742228606446833, -0.3978497046535866, 0.09173894019841917, -1.298996253032988, 0.5123474374050135, -0.025955440324495996, 0.843864469146179, -0.6099420889258578, -0.22489984676164637, -0.48673626664838676, 2.439210265858278, -1.0783032224276898, 1.3025838070921543, -0.4364450987967689, 0.3192400101839099, 1.5331003088108788], [0.7952448194522006, -0.1906786974480659, 0.5840940003588847, 0.07848459702840643, -0.5718297811097267, 1.9128077438122637, 0.291835179992678, -0.4080597332445353, -1.5385384153712207, -0.5405011801368125, 1.4406747385568655, -1.4317319043032921, 0.7931284431097636, 0.641398199122007, -1.0099590711586388, -1.588336407414909, 0.39176419535230433, -0.6677646607966613, 0.3915076416130562, -0.7711869110166183], [0.36857094296234477, 1.5321913728088596, -2.185919080944234, -1.942247221372018, -0.4353418503935701, 1.1508114426222291, 1.2548149279091578, 0.08961440754475838, -0.629091186996392, 0.5243963721635553, 0.8664237288986244, 0.5468942456560562, 0.9875328762376021, -0.6713295962259928, -0.8087994700011236, -0.7199088906293837, -0.3825626948680807, 0.5895970152325087, -0.49986410980791557, 1.0274060226388726], [0.21098799043052244, -0.35962569486893947, 0.49294388336781436, -0.562392641926392, 0.7466831812713213, 0.5851366165983305, -0.5854645130296645, -0.4161026212692514, -0.1333271678707013, 0.014994524301513065, -1.7806324536111424, 0.42999847148546305, -1.0958733291018077, 1.184919259107993, 1.318029367320625, -0.24775058441648362, -0.42742998057984893, -0.2087971777729927, 0.3915379259614827, 0.5897189265875348], [0.13713406757241245, -0.03811245583834574, -0.8523821563550515, 0.9424520549824661, 1.4990185355613523, 0.44287679263513363, 1.5634364139538368, 0.08090740830737599, -0.46318745668876027, 0.8687267756458675, -1.5994099783792537, -1.0056307721862259, -0.5063948778367566, 0.6741832379944881, 0.1735163061929592, -1.2621628320397826, 1.2504613972347545, 0.8019128106044486, 0.640224868024586, -0.44896954566786373], [-1.9080641196570272, -1.201275640812703, -0.44159426874715196, 0.5430063668819237, 0.0012953249424156078, -0.8475633579143714, 0.6032996593348438, 1.038551120633878, -0.8295728029973447, 0.29112890414039216, 0.4196320795060634, 0.06261127774302533, -0.5663324972273597, -0.6004880117520398, -1.0436495136586985, 0.2281724275468953, -1.173041169944282, -0.3027262696319123, -1.2032774448263848, 1.6817770516532808]]
[[-0.06452815460459364, 1.3804171284963809, 0.07568558520611908, 0.9879085311094727, 1.1162063771029478, -0.5806779182097336, 0.09371741420507496, -0.5862678423482409, -0.8429906451424987, -0.864766903856341], [-0.5023814636810359, 0.6889880931127261, -0.8116418654071903, 1.121378203421616, 0.1374280367449859, 1.2962862307144236, -0.9721899158766949, -0.28728517255506686, -0.005376391322841323, 0.4116617446217702], [-1.0483218654189381, -0.3757950231769772, 1.1748514424924346, 1.2797199428053194, -0.056025834019955485, -0.24564897930824467, 0.5967561777160909, -1.5033220262966698, -0.25247302625899026, 2.1670895284185776], [0.5819510769278428, -0.17259978025601036, 0.7081120759263783, -0.41893658624559676, 1.605425042879154, -0.13575659143799312, 1.450423821191314, -1.5963994579052354, 0.7147241084596586, -0.25829107043964006], [-0.624815293714879, -0.26967174284722656, -0.1659544657835685, 0.50406251962657, 0.34543165901945777, -2.386285982893916, -0.14856175656031628, 0.3001441300509368, 0.1186991146511732, -0.22721796154857002], [-0.47130972553447015, 1.0415861511848288, -0.8333421815239047, -0.1979847942554074, 0.3621418516476315, -0.2614782224920141, 0.9738444019229681, 0.9997636988456591, 0.28013964876318576, 0.6791121997515791], [-1.1845647466690379, -0.05435696713955773, -0.20526676358078122, 1.4848518225907459, 0.8688289781107954, -0.887632074186916, 0.08710672912143738, 0.4669192310517446, 0.8356428784639424, -0.0625295244595322], [-0.70138685081092, -0.7582139101830357, 0.1311051224598297, 2.75476434165488, 0.5254797450668861, 0.6468606246196232, -0.38823079119498227, 0.09438816719764141, 3.1980556355626018, -0.3003060449639816], [-1.4603555738655036, -0.1239777506756862, -1.50778378968872, -0.2687892747625308, -0.2785015244929019, -1.4337664063375135, 0.87731158048524, -1.4756111535138243, -0.7712294906488207, -0.14998591188441845], [0.2967060125714788, 0.27757538046247926, 2.0766597297066443, 3.4815500646379887, -1.1516884423374938, -2.8119052465225476, -2.536323092599566, 1.2502299796262217, 0.49452862287163885, -0.12833694130211612], [0.12790666669292133, -0.35185122086641724, 0.5544412613316123, 0.9654085023404628, 0.7931992342050227, -1.0535256546587646, -0.37344046497017913, 1.0925758274157011, -0.4289515213569081, -0.618109971113742], [-0.09663565494097895, 0.31183947042226434, -1.9928218806529427, -2.298645621237162, -0.3101720146245801, 0.8677885955773448, -0.4039971006287928, 0.7238256995011324, 0.41163263195606226, 2.831610562638943], [-0.5742333248619553, -0.595224248272467, 0.28705135094179424, -0.8702300626136472, -1.3122352312294185, -0.3225764132007925, -0.8589099362799594, -0.2856606350631765, -1.5183966368623087, 0.6883041599032135], [0.951831098117235, -0.7439903172074446, -0.6619931774593633, -0.24577049482173538, -0.09890970457606124, -0.5963979000585129, -0.7388883665798339, 0.7337895050772032, 0.5709965479425269, 1.3595683040795425], [2.098404910739687, -0.5313745470044218, 1.9876341021780801, 0.7565061182845336, -0.5472376645767003, 1.6640982462812828, -0.831166834216262, 1.955295346801874, -1.9827093678211285, -0.3617589788810842], [-1.04421109606985, -1.0688829533608364, 1.1360884356244645, -1.7787162975347701, -0.32644680325759023, 0.9461185640177224, -1.4902278456911144, 0.18496055371045525, -0.13873182313361176, 1.0827534886907977], [0.24568789186495138, 1.351332557498656, -2.6534038811844654, -0.2076989297606502, 1.7112215888037863, -0.11054368617401038, 0.3128555963267985, 2.190244282129593, -1.8042473986217356, -2.103816112684595], [-0.4454926086235665, -0.9927042434722652, 1.6230595100873517, -0.345259857878277, 2.2232354358695416, 1.416280361838324, -0.31083451511766713, -1.4782855859894526, -0.6135959606815271, -0.18476252304510138], [0.13462710725046753, 1.1867764809027563, -2.042776413034067, 0.7552654556353434, 1.160115651055542, 0.8814240776265343, 0.5950697859637575, 1.2824881361723561, 0.8475492017291572, 0.6366692112428222], [-1.3960100590071034, 1.2222480558437745, 0.5873308104803323, 1.6501332843652934, -0.034214354636661844, -0.3356412381082555, -1.1901248799096449, -0.4080040612605771, -0.019619276912944923, 1.1342045914725034], [2.0362300055795015, 0.44361851725838053, -1.3476459924000697, 1.422747804837418, 2.336458088077923, 0.10011273310346938, 0.592874017319178, 0.5294864085418864, -1.0620711815909556, -0.26110842638520454], [2.156438197565926, 0.03453857485287033, -0.2820803388950538, 0.6703943155594653, -0.3552126396398452, 0.43616250047940147, -0.22053964931458891, 0.6925980624104718, 0.1640632090548248, 1.649628140396926], [-0.6478891380121334, 0.7570336408813243, -0.8483899340754317, -0.5099914113783254, -0.07569654307243467, 2.645264532225413, 0.28911038366910286, -1.0420003143725303, 0.3051210454633362, -1.4739619273660491], [0.204861251117967, -0.08409489652433177, -0.9526993101250255, 0.2556029263109681, 0.4614367443262273, -2.463524187138795, 1.8040690576255027, -0.4624048945450629, -1.4774211712128376, -1.0017492249269533], [0.01604182632978236, -1.9017728461306753, 2.096770912557534, -1.168018145338411, -1.2084500426902773, 0.3828063408916196, -1.4387040024612594, 1.4555113833036344, 0.8888257818881121, -0.8852823393008047], [0.9445905517295433, -0.014330181123103301, -1.8970712451669631, -1.0232505642737766, -0.6739710586459587, -1.1199157554499737, 0.5372579461773003, -0.5168166358199038, 2.511239460398316, 1.4190429593350453], [-2.362874548806797, 0.28837734060977505, 0.428218432680114, 1.184374409130423, 2.7746395583715024, 0.03873661799671851, 0.05409518791374951, 0.2425593977705925, 1.3141685402738303, -0.3523921967536327], [1.8003535358549605, -0.42506825343158816, -1.591407924601425, -0.1472362931908473, -0.6937492320047147, 1.4190371938564974, -0.5648146781956888, -0.3893673317643214, 0.49333744671912155, 0.9329937012342515], [-0.4238358193648017, 0.3636477362664584, -1.0703174256036383, 1.2045840416125584, -1.4611286954324816, 1.1114790812580815, -0.825491287724954, -1.1736764671261974, -0.17647554772047716, -1.6073986577368293], [0.37963679977194026, -0.31858719546480657, -1.1080627203062567, 0.8035240356818111, 1.8801136005769996, -0.4722299729434497, 0.9892594116593896, 0.3537689026944843, 2.4424892748443243, 0.5971791822216909], [-0.7869410576192741, -0.2995004128939504, 0.32377072011406743, -0.4505599102411663, -0.6432680028424663, 0.25872362344417277, 1.2535936523544586, -0.8537256754245706, 0.3475906755138512, -2.23183089415831], [-0.1160816099388343, 1.344240951422795, 0.803175065848669, -1.2167499739396497, 1.2489141112058657, -0.11465034507718812, 1.0955266051823414, 1.400386612755059, -1.308054956124449, 0.16213754468558939], [-0.9983926354464185, -0.229030658205963, -0.2573397726037116, 1.9200879207757728, 0.8888968023815911, 0.2342033019217121, -0.36428632734745725, 0.2361815347797523, -0.44241611587091934, -0.6305487572158149], [0.47117268008819163, -1.438273237954162, -0.01225849653707253, 0.56963195467873, -0.3622989734115765, 0.18843696484661124, 0.7837114622225335, 0.045244883047285765, 0.7849120184407895, -0.7734495212082032], [-2.221320183404913, -0.8282909506678258, -0.8872573393370085, -0.466915266743871, -0.26034533213521655, 1.341455068874217, -3.2755635450907827, -0.7929211160614429, 0.09818411918001296, 1.299841955312096], [-0.767541680637118, -0.8319304416261317, 0.9548474184809647, -0.6736219297843021, -1.0356853130208281, -0.8777289175558686, 0.7886147998068151, 0.2429547789341063, -1.019644242238105, 1.373599211213637], [0.33937399391679124, -1.4262615309805897, 0.05863639946852952, -0.4826758695987855, 0.1272926987338381, 1.8731240743389053, 0.5000663260485084, 0.6196419546668256, -1.1758936402950888, -0.004864424487777151], [0.15559120911259203, 1.846921172443406, -0.25375597015574275, 0.6448016178266963, -0.7815635501645832, -1.4039163734950173, -1.1471343648548284, 1.3378756248698198, 0.18436350776414184, 0.040876757970826016], [0.5374669470514296, 0.8532932932437048, 1.1923715663098984, -0.6533902228136292, 0.7592737168373477, -0.02553649123646528, -0.1319254797512427, 2.0108145165956834, -1.0977001733253193, -0.012320344146233248], [0.672882562476101, 0.023449156097929427, 0.6204359801280938, 0.4940789075744193, 0.06764007821770451, -0.547348348679699, -0.7991403954142913, -1.206628995026391, -0.324644031647923, -1.21968141871169], [0.3640461751124381, 0.8042841750983951, -0.9380217350974484, 1.2378178521412753, 1.8007239798216281, 3.6652192918073863, -0.5055574327620427, 0.0424603305903053, -0.8765571883437426, -0.4061318095380708], [-0.05629039783345871, -0.8197804642690341, 0.8538553261522641, 2.4060642329856976, 1.020858299268496, 1.487555300933523, -0.3775323525020722, 0.013980068253287622, -0.05102948481004859, -0.058983818163710525], [1.008595796413492, -0.9580534764864929, 0.31344989051061933, 0.22937716091688987, 0.01819652135009138, -1.0725202352601602, -0.847675697018, 0.8310661456279349, 0.03848059273376595, 1.4780674045987487], [0.36459649604803823, -0.24543071088323715, 1.208404585734707, 0.41187980526658463, -1.4141966775362702, 1.215528443750021, -0.9448683085110519, 0.7367021539480111, -2.3240858352771796, -1.058979841642397], [-1.1505931627416057, -2.396697087898785, -0.09295214981222669, -0.873607821682125, 2.1165686051130526, -1.3150546362674724, -1.5265299863850825, -0.2192808063835187, 0.8401351286393426, -1.30288277590584], [-2.6786526783293603, -0.8640245908017484, -1.3237579700023228, 0.9441519900703613, -0.1276409890685761, 0.22210513883098934, -1.159897293988593, 1.1080788382049582, -1.7709054523124674, 1.435078895191091], [-0.14695275449255593, 0.9965729608099958, -0.6059302633095615, -0.608442025920728, -0.987850831416684, -1.6653588204665242, 1.6368487032605237, -1.7909376263917813, 0.24396522648703506, -0.08446473732261246], [0.012642905610481906, 0.6803094015238617, 1.3996223125128582, 0.40947469361914657, -0.7461080048968072, 0.29515235211977753, -0.0932150755569392, 0.14356367063798017, -1.639740860285612, -0.43293466174220896], [0.9960994856189153, 0.8149704922765767, -1.8356110781512764, 0.19900288994211673, -1.9957849480475156, -0.4315840764220457, 1.0696191063355505, 0.8495459282668225, 0.3376969323992427, 0.17862075163582267], [-1.6758877434430055, 1.1306276117962881, -0.541946463011822, -0.37290459132267534, 0.9956056123427012, -0.9639033404812557, 0.08139991112399039, -1.795649437983858, -0.3648858191853522, -0.7140819882902119], [0.1318800085163546, -0.234298158772296, -0.9034669525010601, 0.06270350346268234, 1.458377577341236, -1.7889823985104663, 0.027788373381175548, -0.21831418294712285, 0.5104784547963369, -0.6226433511758175], [-0.8001814838027826, 0.23167910340691852, -0.4026841464369057, -2.556700710678443, 1.5273528531254785, 0.1531578630930511, 0.3425036962346017, -1.3218421629066957, 0.10208033832775637, 0.9040976570630918], [-0.6309893227000303, -1.7087752074978542, 1.63067929075207, 0.08788621611900364, 0.5408970144593142, -0.07830511789981945, -0.3742780354527232, -1.400320336162281, -1.1873277734410188, -0.4266946034400198], [-0.42198793579562105, 1.2625205123086656, -0.26945268700923214, 0.687594753287322, 1.1635645052912196, -1.031823596770021, 0.02825252254446776, -1.8132409907320133, 0.04983102708577661, -0.47759357200716634], [0.5348851575690516, -0.6610838355724442, -1.282048788858496, -0.6106471995704851, 0.36264707438124144, -1.954232466396252, -1.6379554621186088, 0.2645998039274616, 2.242798666723253, 0.19881133646601692], [0.016929118914125595, 1.7476123561908492, 1.6711657798561856, -2.56477107604803, -0.5204296742862672, 0.8054201411972421, 0.8599385487442, 2.1353612127813038, 0.2697909652112171, 1.6991116848322263], [-1.1113679375637513, -0.2645834230568352, 1.0322191708022543, 1.0724585182370205, 0.48430688275326195, -0.9640885917385404, 1.288225002521666, 0.0338658642031318, -0.09324459760025343, 0.49772579497978964], [1.0602590949182966, 1.2144303284222147, -0.9701656114906502, 1.2941798454595355, -0.6537336391963483, -0.7497766043596762, 0.7221149680134508, -1.743504805420015, 1.2622922071904947, -0.331138784630588], [-0.06839997008904268, -0.634926462908255, -0.575723962167693, -1.3297551508895187, -0.14289555904427007, 1.1065301926006068, 2.0319472704322683, 1.6892737686255432, -2.273922925181171, -0.566049340904934], [-1.1327684903491377, 0.9665906308308078, 1.0416006057608123, 1.7401843567947919, -0.23656681808231889, -0.9833349680159847, -1.1330799931105018, 0.09549288231793637, -0.3567292455101648, 1.5689565595316766], [0.31760440028910997, -0.4077614696892348, -0.36163000575721976, -0.6573314925660418, -1.6583551066855386, -0.6647570736761591, 2.292458592835312, -0.1618430065629412, 1.2352019505512224, -0.4414861038643685], [1.231849357928025, -1.0190415553498129, -1.1081813111130447, 0.8057510097410914, 0.06343891633305593, -2.674805582125573, 0.47332894521073504, -2.553294811873234, 0.5548987658445388, 1.015446601044989], [1.5202373837196255, 1.9129535147844134, -0.8587137735344489, 0.11751682291751338, 1.3817508115764665, 0.10992452393794237, -1.4739479270693037, -1.7940542779377815, -0.8578610379234524, 0.4587919118380472], [-0.7971450830667286, -0.46754162410057665, -2.5382005649584105, 0.07944884512573218, -0.7943899262139869, -0.1370153753523098, 0.9098504822339306, -1.061078046280412, -0.46204848500515766, -0.2230432750158742], [-0.4926665175044124, -1.8876570311016747, -2.1305206472728875, -1.1925662451807946, -0.4819475338041131, 1.4403580946993335, -0.5506980888474092, 0.22483936251792033, -1.6079742238001882, 1.5845253362297365], [-0.4006432815449469, 0.2571463164619238, -1.4014836589752073, -0.12415908618313823, -0.46221100660378395, 0.6696426412523628, 0.45667541291947245, 0.023187101631953543, 0.5768583710349576, -0.5834284176639473], [1.7084630960352407, -0.5676311292806334, 0.053296846845197636, 0.3148853649899128, 2.461725244320666, 0.7487094370771341, 1.3031225444918932, -0.051438567479937455, 0.28487571578524506, 0.626746391889524], [-0.9162054809800945, 1.7365102119199591, -1.1013784806757607, -0.8178390292062635, -2.065126860415824, -0.7701825969227925, 0.33538446647676967, 0.31424415112482745, 0.5455199244471259, -1.6614820063279931], [-0.7768705433811848, -0.21589827952278925, 0.07802049040506627, 0.771204287982555, -0.8956670827094839, -0.5892941631488143, -0.5744575120089734, -0.10664093121389287, -1.6267262417072144, 1.7491277025163035], [-1.3201132206791806, 0.7908688740298697, 1.0103865217534291, 0.08960049155940618, 0.8991880703170134, 0.0434191315892562, 0.09301265831539254, 1.340787292449972, -0.04575441476685678, -1.7688321021791131], [-0.017363571795930025, -0.9628131343540203, -2.0396339840056874, -0.14274943874183754, 0.5120737566790267, -0.39898737589072714, 0.20548743425023008, -0.978021031528797, -0.12720498609202388, 1.4632062259037872], [-0.7615149757346301, 3.039128155949324, -0.6652360822319713, -0.9208301108522454, -1.3125907193587503, -2.078759951135567, 0.14790478489924327, -0.03842110359713825, 1.1029777071874696, -0.244367402677303], [0.16284934977243476, -0.5671724533809497, 0.14862341020088032, -1.227004091105642, -2.5567715690392383, 0.5256956255717866, 2.0750898322869213, 0.9789403251715577, 0.1343919205875518, -0.43645101076444215], [-0.7196785506165025, -0.7464317708069955, 0.06520462898918368, 0.014806247420667431, 1.4934660871219394, 0.49350779041055826, -2.086355191580644, -1.1674463920173601, -1.519024476535419, -1.1137570309350222], [0.3410113786514535, 0.9011657465986866, -0.5173040752101845, 2.09785114672073, 0.06850951791796707, 1.1510893816006966, 0.49391491496999346, -0.4346905148881194, -0.6244731389839856, -1.0503388382214438], [0.06528397378233908, -0.015940631942902496, -0.7718480552821645, 0.04870901198098569, 0.15451503721443122, -1.3808766967485857, 0.0650877058865552, -0.20749860116135058, -1.0154575036089788, -0.6349908053730038], [-0.42009245350558183, 1.2330863688705773, 1.7792297496720364, -0.5051812832014255, -0.04657732736364737, -0.20296051923340785, 0.6994426821242736, -0.6868621298134633, -0.5415820803063086, 0.5888764909813213], [-0.4273423772813015, -0.6989419764337833, 0.4461703990952853, -1.8018874744746303, -1.5652173441980335, 0.8371485611049394, 1.153584394485797, -0.11455845268297571, 1.000646508221802, 0.4743812469868383], [-2.9366919710465993, -1.940065916341487, -0.5026620355609063, -0.055026845080214895, 1.224862497557607, -0.399083017135231, 0.4911099308147269, 0.30649886696121914, 2.1570777418378064, 0.4860020016042323], [-1.6017325322317149, -2.0506266909565607, -0.18369846319447825, 1.1948288468704689, -1.3159552952761109, -0.01931708010292232, 1.136299572832292, 2.5388651964904523, -0.7839432930203146, 0.5360357578106979], [0.006756079419662373, -0.9180545882802661, 0.8185631065243535, -0.2184360271983222, 1.4197545555792226, 0.6013649609324515, 0.10168050482075577, 1.0913221776156243, 0.6709659078522001, -0.7555093804671275], [1.3775139158397958, 1.499173922310478, 0.08258581352036078, -1.4621303432148633, -0.14451850638917968, -1.2786664829730712, -1.8739333390568693, 1.5101557858147905, 0.8108155768394608, 1.1498059237845657], [-0.05160849662366691, -1.406403057908751, 0.018786338020130883, -0.9451192345438706, -1.82655523172941, -0.7525064158256952, -0.12379594892734161, -3.0494073961316284, 1.1044006087203548, 1.6753179975914017], [0.18889392581112305, -0.95130054232217, -2.4349644224984535, -0.25136245254796086, 0.22251095685959596, -1.1377696676063362, 0.42162055158896206, 0.7839387956991587, -0.46993366565583844, -0.4359505422169831], [0.7512799705283688, -0.07089665726768016, -1.3127574386469998, 0.5038111387561154, 0.1048607859682657, 0.6344828387430498, -0.6253380209096961, -2.453751388065983, 2.0795491982604712, -0.24833941806767823], [0.3414804547691938, 0.7849313336270082, -0.2569623147502365, 0.4451502154783832, -0.050467399505444, 0.8326927594301924, 0.03391235091938429, -1.3119938738576031, 1.4187328031076858, -0.458539928686169], [1.189562095972231, -0.7344545267608467, -0.9498212043981339, -0.4318195701988477, 1.9547693363605882, 0.5656554063506928, -1.0035858126845087, -0.46069322167105475, 1.329310411210457, 1.385867286449441], [0.7580173856444843, 0.8021343948679792, 0.6680211153448762, -0.8535970754549044, -1.050935405777263, -0.1701288553659311, 1.0581355382460882, -0.1906918169209012, -0.3547529605137734, 0.4666907457827253], [0.7399767491951709, -0.8959538068629209, 0.2314181517277922, 0.7054272577515083, -0.2493431479340746, -0.4925027157373521, -0.13606388995856214, 0.4172004911414449, -0.8077963327866755, 1.2984877679404438], [0.6238448366719652, 2.0284785681025004, -0.6245592411161451, 0.7737672964037006, 3.244498802629294, -0.048325633647185236, -0.6084453818908013, -0.05117042159565146, -0.1471191170190711, 1.3586106652483076], [1.4581769927954642, 1.0015166847763497, 2.0598625668234707, 0.6274419837704882, 0.6599311189274057, -0.27392954585891377, 1.0944449569130579, 0.7348614586066753, -0.2131535098276476, -1.0885800734301774], [0.7527421635405829, 1.6065642198687693, 0.7963123874692537, 0.6769804555500423, 0.2060024000703046, -0.5996398077855689, 0.43112141357482764, 1.090948802281247, 0.08825035941418011, -1.2086919718582452], [0.5645111188919018, -0.8427991683816285, -0.2953591088725432, 0.2779078925297152, 0.6983519617721019, -0.7291457576760607, 0.23051749657647264, 1.3240170297401377, 1.165536936822405, -1.1986399979883142], [-0.6344996937887544, -0.2940413807335043, -0.5577501599629413, 0.35656683903462977, 0.19295020926659376, -0.1690958045850599, 1.4501149765396821, -0.2568380878833996, 0.19378616113942407, 0.309146784796658], [-1.287756727741447, 0.7540159094301117, 0.5535264072648214, 0.280346103427581, -0.9813952456527135, 2.3734751665026814, 0.8447148693002074, 2.032500102548113, 0.17698533993889495, -0.17750974377533912], [0.6904974546389464, 0.7565242378600338, -0.3130644736061049, 1.2202964938943568, 0.8958455791392551, -1.0844236291525282, 0.8127634170321136, 0.1386573152636706, -0.11732399432753217, -1.630522686647892], [-1.2607306660999027, -1.5488110777022819, 0.8489474458317322, -1.381270046253175, -0.7543427123989696, -1.9629950746513285, -0.03584158385699659, 1.7158116544091857, 0.6781323184344314, 0.7837419882605782], [-1.736161919932957, -0.8988302327876514, 0.21996601720009462, 0.2874983553288993, 0.4022231630816817, 1.1918358255946127, 0.7495201188232485, -0.8575460521819889, -0.07935205158376395, -0.5727446012033414], [-0.32437214998063724, 0.11759783899380781, 0.6225850798459714, -1.9790227156954399, -0.3479438952426751, -1.1853461311669613, 0.1568255322986477, -0.09242613643186721, 1.249365972601759, -1.1467762561935697], [-0.4864265681818608, -1.3760797210291178, 0.1759091585051833, -0.08563989167098611, 0.15707381561531844, -1.0995377276123661, 1.275846876463922, 1.3478740226262433, -1.6967873116996846, 0.3854481346939553], [-0.6812956775011578, 0.6795191716385874, -0.9773241950561936, 3.4249800548060034, -1.7144571715974932, 1.196418650534094, -1.7834783974213673, 0.9730495656507084, 0.705740329127883, -0.26538436056278425], [-0.2037714871533114, -1.942774266163749, 2.603341118154656, 2.0065312003485265, 1.2404835760071762, -0.14969019712582704, 0.512720928578842, 0.2854509898508834, -0.04405120402606595, -1.9266072903917293], [1.131975820048639, -0.8555562919142787, -0.5176268864530137, -0.1997151479333527, -0.4904113281074882, -2.2366625274642646, -1.1409137485011032, -0.5379996320288959, 1.3644123806886796, -0.5922423039111869], [-0.6321198382426387, 0.05602330875368606, -1.3433308294518758, 0.5941586670123645, 0.6097759047637196, 1.3442427796720091, 0.09811196959319533, -0.963171655352001, -0.3293009801434949, -1.563738972675354], [-1.178586933219951, -0.040582340570406855, 1.1142187631863103, 1.7499843810270048, 2.8094641234368276, -0.165951708671322, 0.7163383057683067, 0.381389620952654, 0.4105811453115019, 1.0276601909086667], [-0.5832012116650789, -1.9702119307057733, 0.31690947156640786, -0.3326776479838165, -1.139820648849028, 0.3727183312862671, 0.972593885215899, -1.0546120979450815, 0.23564206029381113, 0.378977537830321], [-0.332846281751441, 1.2951619080822798, 0.02464676653883325, -0.3534295471645322, -0.5970015854800625, 0.914544650474113, 1.4375265102417196, -0.9226328865281934, -1.869390854372464, 0.7361734974266438], [-0.8055612247453308, 1.2713383014823112, -1.2518092511580285, -0.1844217637835074, -2.0969773008556594, -0.47835053826911234, -0.6964038628415846, 0.153892797916081, -0.5096025722269707, -0.14255654669053502], [-0.8574623135736171, 1.0250633611268294, 0.6340187027756045, -1.599913269035379, -0.3056266656405269, 2.135372672445354, 1.2246670053465887, 2.2683836050166435, -1.1493204577442167, -0.5735615546412405], [-0.650494924320812, -0.9325901210122431, -1.176448777845225, 0.7648757275122322, -0.8230435105433851, 0.1560546043494037, -0.014592223627856192, 0.9406900235615502, 0.529418526393342, 0.22075912686241594], [0.07671371729164732, 0.9038954813197141, 0.6165197984311775, -1.0335828155048647, -0.7716597014270314, -1.5951491928774613, -1.3550149962932139, -0.996471436093547, 0.17141831119041015, -0.9996837760621787], [-0.2127534610073179, -0.19884542162563926, -0.21608558199259462, -1.5210611025698595, -1.3852532106563626, -1.8510496326352428, 0.7495660189666841, -1.1572048939851967, 1.5089044557220237, -1.100938984729632], [-0.3886926945446608, 1.6724124477176998, 0.9639325977077621, 0.8848657703171451, 0.6062998122450356, 1.0800410886254714, 1.7646225404254705, 0.10344766583208244, -0.08484234866180018, -1.0872405063308168], [-0.5474218203465029, -0.56039222914467, -0.9562064329515462, 0.9110994477396701, -1.2407393467428778, 2.932228705254469, 0.22168588290652907, 1.4733943095283077, 0.756071159943944, -0.6493923079415939], [-0.16856014026167146, -0.4164262420018493, 0.06694650479475252, -0.8559711378597132, 0.17625212530194895, -0.2740122571602332, -2.6301091052861767, 0.4094019886940353, -0.1999500805000276, 1.9977561874344152], [1.7295344169540352, 0.7756938527827966, -2.131704740080129, -0.7348511299403194, -0.8881265688459847, -1.4977022427091318, -1.5630949280263395, 0.5164915770392198, -0.18077238167356358, 1.5061548432198766], [-1.0171668193281438, 0.007684260376248406, 1.5199251331022847, 0.9804451787753017, 0.9502896192507997, 0.14998976344365758, -1.1108707211322075, 1.9663796648600842, -0.8451384724972196, 0.8490739183763133], [1.1050413939979469, -0.5147065879838004, 0.7151592219047658, 0.40935498724063357, -1.2957051375771163, 1.5716272853270419, 1.9323169267384244, -0.2921522291716219, -0.0030043714861319633, 0.32502508238671696], [-0.8099180615579852, 0.1937316847840568, 0.38861790298729715, -1.1609962185885938, -0.7659492555922419, 0.948836097701195, -0.63605047905611, -0.292397740207316, -0.3104486431100922, 0.7269471144657897], [-1.883854186002902, 0.8361109089081235, -2.333249658787081, 0.5833680211435459, 1.2178657741495038, -0.22584646241308384, 0.9068545198280348, 0.12853850222940702, 1.0447838160012366, -0.7113442035941615], [0.5665986107051018, 0.05432549153593068, 0.8487625888413418, -0.8714922910089152, 1.2443912441088119, -0.5762363107865062, -1.2168428929398047, 0.952605016018652, -1.9427738415337688, 0.6926887702664503], [-0.8955942520108937, -0.6774879408435195, -1.0936540728081479, -1.4694131242834336, 0.40323220820395234, -0.40640267999561364, 0.2806525337561557, 0.7831980805703148, -1.1325818459779198, 1.163175695659624], [-0.6245331714203187, 0.5799494969752426, -0.13485408255782735, -0.8766997181096435, -0.08782561552059671, -1.2356990417738505, 1.7359233904436564, 0.36354411073837084, -0.9066613636404186, -1.6918635407063454], [1.5356957764321586, -1.1959457206359112, 0.3889198551081282, -2.623430463024805, -0.013125024820613269, -1.2184863347848933, 0.7665622202041699, -0.10593974027605635, 0.7116548396396103, 2.7097232945317766], [1.0335394832990068, -0.49465893592818777, -0.21203047329037006, -0.3747400580718798, -0.42644518465185316, -0.5273120027219544, -1.0605623072377321, 1.4334137239230382, -2.215942803910179, -0.06362125576150911], [0.42377631214094363, -0.7825645488890829, 1.3113326091659494, -1.826318488880298, 0.1275646623174505, 1.3793685112196186, -1.1243789997898308, -0.05486497043686172, 1.4162720347085662, -0.14975504061720163], [0.3644936373648097, -0.6222404641157538, 1.959511576664585, 0.10710510366592932, -1.7630573463871806, -0.5895399320141415, -0.5773346987231295, 1.883905815091772, 0.9998019442362763, 1.326622458251409], [-1.5211475799290861, 0.5027050471094375, 1.0321678051614949, 0.7164369061712567, 0.35695887794366216, -1.4030946881275994, -0.6507520696027626, 0.35400802664297937, 0.38279702538363547, 0.8929144561517429], [1.2079575422345177, -1.191968995961636, 0.24356390715064083, -1.6964841653686888, -0.8840269973126269, 0.9357336520129361, 0.6766433040824036, -1.0610817085602617, -1.597593330085673, 0.5723802680649623], [-0.30864524011661615, -0.31207852205396946, 0.8449284520003129, -0.12529555631113873, 0.7230594969675902, -1.7656988867022578, -1.8887352025359385, -0.3790175642070776, -1.7187199478040889, -0.922039693529314], [0.6134231906136016, -0.7863581906169764, -0.5811931113019164, -0.059375362689196166, 1.0354463553019355, -0.35981140121592753, -0.8757378410311395, 0.4224259688137785, -0.5921498843098968, 1.2151906319857357], [0.5966968743624933, -0.02253679305305029, 1.0487680325827609, -0.5443915403403082, 0.04425235158152213, 0.617854594592682, -0.699033080972523, 0.4733703893080279, 0.5295094871149033, -1.7076832986817017], [1.2701607310269827, 0.4607580230321881, 0.5552073288957535, -0.8257698043832042, 1.6228094303142413, -0.6230856072678931, -1.2698594517066202, -1.2110150663111532, 0.6818282400388288, 0.4201173103902945], [-0.784184171848514, 1.505857435629201, 1.3141356512748819, -1.5017025733457452, -0.03094681792232834, 0.8276111265762179, -1.564475587751063, -0.8700359941968834, 0.06543746649230142, -0.48807108343217054], [0.018319760407778923, 0.31426107681175497, -0.7195918486763577, 2.200246349674223, -0.0753346079841695, 0.5421813903657896, 0.6243019824882508, 0.917615969680173, -1.4629417265155038, 1.2995657446167665], [0.17929357541189034, -1.2785524511939974, 0.4458866831203006, -1.4007262033730334, 1.2347835155406433, 0.130601678552901, 0.5510699892035644, 0.5226218061797436, 0.3856320957393388, 1.3295304481034442], [2.486787903638324, -0.11718981058579891, -1.0440255228184243, 0.3881524729331806, -0.2642189594394978, 0.34159785395235154, 0.22814570378061083, -0.6375434486682827, -1.1112964992471488, -0.06323631617045167], [-0.32569774454766337, -1.2389628116875677, -1.3158773861834654, -0.1276145857201057, -1.2261848970439566, -0.7284390361321113, 1.4662162050015994, -0.20200524899497999, -0.047495685464879055, -1.0994266860248616], [-1.4102686755269516, 0.5320641970293416, -0.28680189252736116, 0.012773414352215757, -1.319688909079081, 1.694700491904233, -0.8107122259968487, -0.46347039391782896, -1.4374150621670887, -1.4111500353512512], [1.2359862395931434, -0.960224923634789, 2.025395865772482, 0.7658956315465861, -0.1735776008555278, 1.0369646560126158, 1.9747002844997525, -1.2337892432287956, -0.2828381370529358, 2.8032966503078685], [-2.034173811393097, -1.1368214305598103, -0.5192044884800986, 0.9082167131251209, 1.3786731674565762, -1.634123435241873, 3.181619079713691, -0.4204541622373263, 0.30648247233921155, 0.07109448716697762], [-1.595192993164154, 0.0018206971604734232, -2.0138903770912195, 1.1436628418020802, 0.9666699526492917, -1.4406081900904344, 0.30083998383713584, 0.39178973169026865, -0.6591795847835288, 1.8315451041153492], [2.230930881157815, 0.5892907992401003, 0.769282179964667, 0.1979258323293198, 1.0708452164628495, 0.71066539774751, 0.386419018210078, -0.5361122905811316, -0.7051811316896873, 0.24961813914864922], [0.526182541701023, -2.020101271261017, 0.09017559908172346, 1.0249096381162177, 0.9493670709220742, -0.5154647722732586, -0.008527094148703543, -1.3740510122731713, 1.9136630031896857, 1.1235877545133477], [-0.14281542099230832, -0.707544832883575, 0.7063104854690516, 0.44423338167555887, -0.2939022610790623, 1.390145315316959, -0.6551444203227442, 0.794167743759662, 0.4773844562906519, 0.2723213953197811], [0.9658819977701112, 0.3522093327562209, 0.29364061581793716, 1.0863762297437747, 0.2022123639822001, -0.4094276266156582, 0.49642234215244246, -1.3376178961574003, 1.6615142682640405, 0.2000040930988875], [-0.08498821625764726, -0.5406561290171555, 0.07747589653368797, -1.3753267532306692, 0.7572487132325709, 1.5509037368344005, 0.2251142167988959, -0.31192143167350295, -0.5140317025563579, -0.011182619204445708], [-0.2359315888993358, -0.38574582367413435, 2.0025423163569385, -2.2637424964588546, -0.8349942532811254, 0.4026022173134506, 0.023386408769733517, -0.752610096904813, -0.2981306515579337, -0.6816722296446114], [0.7380504946633984, -0.9403811456852116, 0.5970109073271089, 0.6777537188220409, 0.7949053285397634, -2.1107317922532864, 0.7151069599750903, 0.9515423509702179, -0.46078673994585645, 0.027017743205457325], [-0.08939547991386496, -0.4024394433831398, 0.5691725371106332, -0.423609839688284, -0.6327510893632796, -0.33903261789724615, 0.30459742052847966, 1.3232272361166595, -0.44757580861657875, 0.49913807414154365], [-2.420277768214032, -0.7987801323116199, -0.7199953244923712, -0.20834323707158334, -1.5531040445049349, -0.04849398409249632, 0.32791600311342195, 0.5757409541711951, -0.04616754007620794, 0.24196890197976753], [-1.0201057324852638, 2.3414371986067084, 2.0324535312468077, 1.27577423495848, 1.4761602591195455, -0.4977175167803765, 0.6874552940545272, -0.741175314050381, 0.6805091716589495, 0.5896631912633017], [-0.6049652754347005, -0.5240388306408834, -0.030628930603674494, -0.48824247546278327, -0.19216644405351876, -0.9978645076988998, 1.1785866669038736, -1.236652393696506, -0.3293739383735801, -0.55694284596409], [1.2567781486587362, 0.015196177619766355, -2.5055711907819718, -0.46324672845375725, -1.3633141074767792, -0.05156622796183262, -1.0973657836694912, -1.679031755603263, 0.3204112056367162, 1.112559914116212], [0.359786588145724, -2.862624134905122, 1.188790617258879, 0.7106663365835332, -1.318165123118254, 0.9464753911980115, 0.5163156346850398, 1.8089925397241031, -0.1657532582300283, 2.2284262136165074], [-0.1890668641485342, 1.307772207858163, 1.2666959501058874, -0.8688479265433262, -0.865662968735351, -0.0456204555194505, 0.6588038295652636, 1.1963141071712033, -0.051859833184026274, -0.13745900088293533], [0.749298214375411, -0.8387953580200506, -0.3809956841734563, -0.8338442579468315, -1.529927088517741, 0.14987388208479038, 1.1171294450080622, -0.16635050328375528, 0.30522979338642253, 0.15115487478409234], [1.5065349883934227, -0.30436702513269426, 0.6592809888681039, -0.4741710959742876, 0.27758193995486263, -0.09496925633036668, 0.9344156359919528, -0.3163985621142268, 0.20816074061766127, 0.4369402857907237], [-0.6816739055437356, -0.49787289124091044, 0.7349370684407355, -0.9795735232266659, -0.24138253246051156, 2.2197206745661817, 0.3874523380654107, 0.9661985885830392, -0.12047043370123879, 0.22804753109334747], [0.7611608675125391, 0.3234290572538778, 1.958623422344377, -0.695978101414719, 0.2104135574372349, 0.17453585258345694, -0.34351747500881047, 0.6927376806651855, -2.019952240621359, -0.9617379448704977], [-0.4762046120753742, 0.30988455507055007, 1.165882010248731, 0.07961323839692018, -0.9678451727448878, -1.0503221535561325, 0.3809191198790285, 0.7362689789750719, 0.16109377781557455, -0.9737634258058188], [-0.9761236598360333, 0.7995248777387549, 2.517892854028936, 0.19681433080094188, 0.8225911406194812, -0.7946062748616537, -0.8685175196516662, -1.5375285199437065, -0.15225823358719065, -0.9553243780888993], [0.26189566752472965, -0.5302222537144001, 0.6980747156610148, -1.719479785082579, 0.8392219841838976, -1.2599784769467746, -0.3213217260966681, 0.45401740704513144, -1.5699963398249819, 1.7894627056475954], [0.6181297753944266, 0.38437356213051266, -1.0257375330840106, -0.18112160459620366, -0.3527564394069258, 0.8667343736190526, 0.3623788188895113, -0.27744307261321016, 1.512247721069047, -0.09788361703995063], [0.2654061810235965, 0.5920606924617798, -1.520457368900536, 0.8051727250949003, -0.8831881601695677, 2.7809344367592996, -0.6223953886387732, 0.20197187332213232, 1.5104976134072077, 0.5024962187595822], [-0.6444413540307965, -0.1699713614591702, -0.09931057742521864, 0.10025916160772727, -0.587040571511266, -0.649595491556589, -0.06631449784576406, 1.1317060758639976, 0.7155318444243116, -0.2217131235175854], [-1.2342131766257762, -0.5781554089919219, 2.8157211977011527, -0.1297206614835229, -0.26904397024219406, -0.23878896920012097, -0.8708309674933631, -0.2212997387517135, 0.9166618200482063, -0.2934526676371482], [-1.3406345389984, 0.1049305965522046, -0.7380085110097768, -1.5454519934972086, -0.9361463567371726, -0.1654130154551218, 0.027786760353439573, 1.3372211841090025, 1.6442681827464027, -0.5415157732085634], [1.2270517559229352, 1.460920254525872, 0.9984132500749964, -0.7575797637651117, 0.11640331609844486, -1.0053798351397558, 0.5587953643410815, -0.3198708215319781, -1.5054463667341185, -0.6123400595252273], [-0.8285681459812081, 0.33281346816768376, -0.33110705079226943, 0.4320175626975389, 0.7645959779816305, -1.8732403018743782, -1.2368634901402482, -2.245322907866201, -1.1067290780807069, -1.3187184713392532], [0.2278309731292509, -0.19315465973804763, 0.2878279225328771, -0.36300169360560264, 1.109681281263117, -1.2235148165105614, 0.2588532197831227, -0.8456566026404849, -0.9972068843092485, -0.8690744900560428], [1.180077478700324, 0.5100715193339639, 1.845719432040753, 0.9793640600490452, -0.21245609747244468, -0.36283141461279045, 0.8194217200688014, 0.8616911763142605, -0.9036318376720663, -0.33998017995774427], [1.2004076833385882, -0.38005983616070654, -0.4797254530969536, -0.4643614157205039, -1.138868409305564, -0.46424126014060657, 0.38596891919599635, 0.986919624002983, -1.2073153521875575, 2.2590793335714263], [0.11083069163934291, -0.12311466284298643, -1.4818432747511638, 0.6942981038115322, -0.1678065470914092, -0.09477650757647291, -0.012574517542279496, -0.45710584677919086, -1.3218991365244197, 0.5150389122450896], [0.6734761711244809, 1.3636715790234772, -0.05273816555408884, 0.405352910493762, -1.2702088910529303, -0.9139699872548105, 0.3847114597440796, -1.9749243308812405, 0.025872001832052356, -0.6136726091965112], [1.3266424898066684, -2.0538293225445696, 0.07888240377775094, 0.410794299782189, -1.0020703020872963, 1.584935158961838, -1.353610531913957, -0.26422040427411836, 1.4884211683165716, 0.17701298853508893], [-0.8004074114273645, 0.24663873213489337, -0.3816840261479635, -1.1056539034475439, 0.8389956670011341, -0.8277548099486539, 0.4411929008857718, -1.4754948170390056, -1.709126863262177, -0.7675620734803567], [0.38087364649219513, 0.42619764401125104, 2.580571153013203, -1.4242839643581982, -0.13265927605656436, 1.9494017299167576, -0.4888257950807486, -0.053142848772892194, -1.1873297576174184, -1.9064988924071575], [-0.10784789090909858, 0.2260035968060267, 0.8336391521917121, -0.8508797000451586, -2.2335733845940737, 0.7408270605667302, 0.74669346226674, -0.26587894614252716, -0.29200369630245393, -2.4097650860973396], [-1.7129735979075555, -0.39361599348266996, 0.2586264891726804, 0.1720129945545371, -0.22415109443831663, -0.9901723606564534, 0.6541589311401284, 2.249754227394693, -0.26296367366599205, 0.03018800066751836], [-0.02811578482577152, -0.17284127148692782, 0.7715253495192574, -0.9966406963575519, -0.034279301445214724, -0.2307709848450098, -2.8934043534062788, 0.15548183876172705, -1.2290634912997818, 0.2348049722230875], [-0.8575038418777706, -0.1985580471454043, -1.4929126175667675, 1.900538433702516, -2.683567075274606, -0.06537614425126405, -0.4580588369306974, 0.28421401078723846, -0.5128318473774724, -0.41409179626729903], [0.578647719781073, -1.2748275234572346, -0.8917834319896383, -0.8962170827845737, 0.7078843234366189, -0.04699503933202906, 0.7986962341396707, 0.08965362134732113, 0.3908356414048101, 0.5924651704425774], [-0.23123715991368213, -2.3577584790851747, -0.5698951843819078, 0.8641939040128974, -2.0786121349723783, -0.5501981786483077, -0.4863298428552179, -0.01575088401754198, 0.246142954280083, -0.04525389634730024], [-0.05837581559754569, -0.9990416047296204, -0.3753664997381653, -0.6467212588009429, -1.7197625928707614, 1.0068321418726087, 0.3844525286347698, -0.2900322967788832, 1.0559996661974194, -1.2843980225421168], [0.8371538511579687, -1.2179282166490633, -1.1944066092357746, 0.778359114251032, -0.8498830277368571, -0.27797394933932235, 0.4481860082446409, 0.7078999679623307, 0.46392075243548087, -0.5229435814415165], [-0.6101329876231056, -0.610361391333725, -2.03734587496758, -0.4221372057209784, 0.13327682390905263, -0.6013004424084265, 0.385491380407358, 1.4306135101948088, 1.1444571698157855, -1.6243509845090667], [0.8177361482213855, 0.31921096014594835, 0.0014827511118451768, -1.1543139380237875, 0.3164144003311856, -1.1048362016297255, -0.16256382407006242, -0.14312500411403412, -1.1617356191046722, 0.7976164900041802], [0.5634811275063558, -0.4268325754823193, -0.05990536124418942, 1.3168528099232586, 0.21886382924143954, 0.17045952342301832, 1.6943551065054614, -0.19344883238470675, 0.22119803205481808, 1.0752614355961663], [0.49620067735865625, 0.25962142502509294, 0.2198706004924267, -1.0017968227781568, -1.162161409883225, -0.2386514643757596, 0.5187041520764608, 0.20134153508011488, -1.1069070610981095, 0.860286043302434], [-0.38501511794165555, -0.8421414049630465, 1.833286984131589, 0.13904992708898772, -0.026699559139551063, -0.4644720379153509, -1.3016038229553657, 0.23593417036093509, -0.7213614234443515, 1.954446690065119], [1.634578915444628, 0.04103802233324291, 0.8088922447901359, 1.7868547284189, 0.42622706040989433, -0.33770857393404674, -0.5866011986568185, -0.8688867702693732, -0.1492087126945953, -1.0688758201841198], [1.6799470450183231, -0.3026273418170209, 0.8239407652703965, 0.05746291337504747, -0.6586591298340961, -2.01661682900247, 0.601606899900215, -0.3997276611017574, -0.42092418703733636, 0.25430918047260115], [0.013487189939341278, -0.4647665183229917, -0.4690821908273131, -1.2058558245592992, -0.14107921082038016, -1.4022176908187078, 0.05173370059639016, 0.264850344949925, 0.2225708045914498, 0.6185684860207714], [1.3338309480638337, -1.765812417324802, -0.18688786639567406, -0.24516024936692085, 1.4722824924590994, 0.4141551599690044, 0.8710275977357897, -0.5885178424233197, 0.7525265725602173, -1.5434317080430584], [0.0415368005855167, -0.3140546344209235, 1.9616080911330271, 0.10785941478895666, -0.7339123555478826, -1.6027299980720797, 1.2163147373033976, -1.404294479047582, -1.4069333326918545, -1.6726947358484576], [-1.526393610599718, -0.22238905438754616, 0.770106327713049, -0.1299446530187527, -0.13377503266840884, 0.5833210258626239, -2.2435906771393404, -1.3628268953591223, -0.41792301956587957, 0.10673461972184423], [-1.0605414761954428, -2.019194606075557, 0.36270474396351704, 0.7202381255900809, 0.5158415417049999, -1.0909179688665935, 0.09371495910722083, 0.14825376392950984, 0.2608397920981399, 1.20000688448273], [-1.5613337041494297, -0.7735483261450691, 1.0194453799033085, -1.7245949291713472, -1.0282319474950443, 1.736159169765047, 0.80443526716254, 1.160535502550059, 0.6248289046848949, -0.36582085802937175], [0.9822698263386195, -0.017470977326423262, 0.040459116321828165, 0.2620030077086447, 0.036248654918489935, -0.6195999073894601, 1.3528317624674007, -0.6079679972129467, 3.1151169530254466, 0.14891927902913885], [-0.2537099502533661, -0.9394995831062212, 1.1440977355507538, -0.5836639805304664, 1.8734831580177527, -1.3697620890342832, 0.006570132595595557, 2.4542931676553623, -0.1266745430696322, 0.31837418861429245], [1.5554717713456547, -0.3228720230606187, 1.0746646070576318, -0.7264380405751854, 0.19281097833777303, -1.8652681927698944, 1.8167845544682828, 0.50207549746754, -1.191565350763626, 0.2438778439427127], [0.1117218120230958, -0.22332387165791495, 0.893477193840592, 0.4377341841481008, -0.5077868822326408, 1.129316388905446, 1.445830986585093, 0.435829269784122, -0.9606617027737008, -0.8719027932477105], [-0.13889105574614322, -0.05315689342517105, 1.0461054335721134, 1.184322566367545, -0.01874097490306019, -1.2031580721738617, -0.8508505680064461, -1.2727499844955539, -0.3566233252628319, 0.34861108258458584]]
