[[8.888635318572483, 17.184528050562516, 13.206221817580953, 34.23170171166582, 12.443035545395999, 17.615699661502752, 14.541202614397287, 23.37826336688817, 10.667803606427071, 19.976114864706535], [-25.406236474200636, -29.431831025526897, -26.929546061959403, -40.6672852527, -28.976513817513865, -30.612428634071247, -29.20387765698734, -41.20211861139823, -26.839767901825503, -33.431382058433876], [9.583017098460154, -5.291942181795528, -3.460563982054521, -15.992128319301605, 5.320915381018682, -8.894368747616804, -5.430359444339742, -15.519473114022608, 1.7060915238046759, -7.325425962309842], [-9.627431996918522, 8.342474168066172, -8.094590218267982, 4.940011234141066, -9.452263505328638, 12.264964952504952, -8.362563983884161, -0.5902052213746148, -11.25491204400634, 13.520502886946105], [52.42869688707384, 23.456575827418572, 34.86215899505105, 40.84263957294596, 34.27590540180596, 35.92483874067074, 34.33160638143696, 38.42678164832005, 37.74640739000523, 31.310045559773997], [-14.625197789824849, -12.728077670854423, -17.37446748422576, -16.319917077522547, -15.584163337176255, -13.75650148637092, -17.017638050292256, -18.24666036894917, -15.143115412611046, -13.539615389709498], [-57.27703919834951, -55.3775067594221, -64.95305889224848, -64.59502911832101, -31.999369068565635, -56.226370476997424, -63.03135763065301, -73.95704486507958, -36.848684700978495, -56.51923797719929], [-42.02935228393009, -47.30530856926527, -32.96643166852001, -50.23909463871055, -55.45244534052553, -46.92554701083843, -37.24776569845007, -45.54259876149395, -54.26124299488847, -55.947486258136145]]
[[-1.0989835831618555, -0.8501238538477659, -0.9004295490059119, -0.7976082985802072, 0.22542381189494087, 2.1302388434473842, 0.15113159249088376, 0.19375077224631032], [0.4409016970639631, -1.035468321881423, -0.6284845574807494, 0.780333737629282, -0.6498087953782796, 0.828185993940601, -0.17065279992430152, -0.2983056627874168], [0.2860215623021419, 0.64192042250251, 1.5776838298582847, -0.7792797713245352, 0.22528305322404538, 0.5097120788681123, 0.3677714994852283, -2.9343471189717887], [-2.0052613576941702, 0.404623900262558, -0.5370200606445137, 0.8021492705900225, 0.309912439260504, -1.6478958286855898, -1.0698341472052042, -0.6922677316488869], [-0.4443998754798773, 0.022562442941977623, 0.267297816586888, -1.0239628337098714, 0.36086682118185615, 1.8577985715008705, 1.6980315598569442, 0.2709709733029642], [-1.3387059028304804, 1.1642053075363985, 0.4580910497660426, 1.014979992273587, 0.6303957411334952, 0.6833093072176567, -0.40399715387091806, -1.0878689936994506], [-1.1344908393319968, -0.2802322788983346, -0.805636106372542, -1.0206236672344116, 0.09557772717541857, -0.45994824420874875, 1.690993412431657, -1.0781295089598202], [0.5095779038808484, 0.19994332690477096, 0.11244406010497683, 1.035510105937995, -0.9356347532834491, 1.699654704938523, 1.595482923369232, 0.11265917167467464], [-1.045231586840915, -1.2554629601110074, 1.0070767187509388, -1.225883542470521, 0.1635650896546813, -0.3765555221885275, -1.0088121596338493, 1.4891872172687814], [-1.2806175245892535, -0.7584815493613278, -0.216397738516296, 1.2296563956372706, -0.09441159856452444, -0.6040837643186743, 0.7996825245765353, 1.532017917578077], [-0.11562405874719639, -1.2423004972644236, 0.6740943667605162, -1.2438508504095434, 0.3699389844802802, 1.9659912312413814, 0.6000340259155225, -0.9073939643810358], [-0.9383656679670118, -0.665446133548535, 1.1631358818064998, 1.2461529892865688, -1.090771407767413, 0.6088210689274828, -0.6434370178132581, 0.8067078371450122], [0.2121023394279054, 1.0370685206256174, -0.6869088252940359, -1.3932072450102506, 0.27625341914487983, 0.658405129968894, -1.3846619294960627, 2.0933147088420876], [-1.4255253282012095, -0.20619948796911836, -0.3420662545910886, 1.40933717212839, -0.24440362972792976, 0.01205325088285393, -0.3355621431589621, 0.08284762249481505], [-0.7085255953979914, -1.4934749577975703, -1.2876629358430756, -1.4320341292260863, 0.5838702760630116, 0.6582093068550314, -0.8036799719739338, -1.3359581623512773], [-0.820987251621942, 0.5861743504381599, -1.3575416891664638, 1.4228457810299966, -0.6160848367773473, 0.8813157352272645, -1.0195824934701214, 0.24885806780884134], [-0.35181242004766655, -1.2510524436194426, 0.09553321032760359, -1.5264942321898138, -0.06588843117274536, 2.4960786555229717, 0.3088038298431606, -1.152166058698713], [-0.11523174971132016, -1.6691237904703675, 0.684203548202547, 1.5529715628288259, -1.477591825664621, 0.7005813677514117, 0.676990548330988, 0.5817729772246735], [-1.6470787093368424, 0.8855956942054019, 0.17465829064274194, -1.5833774469241775, 0.03975848367164951, -0.24924230097839561, 1.0480358665451668, 0.9802612836271226], [-0.8602590620076747, 0.6797141851022025, -1.00617116159525, 1.564527950243632, -1.1080149780644564, -2.0988539536396065, 1.6367219697696087, -1.0697510426298218], [-0.27233104323121327, 0.7221247064644547, -0.09406228778107437, -1.6262472138206199, -1.015771402997262, 2.519982749037666, -2.75316616461083, -0.31195898055150395], [-0.6358352893687295, 0.7704298493558912, -1.6985885657666404, 1.6618221058166414, -1.1623518532436874, 0.8448530672676673, -1.2296425433878073, -0.5765905771944972], [-0.3034962659293129, 1.06446504070062, -1.1752753642315668, -1.6974682105129983, -0.7401742274247664, -0.01021027797728041, -0.545501616624438, -2.097774223668071], [-1.5337548387014721, -1.0474883170992098, -0.23896778710446606, 1.6735801078062376, -0.7970294663783625, 1.4499047829833354, -1.4025948231312713, 0.2722191930465031], [0.30699287671595843, -0.29899540978471023, -0.19988057678246463, -1.703093135245739, -1.000666102315165, -1.8713442846769535, 0.4382472317200714, 0.41049663106503875], [-0.006549424914698537, 0.6236466155189742, -0.7022231044629569, 1.7446030717004766, -0.4111373594383621, 0.48355106697646316, 0.34651936233806435, 0.13253693891535676], [0.6575474254306334, 0.17115680686675697, -1.130507542879229, -1.7853933505128305, -1.0430505726326693, 0.833716451316555, -0.21513310504986433, -1.2174270519113506], [-0.39582083678446706, -0.15660490844281463, -0.7884682176249578, 1.7569316781270146, 0.6929330519701258, -0.705931394967095, 0.5312755935572218, -0.31181471045262193], [0.09870870671742016, 0.40560259225372924, 1.2707062930051451, -1.760360589442311, -0.5065990265971704, 0.14576711485169658, -1.4925729086974868, 0.5862060294993134], [-1.1688699029872593, -0.5708716611524164, -0.06398377640001045, 1.8069985554370087, -0.8496565484119285, 0.2632865541508769, 1.0060737761920304, 1.1553968954137892], [-1.3127514300874947, 0.99087919941756, -0.11802459144009926, -1.8507747317964678, 1.266578386728778, 0.8643858629269665, -0.6213256343641448, 1.7605174945858064], [-2.167214612272382, 1.4515737383106389, -2.076188640168316, 1.8203381616652812, -0.8960673383556355, 1.0207349094990377, 2.2841985768357524, 0.6318868797585908], [-0.9400266111124066, 0.21841654425860788, -0.113367143438267, -1.8006747980656648, 0.5200806969660036, 0.6702626835825845, -0.5366978725877605, -1.0084634133439696], [-0.738966425489739, 1.266631384921738, -1.058287755332946, 1.8484568730120545, -0.13102371057881276, 0.6535256053078289, 0.5931853951469108, 1.0752007615537016], [1.3242270738431305, -1.0419977042247832, -0.4250938010506414, -1.8951621629608546, -1.01621512939014, -0.30623571145169215, -0.6283155181240628, -0.12405637813874429], [-0.8212863167475919, 0.18731285130433334, 0.508503964800248, 1.8648377808534848, -1.7134469202962175, -0.012066745415593959, -0.6485109816158555, -0.440537004919593], [0.9622586647628966, 0.9842987961816871, -1.2280498796192714, -1.826246551949774, -1.3929434464306922, -1.070349412651214, 2.109237751766311, 0.4964903789527111], [-1.0072288858204086, -0.8518939276547624, -1.1263411796121596, 1.8764968909580928, -0.49608160173761884, 0.4986855385249719, -1.180630024896277, -0.2984428788459834], [0.6812035295181778, 0.9794215960532893, -1.7306592395596214, -1.9256607455003414, -0.6468680695803062, -0.7745878888170894, 0.26961574351872886, -0.5585426654898332], [-0.4259905701880099, -3.3616268968483376, -0.6514379220067241, 1.8954345559502874, -1.78750230543523, 0.7623459622323375, 0.15308878800106226, 1.0416777392258352], [-1.3735061446019132, -1.0625436507489443, 0.9389976672082552, -1.843173526312689, 1.2142685055659068, -1.424849364066029, 1.0349603694246423, 0.7358720633620177], [-0.6905689824828348, -0.7848928297292074, -0.5219757539824351, 1.8943931154545797, -1.0948697149150741, 1.1863500656577537, 0.7355199525765077, -0.34010295543089464], [0.5444237772754553, -0.1723888303554657, -1.419009317777511, -1.9449489956917625, -0.35597844245897764, 2.552738764987258, -1.859960783514134, -0.2609427216209674], [-1.8623559356636135, 0.24178934195730595, 0.5626893939555413, 1.9181415745639998, 0.15845144188923277, 0.44914798771597547, -3.0441288143174536, 0.8469461616983853], [0.5648603473479137, 0.601407232250345, 1.4243861913343059, -1.8531655839459598, -0.9233614715693312, -0.5532814149138815, -0.37768736043247225, 0.6939382149338194], [0.14994852945601897, -1.6219318107036476, -1.2573436999329555, 1.9049061298738188, -0.3640683679271117, -0.6339809885096087, 0.5896747349521196, -0.9147567450746871], [0.15866294312408605, -2.294765203827877, 0.1977117054725752, -1.956729525494524, 0.30636105866538094, -1.0415685431615374, -1.725020812969515, 0.14072955409639992], [-0.05374591660040689, -0.822098918356825, -0.5058362855228786, 1.9347310849262989, -1.6731071719096147, 1.3761991909729552, -0.4795424299720464, -0.3860410853978356], [-0.2263329118595502, -0.5987985160490223, -0.009985313101703447, -1.855727046096322, 0.1393335146605096, -0.24374989284654858, 1.3087977633309367, 0.7165083292636779], [-1.0025355129790279, 1.8441351368957162, -1.052909372252947, 1.9070994671070722, -0.47873577453633764, -0.2882026967993266, -1.7568595278433339, -0.21320045492626896], [-0.6391875874400993, 0.7940876701279219, -0.7874819368660841, -1.960727520672644, -0.10949696401465067, -0.3749439188018484, -0.902322654812612, -0.3293377761795463], [-0.9730502412867335, 1.3535038346936101, -1.032641704086293, 1.943813674736756, -1.7634785811296048, 1.145538049273486, 0.8558189621291704, 1.2799849116205755], [-0.992413137747203, 0.269562166725638, -0.6852165460675763, -1.8554539973594795, -0.05608660667386692, -0.755862641611405, 2.0227915521191355, 0.9296136653381284], [-1.3616719704990567, -0.6294932101707444, -0.053888803532367746, 1.9046790494705395, -1.710197516801852, -0.14353888927399772, 0.2740995623787611, 1.2573645448084798], [0.9479830912317195, -0.6760130522878811, 0.0065990951874728455, -1.9590658216493906, -0.22845150682613494, -0.3383452189042821, 1.2137737799784458, -0.6681693796704767], [-0.04608218025097596, 1.0246237101951179, -0.3320914596661645, 1.9540705738642299, -0.8612290686005436, -1.1915240912372778, -1.066826341215949, -0.7092445552020574], [-0.9700250434934973, -2.604411745319969, 1.9293435039762268, -1.851272382542392, 0.07567590807614127, -0.467987827868485, 0.5397529042298879, -1.092899348585843], [-1.1130349725416444, -0.16713991626363742, -0.42760888230383354, 1.8981381287932895, -0.9678007307263925, 1.3860020943840037, 0.8420227241486082, 0.9547019529879991], [-1.6039061367181118, 0.7890018859541734, 0.6100132851233444, -1.9554036402172277, -0.6830000643750458, -2.292098017516309, -0.9777717081737903, 0.8401247221088872], [-1.50750672739629, -1.0363305231600237, 0.13896363075111634, 1.9603953825783096, -0.4955175503556201, -0.34999115738574493, -1.0901623487807441, -0.6714568146504267], [-0.844407057099279, 0.885782694601902, 0.4888323280769561, -1.8440335447414942, 0.7886753972197588, 1.0386405014864832, -0.3423690779951098, 2.3020818483771537], [-1.6487377033816297, 0.05689006193861079, 0.4837124508721607, 1.887733224654181, -1.1606415720714416, 0.3684128118662763, -1.8384103709133863, -1.8181236781210748], [-0.5982564284730486, 0.7976898760676713, -1.3138023662019818, -1.9469687588638005, 0.013660606955262392, -0.9034370565216889, 0.7085570778530463, -1.2510795847431715], [-1.664218888828684, 0.2025081409813284, -0.027911180013326015, 1.9626177561553126, -0.37605887173304753, -0.4294449351455444, -0.021170497806557165, -0.7835602274149267], [0.1793705763945046, 0.18303446940376222, 0.38966496570691034, -1.835160970866175, -1.6104745512281442, -0.51617826816863, -0.0891060419868831, -1.4250123060008932], [-0.7365862931889111, 0.46043533291764277, 0.4230664046890083, 1.8773616106955362, -2.0737127149355317, 0.8802267982018198, -1.578011301213068, -0.9664523426232239], [-0.29972980521093684, -1.8572269335152563, 0.006183293658161555, -1.938130408140166, -0.9402086120860753, 1.6000086679272498, -0.16575349358999314, 0.27349246718716613], [-0.9656138407255641, -0.8563531891936583, -0.5175508639410824, 1.962893579978836, -0.3333299236174667, 2.8389768591712623, 2.329501320254512, 1.4264659890877092], [-0.6097150573362214, -1.0374302018760735, -0.804089580460391, -1.825988057857964, 0.06764000494577994, 0.4614291252411968, 0.1676870620124596, 0.4271823224002591], [-1.2346970630483345, 0.16984814888282795, -0.37968898202997065, 1.867366895119844, -1.898191996177591, -0.7003141485089114, -0.5736887816845081, 0.3608440905155215], [-1.1101545087673261, -0.7012426586792689, 1.145907774857529, -1.9286719773823269, -0.08261347569367833, 0.06743447235957112, -0.24246876832245523, -0.5106631898570428], [-0.9319784911935256, 0.5065393920836564, 0.2999704255532648, 1.958282465100182, -1.9643095605465217, 0.8099437335772339, -0.2673250777953371, -1.1556492222097319], [0.5164509140056882, -0.19811718938181377, -2.058846228929316, -1.8161513780497605, 0.5507421590451435, 0.6287556799026551, -1.1835817931093136, 0.9079506699191497], [-0.22291422558965768, 0.8402980704122412, -0.9080893573451563, 1.8527450736273037, -0.8274048508967844, 0.5257819884114494, 0.8614482369758545, -0.37947060239498176], [0.12282584861995625, 1.1452554821256231, -1.462096206213576, -1.9175195423224307, -0.3793783397572219, 0.08643640736384423, 0.14414920150355054, -0.23157437066073586], [-1.4880869308191538, -0.0030268951053475934, -1.0137065444699678, 1.9446174345675264, -2.081342052816038, -1.5961477570276432, -0.2186916477011481, 1.9594818665145235], [-0.201875074556329, -0.17253584964492208, -1.270585454690113, -1.803184843201994, -0.11042319852220159, 0.35782015456124566, -0.5297710709687696, -0.9833994780885617], [-2.223958010859839, -1.1919296006779465, -0.19099776469159324, 1.8397753671065737, -0.7404575047493551, -1.0377072609262046, 0.20275030790445098, 0.7469544593620524], [-0.44715263652093257, 0.9386679537803027, -0.21762591963702996, -1.9024322693602875, -0.7114406417622743, -0.47484317525093306, 0.9090078120645083, 0.030806098627711553], [-1.1961021957561155, 0.5207098991747573, -0.36857588584389905, 1.928826059279573, 0.03691654417329811, -0.062026455441402645, -0.851084584713261, -0.9570778424431824], [0.2097085850507094, 0.9340179015459926, 0.20844064037262147, -1.7901338450093838, -0.4605053684329068, -0.6502056680529158, -0.07132624868649776, -1.538337613089318], [0.05853777897864693, -0.19622068019472722, 0.5901718346021234, 1.825237960740425, -1.0215779464972294, -0.7260792651919237, -1.4895327541341603, -0.3388217745518137], [-0.32410314050534605, -0.7471749294834086, 0.34859581163479925, -1.8895045144954985, -1.5078302029628672, -0.17797422323963133, -0.11522176042730954, -0.2303556744736905], [-0.4498341315500937, -0.7113051759183139, -0.37358620120337055, 1.9079985605695455, 0.1223717023139921, 0.11281793975393316, -1.5290490546742332, -1.161599517647484], [-0.739045901999266, -0.5683925434246556, -0.1897050591889484, -1.7764711894307488, -0.2609487879491035, -0.8096237673311283, 0.3455592437107895, -0.35671669299704567], [-0.17361163186955814, -0.27300123726330155, 0.9647108519251019, 1.8104424300235353, -2.9514703599100462, -1.437011246882109, -0.5782021719856569, 0.8236381890998554], [0.4666816117292248, -0.7517976768928956, -0.45108351674214087, -1.875521494527054, -0.07058173931609374, 0.8465139091671708, -0.7661142717369254, -1.2589367499623951], [0.40994300378455667, 3.01836633442669, 1.0300421734092733, 1.887300598865635, -0.6754049255754031, -0.8343051122244296, -1.4571257520958962, -0.08729848007081054], [-0.4297876043706357, -0.8209958164317901, 0.439742414862504, -1.7620978557372908, 0.33960323496274847, 0.6275736181539631, -2.109784138725584, 1.085119703906492], [-2.474876559112191, -0.33245807973883934, -0.9730252454452994, 1.7946685384377992, -0.37582829632741266, -2.396542515913045, -1.844826456106636, -2.5795013251680596], [0.009581668360352066, 0.28690599043315135, 0.403356724001006, -1.860369255231474, -0.6486431614578827, 1.506818822049393, -0.41679181525164927, 0.31211576135611685], [-0.5023898166430112, -1.08259390142963, -1.1801345058790322, 1.8674725718451555, -0.603014017617024, -1.7237867957902362, -0.017450758471252964, -0.4566618559593356], [-1.1612226259973282, 0.3018730257791393, -0.36309560254008955, -1.7477065737288622, -0.30272333963694087, 0.5860282974714489, -2.6084930588134756, 0.9591445736764447], [-0.6486615557488007, -0.2895600805058234, 0.4752081191113448, 1.7789033088711468, -0.8735075406956267, 1.1210158578260279, -0.5185828987330416, -0.208944514637322], [-0.826805883955606, -0.6184369454151604, 0.08807088491944486, -1.8448603674296478, -1.1328433410114445, -1.9150712094082036, -1.3368313886953471, 0.7682914617641137], [0.10357444103499372, 0.943209118546417, -1.7403622030918424, 1.8460595914250668, -1.5774004684103702, -0.3051929044475763, -1.2031651225690534, -1.5935438718693096], [-0.46434562798641377, -1.552788936955966, 0.6320933982219357, -1.7346706727760386, 0.6868078131491254, 0.42439682360386044, -1.1922970047062078, -1.354497139478659], [0.1746905243143715, -2.111347957512298, -1.4536573282768157, 1.7653910316018766, -1.4293306988991255, 0.7985561711836542, -0.8319677002478938, -0.535559811277367], [-0.3167172028419798, 1.3599132252616537, 0.5095624539864452, -1.831494228638425, 0.407074726228458, 0.8160191463357179, -1.0167869228352908, 0.6062089838852083], [-1.1293316071821442, -1.526610243642154, -0.34267768929676934, 1.827298436086809, 0.8012257162830574, 0.20037682749078978, -1.116403502036718, -1.4309608747094336], [-0.8492565819571543, -1.2689991629352686, -2.2866085677505756, -1.7215430279043347, 0.6108630485310735, -0.7734427932110758, -0.6323583006221257, -1.6522520964324388], [-0.5022323819658399, -0.6019171692542511, -2.2381234489596347, 1.7518347640882286, -0.9400566221004873, -0.5802164686510164, -3.1944514965587243, 0.6899449024432547], [0.21941789345230298, 0.5371946000476315, -0.5176756138105183, -1.81777196674059, 0.5132966152239388, 1.133341851657333, -2.4286291707601597, 0.4359376717119068], [-1.7077854580543759, -1.9690370982724472, -2.612141049503575, 1.8099593666704987, -0.8279446168599817, -0.3433986456936887, -0.2959653259105854, 0.20688266768553276], [-0.2079583306536066, 0.28541465244087233, 0.4288108599168084, -1.7127504683562216, -0.725791197458616, -0.19573704599717728, -1.7022899018525566, -1.495464829070681], [-0.1403934674648071, -0.6462610726102014, -0.7847784294262803, 1.7423100874234412, -1.9937583701324626, -0.19451269134066249, 1.051697559791864, -0.5187045991232483], [-1.1443977914470993, -0.7231410164766999, 1.1570691310494425, -1.8077824220893848, 1.4457026376172324, -0.24119676480189717, -1.9160245895451868, -0.29975886117023787], [-1.4532338228334363, -0.03360759872111499, 0.8879963203212677, 1.7970811569638074, -0.6672977647480923, -1.455424219022951, -0.003931242752129938, 0.44234020286351616], [-1.1539501263666998, -1.2131539764604236, -1.462476950631166, -1.7068173986154842, 1.2905950173472154, -2.2831268668763984, -0.8713000565894662, -1.4636865758355884], [-1.009612695562188, 1.5161466966776598, 0.7851387801744868, 1.7372629890544011, 0.17192729478804955, -1.1483247804504528, -2.456496786906579, -2.212512281672212], [-0.43664210675484, -0.4158090973230964, 1.1430373075270093, -1.8022302328549216, 0.9762585075616986, -1.506907170852357, -3.771344653669325, -1.6794259140940087], [0.19032113850522392, -0.8240769248777818, -0.48535044650827697, 1.7875075296133525, -0.9561285682880606, 0.18258383072684573, -0.3292823941089782, -1.6969964799135335], [-2.7730399779967847, -3.9139777394144657, 1.0147776092870449, -2.1401789280885883, -1.8989781904421683, -0.5697039669252902, -3.5102281133181656, -1.5316326951761254], [-1.0653575431523568, -2.0807887086847687, -0.961312537691093, 1.7401181950840137, -1.5574370720033008, 0.29537886005981506, -2.740163566815399, -0.17600099304133804], [-0.18491058954406678, -2.0915140580386002, -0.09980774842527174, -1.8044833215587812, 2.219498436247022, -0.15392409892965148, -0.3248825354008198, -3.820926085258277], [-1.0697100459228395, 0.36862323216540466, -2.0250499667111166, 1.7870736410738424, 0.5125431151130546, 1.1578368977262439, -3.469639620271561, -2.7457733158450597], [-6.376300148417667, -4.135931631974587, -1.8961215642823293, -4.4862915446831115, -1.416996652202292, -3.794245910846821, -5.03621562675104, -4.3375248157362805], [-3.6391330601209675, -4.5692592780362045, -1.276758073182336, -1.0721054946270072, 0.2933762478065328, -0.1989440442365134, -5.456812732004406, -5.373714899837056], [-2.125117410085756, -2.188919690480843, -1.0147629243847223, -1.5792004382082312, -0.7335642305381506, -1.712717555519557, -1.6775742440027497, -2.2873838048020723], [-2.248873736272191, -0.8520361725288306, 0.07172300637888168, -2.040509601214378, -0.2677837045505464, -0.9360455195945995, -4.412387358739518, -4.397526916465352], [-1.036402298327957, -0.6531480352994088, -1.8981616635428704, -2.322010454100499, -1.308044890627554, 0.17666072487151382, -3.240454138423848, -3.5477325978422094], [-5.439802645425484, -5.067223788559052, -1.5299775157938482, -6.059970749120217, 1.0693613882138973, -2.271820530118867, -12.20170048650335, -9.082708322581063], [-5.697309438485845, -3.7515299450246933, -2.938966617441316, -7.783409867314391, -6.27251359079245, -0.288764915296705, -3.544031623742521, -5.320155931152961], [-10.779471219173104, -15.863713448127694, -17.080277142854474, -18.2432974147649, -13.20954796455975, -1.9991574506386933, -10.67920645981073, -10.909819152215881], [-15.372004194513348, -18.36307007693706, -20.23572956384604, -21.87414647552337, -18.787960899403963, -5.3628528358711485, -11.69369225731905, -15.434265274277637], [-10.850471172856444, -15.334861361927887, -12.583424070384016, -14.69218690549319, -14.265640671204592, -0.3964802191923973, -4.068464002680367, -12.99516142707199], [-11.2631617424491, -22.200382231381383, -26.60905485650494, -27.010481529203712, -19.764562144051954, -4.596501676675254, -13.33874026337094, -18.675958119949875], [-0.3933281472688152, -2.0426864518382333, -0.24682164243101842, -1.9912202231596063, -2.2414042209239877, -1.3139756347689837, -2.8066786506994523, -1.706170034870371], [-39.50067622832025, -49.71856803164044, -50.91964917397947, -53.1043628791318, -50.533756128992486, -13.185359846712958, -25.03784972991379, -46.83492697173671], [-13.35707912119572, -17.103982764735097, -11.874639192269328, -17.334155759173512, -15.825358216377339, -2.1496487400952993, -4.817015436792027, -15.2871489090056], [-1.0049852592728705, -0.5973826225366365, -2.336448870398816, -1.2732413728581662, -0.766308312312973, -1.0166529510218725, -0.6782623501813938, -1.3849310320149608], [-32.58495808232349, -50.90248333655753, -54.52581182132984, -50.21372430793996, -39.94252783982066, -9.612855566292536, -30.57481174519393, -33.90310117648498], [-89.04388997382152, -115.10983763492237, -108.31267735592873, -119.13111608590717, -111.59090125548931, -32.82803982352722, -62.54458158066912, -94.79432525974448], [-2.4427511548422984, -1.1707643153198157, -1.8461355439875977, -2.582124693320591, -0.9706599193128341, -0.030070798721485992, 0.3202983309889136, -4.0814462105309826], [-41.03650562886811, -59.40093901364611, -76.2609072788228, -85.06273283206374, -61.33800302930022, -12.985869237037024, -41.36909350569335, -51.49624408979546], [-82.58586796656165, -132.96173037900232, -134.48256262938725, -128.89024576042377, -98.66062774324324, -24.00414560020359, -81.18085770425587, -84.46765763877178], [-192.55175756263867, -255.92816566528455, -238.35825039545713, -263.80158638310513, -248.72198334959387, -74.76858165324813, -139.36874224675725, -211.78486358470147], [-9.300325330468853, -12.461256257457313, -8.420887873878858, -10.894107023104846, -11.49949159727124, -2.984195754831254, -6.287708189819138, -9.544575800825404], [-20.86614838583632, -34.60846004172825, -46.25713932167369, -53.508019638296375, -35.52446105633276, -7.014617194240115, -25.729106898287505, -36.628599791726096], [-26.64234411580471, -56.40904122488195, -62.5635274468906, -59.55109884779488, -31.35958875880083, -9.783008412997306, -54.19747907454765, -33.20750201096133]]
