[[-9213.51026213834, -9079.953043952777, -5937.8588261626255, -11022.13006654105, -12029.924981332386, -13454.978617135917, -13487.17360833349, -10021.512144675165, -12796.358136571296, -13687.487489351712], [-104506.39156803564, -96062.50295479759, -148386.08799810882, -304399.87666553014, -537505.1338375388, -635920.6318343924, -637447.2805867281, -603840.2051072636, -634164.4419304845, -638185.9823974825], [-66732.12115581748, -35413.401273520445, -86015.5976396083, -174705.86538616032, -386419.3484545381, -494831.5553252324, -495314.22837218724, -491369.54800567724, -492576.1672865681, -495694.4122370373], [-46878.5935289919, -40043.65933612112, -45753.76227285514, -72898.6401992003, -121024.0224779093, -149765.278990676, -149976.5015448908, -141126.48747163577, -145033.06222522332, -150036.48046421053], [-13939.722985255426, -17186.884832508305, -33624.560999864916, -66602.22993578816, -166284.08388916813, -185913.71751427534, -186218.1135040401, -184159.9260983276, -182440.292082874, -186444.76610115546], [325751.34220603236, 271914.7572835847, 317207.17862586194, 546230.6941991551, 910928.1226073304, 1035536.7132792895, 1036915.7136685938, 966419.9248923188, 1005829.1446288116, 1037885.2319509352], [-188368.80248353182, -149314.7421368318, -185138.5542514603, -338721.1564404764, -491449.60185148456, -637318.3020755681, -638747.6015122595, -602043.5807717488, -629011.3475557257, -639567.3738762242], [-135249.06241809155, -106387.24253818436, -134990.87997173882, -219046.0207757225, -373664.86929871823, -461266.7158272787, -461788.5192767751, -438743.58526948054, -453627.74445463094, -462194.9229013464]]
[[-0.5047462362242262, 0.7376972137836622, 1.4641980210283179, -0.1801273929120224, 0.47818429242784316, -0.43252035797658184, 0.04492730718749827, 2.835032685695053], [-1.113896514835627, 0.9923993394861174, -0.11785566296514838, 0.15916089527884425, -0.8025280655058776, 0.7194691641701717, 2.4009632575678497, 0.438865034610172], [-3.5804428931769388, 1.4781127209010991, 0.7782282405810637, -0.25392439097150904, 1.3258989959297338, -1.2908271911404812, -2.2622897909580804, -1.3654888911013034], [-0.3848141740844892, -0.8098126405935844, 0.2139002564006871, -0.19505625542409455, -0.4064727161126489, -1.123698905269998, -1.296480172276872, 0.48215585157438773], [0.35593395520001525, -2.101305564456082, -1.127314050449026, -1.148920069818887, 0.516069560614179, 0.214930165455923, 0.05876550273125192, -0.4188005370362371], [1.190691794318174, 2.162144744083942, 2.759603626418078, 0.3149254751905044, -2.5542113552149717, -1.8835029064100925, -0.8861343815620122, -1.589804389028762], [-0.19483920865272225, -3.5212855473439895, 0.36228001582630487, -0.42899908479231513, -0.764674870923981, -0.3275968719027511, -0.7932979691274701, -1.9108659937831516], [1.065224015530326, 1.9786844535507477, -0.6162062152620508, -3.7188102617573167, 0.6456988506233211, -1.067665832542633, 2.9263123412567076, 0.4300147741466162], [-1.8198119267806376, -1.3768140048838517, 0.7944570279256915, 0.316848119830377, -2.161574139803169, -1.218476104568284, -0.048307013984952615, -0.6856953978703384], [2.402919091993981, 1.225374512299532, 0.34427366647760493, 1.1260593127055147, 0.0007955406215472151, 0.798875126234624, 2.0615406407779786, 0.6953551745481983], [-1.9713608608303148, 0.1407480070817046, -2.7469998280649497, 0.3824325814177225, -1.1107328353549715, 0.9562073633614082, 0.537748661700789, 0.3496722413153319], [-0.18978785551400035, 0.1647918160160251, -0.27540048932446665, 4.139641322842952, 0.7851604758678965, 0.5123461496442523, -0.44914011177956714, 0.9203338911201439], [-0.8137928368366386, -1.4002044876370356, 0.7941675010803333, -0.16522335572684077, 2.82991824923994, -0.18059646108412816, -2.047951269409965, -1.5455995043128126], [-0.6969844628274108, 1.0231693594548623, -4.985115505825626, 1.6929784874730927, 0.015162833204401403, -0.8418726809072185, -0.037149379907640445, -0.48550182368003897], [0.3256915970893071, -1.6106011830359668, -0.45850111840746344, -0.6451846967030564, -1.4541015818914302, -0.34403994879463273, -2.05591682965682, 0.12069338071430208], [0.12407835906589004, -1.0618879565476305, 3.14488613680285, -0.7994240705667137, -0.8762150115775933, 0.8232570753167261, 0.030895519114977954, -0.7447328851758497], [-1.9603178004587256, 0.6918165249580357, 0.44632643877788203, -0.7565143069249101, -0.1485779596528255, -1.2648129247036326, -0.9585232007656411, 2.388965341101481], [-0.6834217048626757, 0.36883211888283784, -1.646362896326145, -1.56737074034117, -1.2726252541402474, -1.4803022223182352, 0.9666774678479473, -0.33630596870313056], [-0.8921629936118985, -0.5289612417255567, -2.0346306477126874, 0.11823889199857607, 0.3280458458278006, 0.7794622408442661, -0.4360594109166409, -1.9084129267317411], [0.45241379691120825, 0.8403617103067254, 1.2789409615111442, 0.8317893033813721, 1.281799616583089, 0.21807192860517619, -0.7199162047291486, 0.25876606399238045], [-0.5357393855241157, -1.0547002403411647, 0.12339272086830648, -2.061082684062256, 0.9990915856720213, -0.9573534572240309, 3.345502457236641, 0.8204950339489228], [0.08830712458992973, 0.8846101079052396, 2.7263722915251067, 0.4694567338383834, -0.15942122600251446, -1.3303983939163857, -1.0463497036115572, -0.2181617845485223], [1.516221614241035, -1.3632635603137921, 0.6880546565694406, 1.3762536910751677, -2.28667841333254, -0.20462171164932655, -3.98703430807415, 0.3169058367488013], [2.0064692710961545, -1.4841765112754457, -1.0412678591093503, 0.702646241473888, -1.1238045169575757, 0.6540487741136205, 1.0272583573550993, -0.8427817988790036], [0.3739574400412883, -3.0742157559993712, -0.6003435246485042, 0.6194895833939891, -0.3776565251023089, -0.729180326408046, -0.05476994122404699, -0.9991973638391122], [-1.8633659526900497, -0.7840172824157433, 1.58784893124823, -1.6857469965322875, -0.24476943965370124, 0.4936268495858538, -0.050830940446412745, -1.9397976894927031], [1.5835864085798574, 4.398220782883961, 2.0243191669487066, 0.6572095679219501, -0.11109138417721348, -0.11494766786400248, -1.7209601819533722, 0.6892348648129467], [0.14109821832887318, 2.35189969153827, 0.8283240643205493, 1.2232346482711174, -0.8156246685728901, -0.15920663142069968, -0.6307778166089983, -0.7260243160745903], [-1.2131516137578482, -0.7706434669808249, 1.3589945283427678, 0.866767207797065, -1.7992966076210484, -1.074736393565495, -0.9392507974658173, -0.4363132303773025], [-1.4756902820262465, 0.7419904487168127, 2.7364338437710134, -0.889802459708674, 0.5813045810265102, -0.484726129034425, -0.9645460751748767, 0.6986290751662111], [-0.47688316096048766, -0.22420968942339514, -0.4856644374451108, -0.5404648206772058, 0.34572567901527473, -1.339879142843659, 0.990691530543448, 2.2983619700542337], [-0.7710325348589876, -0.5033348477696129, 1.3534815721803384, -0.97600083635909, -1.5559234534124473, -0.7543889995242032, 0.12747065636665533, 1.517684074224094], [1.5027096791519556, -0.9493855461705933, 0.28840040883131374, -0.9623378507497877, -0.8654860831697891, -1.5569466160979084, 3.7240012584744435, -0.3451484307241978], [-0.5988337534355761, -0.07903364958761339, -1.7203411196155325, 0.8412461126736747, -0.8551692670047406, -1.08923965315049, -0.22298214658118506, -0.3996276328856173], [-6.270288209403338, -0.21972028512079436, 1.3216916257653604, -0.9764477928853703, -1.1876008833273837, 0.18489318984196965, -1.2255751349493273, 1.495221430778064], [1.3874045859567632, 1.5407980872693121, -0.35405204811417534, -0.7945318063509341, -2.4972995834182536, 0.4821960857333095, 1.6809733087550078, -1.1005488674305322], [-2.5355500958681008, -2.2732234421000324, -0.181928281287017, -0.11534050923006711, -0.11327024576166322, -0.5084949773990924, -2.2889038246604634, -0.7128598729563305], [2.4166488946156703, 0.29459766600348714, -0.10840907347729911, 2.481021777811868, -1.0990143281742712, -0.10111203438501197, -2.7445103662743726, -1.2731566582654243], [-1.492830956106029, -1.819780211807268, 0.13155943720706717, 1.239053362449772, 1.891684505151568, 0.17496024745353544, -0.18631942066484, -1.2485086741183007], [-2.062922311879488, -0.046088675832903075, 1.923576528622965, -0.27299079947171956, -2.0252057125369616, 1.1201021214431721, 0.325165538224384, -0.19037497245741541], [-0.008028468761294927, -0.9414127395621983, -0.7879848971844808, 0.2952833617595898, 1.12847746967401, -0.34591288279282956, 0.5312150384142673, 1.150744828827957], [0.7245239921297115, -2.1431758605712803, 0.003956150031687394, 0.35465502699573426, 1.0696064055575747, -0.16778583678000059, -0.5281423368356942, 1.0393340655451164], [-2.766275070374047, -0.7033824237490183, -0.6231481579237632, -0.6210305308937202, -0.13207247688901913, -0.1643344356835161, 0.6763195814165317, -0.2641853397067827], [-1.0691357134884494, -0.31361868142753474, 1.0156496382108424, 3.27942589311465, 1.0255659166602928, 1.9580331432677125, -1.0921057600803104, 0.8042152109609899], [1.1532059473246465, -0.2578072085573244, 0.09212687276928636, -1.9924571698837952, 0.794919483902631, 0.33496851783547327, 1.9522212073840235, -2.072185586427217], [-1.4135229211935267, 2.515426670266868, 0.7051674589950006, 0.18938111561679793, -0.6686364735087379, -0.7850101964947278, 0.23171496240714307, 1.3737266711353568], [0.7145332537484315, 0.8140120121113963, 3.0207282184539013, 0.24412775523534036, -1.7189289886966657, 0.5337090307322179, 1.375472436896081, -1.0821308748424308], [-2.4319928943351647, -3.7246419828842465, -0.1887457576382129, 1.093078357310543, -0.9260027452823204, -1.1463926928843118, -2.1622756079999625, -1.8576535227424535], [-1.3169495609295163, -1.4477260664234435, 0.8455108585923088, -0.13589403495603913, 0.896039152952286, -2.1717285736838847, 0.47280698687030487, 0.09521914346181407], [3.3319906536084023, 2.284472339212541, -0.9126962357493282, 0.8850243258588417, 1.8864444841076615, -1.5533899885650078, -1.7494352069266892, -1.0403298214620562], [0.07223814696407688, 2.6045272816978375, -0.7248968854458642, 0.26634774141523154, 0.19255660407343506, -0.24561048750114625, -0.23668020580113158, -0.6392206692009477], [0.6441755835542873, 1.1868316070706668, 1.8695586845890522, 1.2712055821840758, 0.27267632189531543, 0.14500494000971675, 2.488463419737366, 0.8869662158023708], [-0.8310643858436149, 1.916368472961682, -0.11600136754664825, 1.380421478103318, 1.072815500653945, 0.004210070461970325, -2.4267300732178887, 0.4355616030752757], [-1.2315967850134668, -0.7343146542588739, -5.051911097592475, -0.152423969179279, 0.4001287464707883, -1.5851079462719995, 1.2882932548605261, -0.5044138353368455], [2.620887512852969, 0.22748931893486296, 0.7134473184337133, 1.2400277956093242, 1.22559637708718, -2.349257835224246, -0.9535079852445336, -0.08100544039554063], [0.2547633170328901, 3.2951756674748713, 0.3594193153370301, -0.8762035276501748, -1.5227478043126659, 0.2728327194384767, 0.5928546796464903, -3.3881240162216733], [0.24950450278864095, -0.44428720199674154, -2.564084237839275, -0.32069495641327056, 0.752183177620386, -1.5852726481570223, -0.9869070412674694, -1.0459459484016718], [-0.4313569611424702, -1.587704243658646, 0.3624608639998901, -0.24821819481358012, -0.5987434003371542, -0.9775790030101734, -1.0700838249817237, 0.48387128533119067], [-1.0718422278180213, -2.0867112378399457, -0.2104625522740376, -0.10140137446180308, -0.8825469626579797, 1.2031867754021581, 0.5266027327969094, 1.6373787162822113], [-0.08515380293743435, -2.086834119631465, 2.227186319940522, -4.4698791159134155, 3.6034371091797146, -0.10655914660506338, 0.5968086407344874, 2.7112589591424516], [-2.3270594505162028, 2.8935525657948813, -4.213129534716027, -1.1281171767681717, 0.48257777538159075, -0.42118101275243436, 0.35995395288282084, -0.417024773284008], [-0.4927285074399039, -2.7644757339471377, 0.6396460691186527, -2.9190690794309777, 0.5189296193128334, -2.336536278752762, -1.8800306791458707, 1.6367255162871222], [0.08284256266599424, 1.3303062435445434, -2.5914246451086647, -0.4228715104533407, -0.9445861593988849, -0.48981995066257306, 2.586258336336991, 1.0689564689365247], [-0.6160136712232033, -1.0323897126901462, -0.8093098992127613, -2.424998267469962, -0.5953415240513973, 1.626853767862075, 2.298628282813894, 3.0911107944453646], [-0.9624116020417282, -1.8862940765990566, -3.39169148334264, -1.9435334057814533, 1.795161820114525, 0.4491640756602974, 2.0012982384788693, -3.0945760095222363], [-1.8420599312545711, 1.6078386431929639, -0.35219018741409974, 0.29488834452230017, 1.3530415559790447, 0.39378624400155254, -1.599573796437075, -0.308566159022472], [0.5697821526411181, -0.6222810005883632, -1.4387574729615626, 0.7602639662165904, 1.1718103573273817, 1.29365429041465, -0.07324537284404958, -1.3895185180862006], [-1.7042392916926918, -0.1601381368235717, -0.15169297396377995, 0.6171420893193795, 2.3992417100459327, 0.7840406384185558, 1.2609160119037879, 1.9601846054326866], [-2.6899690748430958, 2.0262895046750176, -2.226118349203955, -1.1274144546591995, -0.44363555544931865, -1.5725404806983754, -1.6875129091141188, -1.2817078982444254], [0.1973491889488897, -1.341261366641863, 0.7539205186488313, 1.8483586376745336, -1.564748461126465, -0.993661742468035, -3.404987028447875, 0.7552906643200804], [0.08335899679641165, -2.4817940257486084, -1.2543264493184192, 1.0816606485860383, -2.180735750704766, 0.08794138039979667, 1.9904291795964024, 2.908008275503435], [0.04975709431061631, 0.6536382051021854, 1.2653954520301234, -1.5297170107100222, 1.8051496660328104, 0.13301610655576077, 4.0597034976135475, -0.38438941608305277], [-4.239211289697881, -2.7242356032426294, -1.4991757619828552, 0.05239529394100173, -0.6170388203258813, -1.1646202694222818, -3.55569588474682, -0.3467551863955042], [0.28988988031541885, -1.2941546728976085, 0.9821633022632514, 0.26738805196496923, 0.62221233734135, -1.284838588168777, 0.20470303706740642, -0.2237544300610247], [0.3362523707541447, 0.25215188301904173, 0.4950374771612228, 0.19817048950590557, 0.7071069294548972, -0.3875565992781289, -3.389297790724336, 2.3013785647481786], [0.6603054602593688, 0.2555121014748879, 2.123485103795888, 0.8998429733534513, 0.9534796144485207, 0.20842282115891533, 2.2036598159154432, -2.649933169633064], [-4.288297661804817, -0.9064610282830223, -3.7203401070158058, -1.0657618580094161, -2.8737340767695536, 0.9286913571326757, -3.5767579239611353, -3.0078659614491445], [-0.9052788591059386, -3.6304800756239795, 0.8796234488411055, 1.5326129664498378, 1.5818576665764366, 0.004617257753868928, 0.588764784309547, -0.299436850545607], [-1.53501363114228, 0.2754507517872512, 2.687836571227186, 3.8392652021667724, 0.2699927824508763, -0.18650560764755966, 0.3865757027475863, -0.06355370129089888], [0.32801957136828297, -1.614617441684053, -0.7123067040691279, 0.11218210375166637, 0.11644849447076, -0.8812700959607717, -1.2468273778408379, -0.9181623727306055], [-5.328370264810045, -4.727935935354041, -4.9866113699255115, -1.4792476607980745, -3.522954852698592, -2.8722450790081693, -7.029313145269616, -2.282713811770934], [-2.9430319420927784, -0.749354706158528, 0.8543844200747422, -0.3686006088649229, -1.2362966638379644, -0.6742227116828534, -0.8147996975533218, 0.8586356262423847], [-0.4719744313762276, 0.23988206940936407, -1.7873342443294529, 0.03514114098353695, -1.6920619626731703, 0.21417100817983023, -3.4188987649773708, -0.9895595128927063], [-1.862750607034498, 1.8573470483790069, 0.6017736923663443, 2.4377186029467492, 1.0470716730173766, 0.9383351214212534, -0.29813713057172175, -0.4135922389106013], [-8.326902207094241, -0.8535519217679646, -7.546168180186111, 0.0006156213569978586, -3.338265374857476, -3.1775332442023703, -9.01812915726597, -2.9934930599605143], [-0.45157986532927324, 1.4287408012953873, -2.010985520979015, 0.9551726793162983, -0.6517390199977462, -1.4838765403752345, -0.4515428291434915, -0.6570836695079295], [-0.9033790581622488, 0.6138367090915657, -0.0473246173252968, 1.907209665105045, 2.1507027275631434, 0.03439394951024018, 0.6946306906767925, 2.459912413684237], [-0.8400624665947064, -1.2208419123459266, 1.0538409068993186, 0.9316332928254344, 0.18298210051015928, -1.5538908475888762, 0.4934713782427127, -0.07569432626370377], [-5.083406388212396, -2.414145431176977, -7.550284588072284, -1.5098169238768697, -1.2764899883212122, -2.99640937717293, -8.364717125951602, -4.051047751589949], [0.5198449713692452, -0.2210567920662253, 1.5050187758144489, -1.2424499403844962, -0.8418669356263653, -0.004107101963990139, 0.9614818325338785, 1.6662184430086866], [0.5025189284934126, -1.9697854381725581, 1.8294664491874602, -1.9725747924024226, -0.39984680993086674, -0.18250369530998906, 0.25779511499692315, 2.72545332716373], [-1.83218453700167, -0.09278767564109734, -0.5904064617062776, 1.0987273705216456, -0.5651340659026487, 0.14259731673929021, 1.3303604848775723, -0.6162253699381132], [-3.1579543635418608, -1.8511203919018855, -5.420334236302758, -0.5422824104338918, -2.2597578958082676, -2.156219380797207, -6.6774297766542, -2.385332486344554], [2.492195853307447, -0.45058944641607335, 0.3205643282284687, -1.3083408692588165, 0.051415146781510435, -0.9589838882043421, 0.399946275636355, 0.0706085059887076], [0.710958945644746, -0.8324634088570466, -0.3891768886090395, -0.9831801449437662, -0.3428049421582754, -1.1058223920031784, 0.37561051633387493, -1.4979883244061525], [0.5469745151123879, -1.4300082663867073, -0.619942955250171, -1.4971958853134943, -0.07469897397707342, -0.07826259349897141, 1.458396665980437, -1.025398294756846], [-4.271892129253229, -3.7078324735185753, -10.118481937093618, -0.2096956758519014, -6.15347826355513, -6.343030354165663, -12.677179304598786, -2.0493581356641135], [0.45785429293566615, 3.656490680744324, 1.391472033682502, 0.35975361184668664, 0.8934606296403005, -0.7914470243530344, 0.1744055991920926, -1.7528903361119101], [0.2018452805668589, -0.6184841632881378, 0.5054003429489424, 1.7410831116906709, -0.015473953453748877, -0.4129105610193787, 0.4739979303932064, -1.6189693139872434], [-0.9072273816605123, 1.2226190102523835, -0.09098516462189488, -0.9784840116130361, -1.7514130639599998, -0.6689688956477037, -0.4971196953599918, -0.10484619012800045], [-15.845718244206624, -8.301996832852051, -16.185206676672536, -6.539535029153152, -8.095647904986032, -7.679836804368048, -21.207277134621865, -4.483040100470075], [-0.44468292475482823, 0.9407209800952766, 0.07931894597684469, -0.2413024066011933, -1.7619636648425074, -2.6120930009575742, 0.8696735341267019, 1.4294454257292242], [1.8126199000823173, -2.7343451560238083, 1.4721317698864684, -0.792223332186087, 1.4022199260370718, -1.4998511915378154, 0.2974932690265507, 0.9010677276451371], [2.055586095009029, 1.1621451446348805, -0.21990445435461575, -5.351341821024239, -0.20613415035689453, -1.8504223496778778, 1.6934306216508537, -2.6741068531889], [-18.664603800026402, -5.916035351578663, -15.95540013666209, -6.63743671491295, -5.911761070289851, -9.630508891702018, -21.608973088150172, -6.600414062546145], [-0.3575924937185093, 0.41482560595074514, -0.39119594571747995, 0.8133310382767522, 0.613367143517252, -0.44318858348943313, -0.38903127104115054, 0.511243570359229], [-1.5468984406319648, -0.593737701729149, 0.2551371866147183, 1.014210728349174, -2.8811945678250783, -1.2573242544130867, 0.23279949012276724, 1.5411446056862275], [0.5560675144837359, 1.14013138451247, -1.0229739953452575, 1.2920776579862212, 1.4153389265442087, -2.0269375699311154, -1.877817323634999, -1.1910072110357337], [-26.778686856604317, -9.971113956774198, -23.377778731676198, -3.1701327176962577, -10.0817766958346, -11.212037711984017, -30.526703329933646, -3.1219109022993687], [-0.25016946893872094, -1.6529691260477324, -2.3025822262029387, 0.6183100609564078, -1.3325547984961648, -1.6542526902580557, -2.8679266713424116, 3.6233363425694405], [-0.5055441932419041, 1.2508438695886692, 0.8496934926429592, 0.7133936274804604, 0.43007144663445507, -1.146324706780058, 0.2917144663623321, 0.646462456798127], [-0.5194788734600074, -1.5320304488792185, 2.274396909926053, -1.6274787303220148, -0.789979198483183, -1.2042944833609557, 1.136284983208426, -0.7414625946519207], [-33.609898412601225, -16.43312772216039, -36.864956103192874, -10.33808563035064, -13.65241183577833, -21.63489134790817, -40.49091930290636, -11.060126500805314], [-0.5017257187670532, 0.19367659925727942, -2.876944362474981, -2.4714083274695526, -0.941180339724366, -1.9565259738133123, -2.5038171614569897, -1.4144119012707224], [1.5175580530301016, -0.5202771791996149, 1.5285352417107334, 0.21959915696398125, 0.2248298871654524, -0.5193735005215392, 0.3687027489038166, 1.383610503650725], [-0.41153727447780425, -1.5662326492167515, -1.5030670305959353, 0.39054382478140354, 1.9498052949296967, -1.5847884742826557, 2.1152823333821287, 1.2447314400442346], [-38.626431664649004, -16.20332947462687, -35.07418708276182, -8.82583023669831, -15.927848178037163, -17.97029862450076, -40.09756657312668, -10.537158239413571], [0.36866785639186994, 0.024686234107442084, 0.8325681417581938, 1.5409466410447683, -1.6153612232969579, -2.1256728405488508, -4.017801382332685, -2.5979332861181197], [1.679252183050232, -0.18216889542734777, 2.450674327710414, 4.667053149747251, 1.8326301627342945, -1.107339148552688, -0.4027169062806393, -0.3048988873132543], [0.8499297053996034, -0.7193109867690106, 2.734528260188854, -4.2592053012717255, 2.6297983203986957, -0.843058397170112, -2.750181459882622, 1.6097360746913256], [-20.137777998398462, -15.524635792416692, -23.10437195276331, -9.611199740940965, -13.747488793109532, -12.125771855503919, -27.125779519593916, -8.278243150979831], [-1.087507059210761, 1.342648328595678, -0.30243238324353916, -1.7051677663098554, -0.7979060175529926, -0.8624953074004507, -3.5241884382056132, -0.41602274506316184], [-3.7826615246807958, -1.2712501646516727, -0.5582896064778242, -0.5492237467961241, 1.8037647767023506, -0.6399376013343274, -1.710634012630052, 0.10568265379103979], [-1.212477584768433, -1.012213407214168, -4.882534183105211, 0.9007110269689211, -0.5875182579186657, -0.6019985907049933, 1.3705552566410737, 1.6351778720304058], [-80.67289047491033, -16.619310613284245, -54.68049296886558, -7.289966425512928, -20.274206367816973, -12.303663485487398, -66.45291687460933, -53.30202857640585], [0.5337953937204576, 0.25562685561022974, -3.301390219633001, -1.196418383608524, -1.0405314819154494, -1.5215884643594557, 1.6902673342777779, -3.155248592291477], [-1.7067042459652872, 0.2305940863768401, -2.236554289920628, -0.3330567607672712, 0.2537260695861236, -1.3829380677414287, -1.9501693547063446, 3.45627060081046], [-2.2840621107436387, -2.785401392040587, 0.43571058831194054, 1.3082364418673136, -1.2395632645519281, -1.735186159130839, -5.8002762935301675, 0.830878271263555], [-764.3947129265775, -257.34538556932955, -721.5155794028395, -129.51155512785627, -258.18495561937095, -309.5446721592741, -924.6528266802064, -139.3789942756689], [-8.677706045690453, -6.507812686384525, -4.5289162097305535, -5.321241209863772, -2.832594705834203, -3.7358379444990817, -6.137034110868716, -2.290086162765791], [0.9724123638172701, -2.594305212506982, -1.5840942853421556, 1.04441723905971, -0.2999530757642246, -1.3562385814062587, 1.0532289907591328, -0.5182021172080633], [0.39185046762913534, -1.3905471961636147, 0.1429559786165447, -2.2036191840569597, -0.4045229329141653, 0.7381690868055887, -2.4303857007525584, 1.3213112639744522], [-118.25645373173572, -43.66264850725948, -71.23350677560899, -48.90077710581469, -92.7347482121005, -53.81068578213894, -48.936869217102306, -50.11699207921701], [-4.765246997428787, -5.345815787968836, -7.462970038504449, -5.177847186919649, -9.663628297799205, -2.7866894388947316, -5.856336022327195, -4.269480079759105], [-2.9208488122217, -0.03403088067730997, -3.492648882300765, -1.7998280541843796, -2.0129786247913852, -2.413656469004773, -4.65308529422915, -2.188985531924038], [-1.9179759454803111, 0.5043960095959624, 0.2529048908476355, 0.43591065709265925, 1.4578210336380693, -2.7405075039667732, -0.8591083663398549, 0.009431752856685627], [-2695512.0346867526, -719912.0086770328, -1627560.048527281, -1174829.3935225497, -2212425.388616647, -1086282.4650308779, -1110561.846629807, -1075024.5848449944], [-3.4614649543911207, -1.4442236597462983, -2.3819361521282123, -1.829693944699192, -3.8457891668748836, -0.2294864846569451, -1.2121800616845506, -2.472720734191121], [1.30877742446848, -0.554155070715479, -1.5807514777084055, 0.5395579000509595, 0.4626451866873976, -2.5360905371141573, 1.921007565604251, -3.0870548648947], [2.0061947682600794, 0.2018786259440034, -3.144707656627718, -0.03030738578720449, 0.5934812253415231, 0.4705601560426993, -0.0016702683129954377, -1.0051334880455884]]
