[[-25.156203592730073, -13.901384633155487, -22.716034235665752, -10.768562235478887, -14.441781259104411, -22.031191721063497, -13.25689266128527, -15.475556017052678, -22.234319160218465, -34.66505343115669], [-43.168926859780946, -14.849976169295516, -44.5513169624542, -35.31621712450027, -42.848219817391445, -8.298420348692662, -38.139607153798146, -34.011198140027766, -40.036052139661045, -22.466326392333382], [-63.86258360186331, -39.629112797614766, -56.70006857066773, -61.41000139030024, -67.00614618965805, -48.02701445706249, -48.754830600956666, -53.86629845564817, -58.382992405971265, -54.777636959401136], [24.94192218268811, 31.525867890872213, -18.77653713305067, 13.315212883822861, 38.5854100398985, 6.10974019560488, -4.701039898705152, 16.51414152728658, 19.971562835994856, -4.491887815734831], [15.824267113099863, 6.815914444498067, 0.20028212735101697, -1.242534192943389, 3.0522695845019334, -0.5246649999118395, -1.8929803438344617, -1.7010088432738142, 5.450481474065678, 1.26042475813687], [-9.102541882841848, -13.717507130461847, -6.287957996251062, -0.029232137517963497, -10.393265996679988, -17.81712483336006, -10.071352841368576, -2.6632382880998695, -5.489051636846389, -12.144372655276847], [-20.967901861515788, -17.82848799234638, -29.18846181120578, -29.282277037013476, -18.948417647876305, -31.35140359675906, -17.47186812890176, -20.79384334029737, -18.980941636731593, -20.82403507005626], [-16.870628343604313, -12.800497558151632, -12.513046513354146, -13.468155596520825, -15.882869635103182, -5.871362092413584, -13.149677587822445, -14.091616831501272, -15.594439359320972, -7.580653019689049]]
[[3.969167279128077, 0.5912629586507699, 0.7420416110526171, -2.1493888573218554, 0.3485499161016169, -1.3147325458371408, 1.5710982145787218, -0.8259506615218195], [-0.450660079249159, -1.750597549590451, -0.38577299973123247, 0.24945599782925829, -0.49332134992270504, -0.4590056473978268, 0.7311566353386267, -0.5583356677311494], [-0.08090981991798529, -0.1868397350596936, -0.15697850989446982, -0.8471544878543091, 0.11063531025177278, 0.8698452313540912, -1.032603663471594, 0.8027503423659395], [-1.6323647870031177, -1.337085404785438, 2.772866486184511, -1.4041474269810128, -0.9265852648443823, -0.5772782179808094, 1.0788862792354532, 0.06291188892500399], [1.1448327160200666, -2.2661173510156924, -1.7422592947318423, -1.5924861263757335, -0.76171310340888, 1.6039759041673636, -1.407943106590764, -0.5339758443221615], [-0.38784084670802627, 1.0403365459737335, -2.5623745018463184, 0.3360196289846266, -0.49023254903798896, -0.8416263624798457, 0.5765156760063013, -0.7767437705979428], [0.9614809243347866, -1.8147042775319076, -2.1330639851424062, -1.7993054395504504, 0.2025580055451087, -1.7180416076386442, 0.017958487294825215, 0.017104648110143183], [0.5650639151969513, 0.3973222381568909, -0.24894192833314763, -0.5163280849330933, -0.3047915041923361, -0.5110696916188, 1.5590588682317794, -0.9768438859226586], [0.10653086053457109, -2.7202243542010764, -0.5826967247563479, -1.789594054350128, -1.1325212421920976, 2.274667950482495, -1.567670668520048, -1.0987089301653459], [-0.5119068382492324, -0.11798240450150621, -0.149916535039746, 0.2998258759423561, -1.317297839417384, 0.943560920011916, -1.0222686635488822, 1.1776042756383167], [0.736172592645101, -0.2508133480378879, -0.927532142454096, -1.24849159229137, -0.3691991074689728, -0.5636889990545846, 0.6053292730049397, -4.299949455943343], [0.8179971456471408, 2.545498183244481, -0.49880409325677366, -2.072474474927946, -1.2112811302908828, -0.49770402704950856, 0.24459697120499257, -0.24366007781128085], [0.8257141775126384, -0.39935381058474206, 0.7788798773599552, -0.08411412172172482, -1.8867892368055936, -0.719304516055889, -1.6524660392271244, -1.5278403803796088], [2.1086168548107382, 0.13308005771185596, 0.9034912428703749, 0.8574326219978696, -1.7875995442748622, 1.2515904655014352, 1.7269642673505288, 0.27966784634874664], [-1.7467032157282898, -0.48851227438220635, -1.0428107653152865, -0.6791931755747755, -0.40690037160141146, -0.7485720689428853, -0.5424357114577766, 1.816871434636908], [-1.3255727364431849, 0.9825391037356875, 1.2353809700472504, -1.9292239867123, 0.3375542761009104, 1.6481911971518803, -1.533068906260551, -0.6522085906989803], [1.470685491100907, 1.0609367587416456, -3.0433435659374704, -1.3330742001077045, -0.27133892702098594, 0.9644737844452279, -1.8816532009670948, -1.6162335597710196], [-0.4542126114574043, -1.6009618697767218, -0.299403089200988, 0.14599856358827476, 0.21765198853299417, -1.5253036673796458, 2.0440983103527266, -1.1952765702475918], [1.9203374391241144, 1.0095581379739613, -2.5722911243336943, -0.4395694064069642, -0.6489730079748119, -3.204041850220965, -1.3683501118175747, -0.6949379378776694], [-0.1252645883895665, 1.1191990030590622, 2.519421665523113, -3.0715753734742384, -0.10581332314039926, 1.2780572596803819, -3.7971311301234745, -0.8001017156208935], [0.5354894296675173, -1.1148635449057858, -0.31266687401611737, -0.9600930231499312, -0.9969011756930877, 0.8387037265578843, -1.3703839388475645, -1.7989675169123895], [0.08509206954531363, -1.6202522952885405, 0.7726046441354562, 0.2985940593553683, -0.8948605472170839, -3.0090914816081824, -0.3629172555012148, 0.26525906685600337], [-0.6118473962926418, -0.9262193301486932, 0.8528451344413304, -1.1529747837247375, 0.11405174398783204, -1.1179606322213262, 0.7175143174443233, 3.0152306576618946], [-0.34512111557603947, 2.1875441353663962, -0.8842006427259768, -1.586314928485984, 0.19687494333226788, -0.19200806789863892, 0.5875461494553817, 1.7488882883405608], [-0.05316508275074422, -1.2668063617122496, -0.9052148487531728, 0.021588840754582294, -0.8624826528863319, -2.0177742528686538, 0.9955047232371247, -2.151484361755783], [1.112208849061514, -0.8756872615273491, 1.3356147651889996, -0.4368014348374618, -1.7897439726733566, -0.6002412128365965, -1.7529093482655362, -0.5982571459303324], [2.6379899065915953, -1.8416801799459626, 1.0752135435640273, -1.4800702411384017, 1.3490996997007516, -0.15327381556317443, -3.38643826438595, 2.0219378162148], [1.8968839888075788, -0.12189548085835261, -0.04298287991045863, -2.919000789761459, 1.5220037545491958, -0.4817299514864688, 2.342361094480047, -1.2664503309944883], [-0.8725596694899391, 2.296223061564119, -2.2497804076232244, -0.01721720811667019, -0.05540861438706769, -0.846334613883429, -0.6541871334881563, 1.5445436741486092], [-2.5920084033366284, 1.10402631824779, 0.20153420525364962, 0.2631857093153821, -2.72247894916949, 1.6253759705861635, -0.9741095767367565, 4.257910833885576], [-0.12927216185395018, 0.9350423248926144, -1.091247419065847, -1.9769861720289539, 0.13970875572671654, -5.258061011223039, -0.4649313008310267, -1.2779497245625997], [0.6843592296682997, 0.37990688618116186, 1.0371164761115903, 1.1772524575353194, -3.1776635759536282, -1.2407170832713474, 0.3652746476397262, 0.6703261281790456], [1.5013316033522965, -0.9464188946567091, -0.4000883990786851, -2.7701304616599924, -0.6609301141047843, 2.321684709800997, -0.3370696867106183, 3.4192250924587513], [0.44601089225203705, -1.0673046428328459, 1.7715291612070951, 0.21885954330560548, -1.409685582293932, 0.5321478019271146, 0.8915746908621192, 0.008719440386451494], [0.490617420507272, -1.2244699530751242, -1.7591928441109181, -1.84821471623717, -0.6035316054740659, 1.607828274959938, 1.8043809470301369, -1.4469165190023487], [-0.2814006213569644, 0.7465176188053608, -1.6125308145008213, -0.7769597441949592, -0.878778346597577, 1.947972352217692, 0.49641903558312567, 2.3075966122300584], [-0.6711472814850116, -0.34598028328281494, -0.443339870800043, 0.5723504304384082, -1.119812980929711, -0.02884298059816115, -0.3681000882823506, 0.6111901031680731], [0.19113383839990417, 2.8621700882558896, 0.342901960899449, 0.2130603032431813, -1.0519827633593581, -1.3957384173178395, -0.5720494725326799, -1.046161424689982], [-0.6698630631625396, -0.24112173636822037, 0.6811160043760404, -1.763171560760329, 0.09337486222503105, 0.2945134291128349, 0.39963346125386234, -0.29147698998787064], [-0.5645424237159186, -0.39538690097768914, -0.5976365116220492, -0.8171182709583101, -0.3756682485915381, 3.4081306429486546, 0.3656477156164637, 0.671925688392497], [0.38369354434114356, 0.13077251073412088, 1.7040897336263219, -0.8477538392828693, -1.5271015781286363, -0.21511871812510014, 1.1603974458749065, -0.39158102687091517], [-0.5424223958679417, -1.9833708217124257, -1.2755731339164116, 0.24415410102194157, -1.3144032116439002, -0.8679231285949632, -0.7370326885156019, -0.6471540296621232], [-0.03260716364206719, -1.577469405885115, -2.1122127958603416, -1.6072623516616265, -1.539729498989108, -1.8019972202260872, -0.2544731612146628, 1.0539851212724731], [1.4292689263091147, 1.9999939223129928, -0.108985817430726, -1.8934121725610842, -0.49745544233843014, -0.04106422203271736, -1.2095744458364492, -0.4015535335597711], [-1.3008545481108196, -1.120701864778696, -0.08497496177968089, -0.2966483665062681, 0.3266502211389952, 0.6020284435674688, 0.3695924428030294, 0.2598959088283164], [-0.6042065200075077, 0.7945723143338398, 0.35290265314982344, 0.19063808041403058, -0.7877236069711413, 0.03193812707458518, -1.0025587918355048, -0.7850389039803106], [0.7562769927644104, 1.3843792003307838, -0.9100644205656748, -1.9302811224739722, -0.7883020802074042, 0.25725169362674455, -1.0786181450448584, -1.4686079892564925], [1.008709501370733, -0.5667396680651726, -1.4835133168103987, -1.7947865130063534, -2.6551839609631296, 1.1921707198367915, 0.32961776637972384, -0.5730914995838208], [-0.14083168607690627, -0.8714274763873663, 0.4246345488750489, -1.43424465258423, -0.8499268333865172, -2.3416302166856475, 0.37699058545371966, -1.9971571376145092], [1.604464461861931, 1.237272392629115, -0.10086003283236677, 0.1220748686811636, -2.2759396403529646, 0.7198809952457501, -1.8654874410439353, 1.2305869906112505], [2.030668559028203, -0.2550560735554541, -2.5072847684432644, -1.7056108726907981, 0.8825937020366447, 0.6649372520217645, 1.4603684109772677, 1.0004267450691768], [-1.8491344575262523, 0.4244908532432379, -1.0752559651953268, -2.5810573533422114, 0.8673705092605468, -2.152538871726474, 0.5371883184374283, 1.932015721083426], [0.7710887117931683, -3.586474258814829, -0.7511755130362174, -0.8838997075130535, -1.7604105271682684, 0.3385676881532313, -0.21402213395767064, -2.1432228472871158], [-1.7525933641155742, -1.0672483448394026, -0.9728817623881774, 0.734645517179048, -1.314892171797279, 0.463599477948426, -0.240985573729687, -2.029282314003787], [0.5815510438706298, -0.6826701634584375, -0.020324130750768554, -1.7053081327261395, 0.795097380866268, 0.22598400855471848, 0.49419223096873566, -0.2124552533267479], [-2.5339893625627936, -0.2682072770371497, -0.6361771274146086, -0.6252403896868155, -1.2910183121098737, -1.2918537683181825, 0.2163391805617666, -2.3415839969474845], [-2.672384083865918, 0.3868139559122956, -0.5411743498844994, -0.6899382956607543, -1.1493082507741872, -2.153424974556957, -0.19605905641817467, -1.8937188578819673], [0.31007463955662984, -0.06288492220570427, 0.45506589140895787, 0.34831208812426173, -1.6362532170792967, 0.15951815288128357, -0.5070700496098156, 0.6642653830146281], [0.6218603883183202, -1.3184479325311371, -0.652458888598622, -1.6236213116301703, -0.06087887692751565, -0.7727879047266583, -4.202814287094507, -0.2225296312376342], [-0.4363624278500125, -0.14534443171981756, 1.0798931147872568, -3.9468918429167226, 0.9862307810822325, 0.4243900745672581, 0.19868684785607282, -0.7432992943721253], [0.7439539753129532, 3.104015009657441, -0.1993257318465902, -2.2592201343156986, -2.040866145442073, -0.381235201218036, 1.2318130191735377, -2.064510127780903], [-3.155349305507723, -1.2111723119854967, -1.2373160094277922, 1.0325462888141075, -2.298965898326287, 1.6169846283647198, 0.5346746390560866, -0.24401315053717848], [-1.312865475676304, 0.7424136188578604, 2.176185103326112, -1.6808547781122933, 0.6260706825934844, 0.241111617095161, -0.6134198943699548, -0.8151964821141595], [-0.5360857371061539, -1.863027983028974, -0.32628474967336285, -0.2522656816312658, -1.2479902966739511, -2.5395587727551803, -0.5938615116799416, -0.4071656390522393], [-0.1754981934005454, -2.088354668480749, -1.2091901775983382, -1.0136881771898023, -0.33192441628346614, 0.2709037096049097, 2.273990999922673, -2.8096746261233148], [0.6627999553741828, -0.9101918739728971, 0.7169420606105933, 0.25820701842275295, -1.2582851759441716, -2.9831767928935458, 2.82578562100181, -1.9989669863262298], [-2.518497065299546, -0.4582478707588482, 0.15471483976903122, -1.400814895833928, -0.37114886870313535, -0.3514594684838265, -0.8021862879349368, -1.5351860090879763], [-0.4372812771028724, -0.3359377695392526, 0.7056214251490014, -2.9835666483284835, 0.7125178442082392, 0.6096625454363844, -0.9877903688008464, 4.006137397140394], [-1.1306241638865524, -1.989521315484934, -1.359099737917211, -1.8715198007977851, 0.4218524573876361, -1.8791640254810216, 2.006888123441229, -1.3569429874697847], [0.12451072335599624, -0.39172114316871987, -1.7259019753556246, 0.2613712734921548, -0.9647343731148267, -0.7508853107052254, 1.5613968117499508, -1.0545203143726716], [-0.6519764714238107, -0.926582215564879, 1.1810747380584146, -1.739720865377435, 0.4032577637981583, -0.35235443361298247, -1.4539023700665001, -0.5072655668808146], [0.4583213450380277, 1.8780601097890495, -0.8501891283537468, -1.4218303492519888, -0.8622149891084968, 0.9021146344247643, -0.044456771990105504, -2.1286878081783627], [-1.4287215551261792, 0.7682549642588156, -2.029476445027222, 0.22376793854984348, -1.745720849596035, -2.032195692439705, -1.6009254926437073, -2.056589880597358], [0.09320709333797256, 0.03707230787845972, -0.6049075792666306, 0.4483143215238781, -1.05129119522791, -0.4467936528387548, 0.4253290590229833, -1.019073423731836], [1.622435674646023, 1.9889642869806743, -0.764553010593134, -1.5673753905368124, 0.3819339928576166, 0.7775932196660879, 0.9738771476761585, 0.07210407840451719], [-2.3603203267518005, 0.14897322544829378, 1.335403196627275, -0.40591021303266867, -0.39541348018715594, -2.9742994447634237, -0.4317847172545093, -1.3807125401503428], [-0.6028607635542569, -1.5032470233770971, 0.4496744795376145, -0.08432905490634872, 1.0190760712700067, 0.8034645069478459, 0.32939390796110557, 0.37879076570694065], [0.4610159761532002, -0.15191150922539076, 0.9131612983053556, 0.3343251194932525, -1.9337544558829403, -1.4492440949687975, 2.4462732004250105, -0.6602983881188124], [-0.11476294216157312, -0.369260993419854, -0.5704421545958683, -1.3610140643425124, 0.05940305907178731, 0.23602186876121922, -1.6623143973556578, -0.6513882293245887], [-0.15781444500810338, -0.9194231756285351, 0.7777551684445794, -2.696163642567774, -0.2803340234795838, -0.2800438283024703, 0.15800938402405487, 0.3830318234742129], [1.6343211073239754, -1.2233416488668678, -0.3096231145047945, -2.759090113261393, 1.0531092960678574, -0.46653845216330103, -0.9245569209749837, -2.6051372635361947], [-2.895996744763551, -0.48929029217360376, -0.8038677192506467, 0.2535237443863011, -0.947368500354086, -0.9270489918351794, -1.1854758661092142, 1.937027373469027], [-1.3088678970587373, 1.1669876835885402, -2.4536870550978906, -1.3607741594426028, -1.2142011855274266, 0.2238104663158092, 0.4058438567897552, 0.6654565935207609], [-2.4400108891753827, -0.028734907864435055, -1.419147187198148, -1.8147584126383982, -1.7160035763968093, 2.58058942126877, -1.3551933267133902, -0.028205626978667298], [-0.01480649105045806, -1.4554564836608794, -1.522073745571689, -1.2083505292009518, 1.0721451622309566, -1.60511790678969, 1.7750361391864224, -3.3100573401625373], [-0.2983835492672219, -2.05144149973847, 0.21502651269175013, 0.4227745361465488, -0.8616344887124792, -0.9098793633816901, 0.6025127763507632, -1.496965689067911], [0.8261800960420447, 1.7849817750851213, -1.8486144058550753, -1.4990926593742822, -0.2886805795144297, -3.09626857974608, -1.5088422085155764, 2.166178394735927], [0.08880585698171364, -2.415687998629168, 1.4018072571192015, -0.26640081585489817, -2.3070271571823198, 0.5943022523368351, -0.11386434859803314, 1.5005982677655552], [-3.09776412152293, -1.971935825323148, -2.647283895583672, -1.0298606136162458, 0.4981337698766878, -0.798849844120135, -0.10837376492954917, -4.424552149385469], [0.16010635175565857, 0.43451405045173586, -1.54493467997191, 0.516585920154321, -1.8651494947766274, 1.3762343485110398, -0.16158599473361293, -0.4917991444430464], [-0.5309206244115836, 0.283933509362397, -1.8093461060481921, -1.5153410684018986, 0.4934631732958441, 1.197645606198349, 0.8837136540351698, -1.4868496251740162], [1.2822917037962882, 0.7863287542789615, -2.1491105485782707, -1.02519044552831, -2.22499370251187, -2.730370119084561, -1.974531244166933, -0.04605271968907289], [0.879895097840347, -2.07493932944209, -0.3797793293701168, -2.527272955755825, 2.3175042987940304, -1.7687295135087644, -1.9836852355912198, -2.017698182897354], [2.5679769853200707, -0.9935602785303312, 1.2015901777542506, 0.3847667753406207, -0.309777950313732, -0.0004101591789271719, 1.4485108443431969, -2.166072535086008], [0.39215541012709576, -0.7526043506327887, 1.6427933158981838, -1.8779941272459382, -0.27400523578021385, -0.9739881864970539, 0.6696504847202235, -1.1918336938701914], [-2.144613481686568, 1.39053961760925, -2.150205740084323, -2.751078706507117, 0.45937039836231053, 0.08460038667012953, -1.299659125148018, 1.7889938062086055], [2.217857798938554, -5.141405784372843, -4.19356019296121, -4.000038774327809, 0.0008569606101784966, -2.820946950414414, -3.4308139668160744, -5.540711521306268], [0.46626912384533675, 0.07676622944652989, -0.6761558554420694, 0.4752839814446252, -0.38174945934153354, -0.9412640090495865, 0.10388192402953855, 0.009226398104588363], [-2.3826844534333294, -0.08756558230148803, -2.106407017516185, -0.26847298778439754, -1.588393446579864, -1.2391376319882574, 0.2608301499436409, -1.9577674017113547], [2.3618773475411516, -1.305466396295997, -0.8873440373378727, -1.7917679845925227, 0.38449052955835566, 0.47120391257207017, -2.2079480016293047, -2.8904653490116767], [1.6822310663124056, 0.6045970833272951, -2.279604590154266, -1.2050594423413286, 1.3417741007560189, -3.1376435035788477, -3.360909360529467, -2.028028092346567], [-2.9042744927311896, -1.5198751703357953, 0.5209716001466372, 0.39807502421913477, 0.3437148904265479, 1.5767419660481128, -2.0906909104974853, -1.7339424771914973], [0.6614375702825765, -1.0541754401200798, -0.12298425504320182, -0.684698466115772, -0.8497326094964016, -1.698774032165547, -0.49756771766675545, -1.567024971826292], [-2.2427944971311597, -0.9774732005712083, -0.06720013505103628, -2.185411101807081, 0.18246199508795055, -1.6465118406339285, -0.5585937663764532, -0.5202535137781135], [-1.3305794362679286, -1.201512739483194, -0.559414553826115, -10.512801228774041, -9.868160970385924, -3.3519544766714615, -0.8692288110376186, -0.4905255557136121], [-1.6395385971076943, -0.528491773588928, -2.831049783220312, 0.3745796278980556, -0.37325493006288024, -0.3549919247887042, -0.8896116546076747, -2.220146660050392], [-0.834711184470284, -3.1482776552204697, -1.9605573699911587, -1.4025310355601464, 1.2189024249405978, 0.5364204520670454, -1.1710780780531884, -3.0480188448538397], [1.2679576362642877, 0.5834748752338498, -0.9042899151400625, -1.4032988434753286, -0.21001480205403747, -0.36376652970984014, -1.0404874982777852, -1.4897236328859538], [-1.9339791029408493, -4.6936002719225565, -6.469248150851826, -4.395005560951824, 0.19163255910632992, -2.758417433819343, -1.0670522140285432, -9.97972598861992], [-0.8977613195341475, -0.9955190585063076, -1.679983729077223, 0.37294121439928996, -1.4846089845153225, -0.2594393450081921, -1.157823291096622, -0.8374140883254647], [-1.6130521511161509, -0.3701206846114493, -1.5309944587444164, -0.855347344331409, -0.9572934998090156, 0.3874748566565035, -0.07414497068142126, -2.3867914812325224], [-0.7497713636122165, -0.7560308741788085, 1.1598872067648964, -2.695711029797449, 1.1323827638410802, 1.0732511724287783, -1.5285131483612622, -5.0698761842753015], [-0.6304892743133986, -5.477416405186946, -5.07111266120162, -7.8046110433129785, 0.9459462613816929, -3.640763502704758, -3.1626214988328987, -8.977966415532352], [-0.7891797771660161, -2.612486815818319, -2.2479481570212143, 0.3972183369693937, -0.8093360486195973, -0.962060319696892, 0.561302195237598, -3.2567740652694614], [-1.6172313620295455, -0.6433355657795615, -4.109034011350698, -1.2284886224267046, 1.7621037933232897, -1.0569942135906816, 0.30963825129243094, -4.06356594047792], [1.446100115765717, -1.3695720991821045, -1.2998526023739028, -2.655614748506859, 1.393052074730394, -0.30332159585833074, -3.5984707650649272, -1.4713153020598024], [-3.6796096009317805, -10.0262844732265, -18.02244571503739, -12.058650468267388, 2.813062728549443, -12.332851224306372, -6.825441742345033, -24.051249424683107], [-2.7127613454733273, -3.676166100776622, -6.914509409251182, -3.4634748036283654, 0.15131335942266327, -1.93212952737233, -0.7414018905736546, -6.387295572815799], [0.3417176827137335, 1.9848094873971562, -2.5101350836650584, -1.4665055948056769, -1.5093444269963041, 0.07357010511993689, 0.5881641667316881, -0.3622013329285109], [-0.2172511751365579, -1.2666169779209717, -1.3562174398880456, -2.692546925786835, 1.4949459122593967, -0.9729785165929197, -0.3754968902755548, -0.9193728310413815], [-0.5107986629666121, -5.751023846964569, -10.165511648177402, -5.78677972392176, -1.425115295520794, -3.8700867457243633, -4.832855162621525, -12.596130226809606], [-2.6222556458320834, -9.610466709036285, -12.16071051387545, -6.548381035339907, 1.9508208703960697, -3.9875850863085898, -0.7764874971645412, -14.869704103340467], [-2.6274054924206065, -6.332316406772675, -6.380598166737762, -5.123841325237839, 3.363717625482412, -4.137987910235826, -0.31019281259528, -11.522368425869821], [-0.446772496142088, -6.612943913900586, -5.7218600210144785, -5.838814777697467, -0.09001919950880169, -2.565120236929543, -2.9784581667053898, -5.14359523783911], [-2.7327743339939023, -11.629498899043677, -16.149611092432867, -10.813294002696642, -0.7118806909538099, -7.46287111906073, -10.14494917295533, -20.53813853278675], [-0.696460864641941, -5.443329341882919, -4.3351232711605485, 0.3819934757636271, 1.5396075396566382, 2.4442271312315347, -3.9482773301686893, -2.8091122273678613], [-7.505076858983959, -12.787945824387412, -14.683117782593778, -7.089542682720067, -0.34758991598943656, -3.608343409988869, -5.307009571438101, -18.13292215819131], [-4.693039450945456, -4.3678004092428235, -2.4923689897607266, -5.8825280074993795, -1.2608975335978756, -1.0680709607293901, -3.9108758743155727, -5.775655699037695], [-19.99794662855076, -39.49436349409794, -56.888870218015505, -34.55436489947649, -1.4196121278833453, -26.06137128707028, -20.330623212162966, -75.31014047600571], [-5.955424181011619, -14.080726076456934, -14.29041188616607, -11.14738817968403, 2.2245278337759222, -5.026244240013766, -3.0053853876469994, -21.00600319705659], [-3.4424158030932333, -5.5443325608572325, -5.44166070123965, -5.864290343755625, 2.029070099554128, -3.2223976382484785, -2.8844788159524644, -8.02932199891023], [-9.078263314978363, -29.951196186088236, -27.12641785755359, -24.931041291073356, -1.2239842476785128, -16.114810517628165, -3.861620281803627, -40.61500355616032], [-32.828622080990485, -32.736592753422016, -48.55615806042823, -53.650883070566934, -4.013927202857506, -40.89852944702821, -15.962028679338463, -78.25289437088888], [-38.04635671609119, -70.37031693317368, -81.95029548446742, -56.27241918408974, -1.4304275762422594, -36.30242235943982, -26.587148971741033, -103.23742148335175], [-13.76436895995029, -20.075816871458787, -24.714639401725268, -12.06871631048772, -1.8002000920925765, -10.25484237147275, -7.455481335312225, -31.957981824645668], [-2.398799594026809, -9.010060468723605, -7.4111568780853565, -9.193826973104114, -5.297908601039781, -10.745500619728919, -2.705174363160829, -11.986325342859784], [-94.40897550222053, -116.0088732117888, -154.01589494859437, -135.814883506089, -2.2790907620866316, -107.70662242045022, -59.440533408119855, -243.55669892832282], [-66.37114864174703, -90.45381030672384, -100.81362369147327, -85.1820081169627, -5.0621070614588195, -60.978519677833354, -30.713192899118468, -133.81429477709747], [-76.40709903383525, -97.46173332137887, -112.16763473290064, -56.87108548211276, -13.802177374196347, -56.93330121166402, -32.625875324831945, -133.91553823662076], [-37.06642907116668, -153.22762939947756, -137.98840570052758, -114.06814019167365, -18.89972905396975, -71.56876383784666, -27.594966386636994, -185.1106663395089]]
