[[-0.7487209168464398, -0.2819400082132105, 0.6750820870974003, 0.5832932830148417, -0.24458476471433085, 0.5019179645927649, -0.2091323758825467, -0.6694030048603148, -0.1895274869450258, -1.6594800205316704, 0.8236221204927666, -0.6154903105042933, 0.3340149398275657, -1.0302515144520041, -0.45163406887632773, 0.08279535548438834, -0.048059936913731116, -1.5425708978141301, -1.3039742482382013, 0.4096404337947588], [0.24061615286139612, -0.14855672165581774, -0.029063272141737078, 0.29740638886123394, -1.9076082582836247, -0.23350410886392622, 2.4984268486624144, 0.2813480558325301, 1.0194613354775637, -0.9308490000943611, -0.6328585915720429, 1.3712713452773793, 2.4237531242877752, 0.06249673472591115, -1.0004980211425378, -0.26664049304015236, 0.7761696897790904, 0.2232756995696657, 0.7295544880231434, 2.058170868657132], [-1.8708266097814037, -0.0554049317694721, 0.2647144876137435, -0.4131170903343073, 0.6664127977657295, -0.10098127922165967, -1.571107028188101, -0.6928221524701813, -0.26271121700499184, 0.7674998321618438, 0.1765743777290746, -1.8074024740395565, -1.28655854139862, -0.3148214276010495, -0.5422070651861582, 0.08733235637863954, -0.9786445765115249, -0.27243239532490715, -0.9757872401890912, -0.3836344555583639], [-0.7473179954440221, 0.8326803437430524, 0.17671756120690427, -0.20363230648878364, 1.4238433124522683, -0.47301727033697555, 0.020647325658581156, 1.6904383888521084, -0.15740737161945356, -0.582468279345673, -0.7615417655385894, 0.7895416795015627, -0.12020461904227547, 0.18607635611046902, 0.6035409643344243, 0.29474601491405644, 0.4506579889279203, -1.5309982069806167, -1.0036443303794231, -0.8490476677419733], [-0.06143409220973677, 0.48964249210449856, 0.7411004515175819, 0.5217210396876825, -0.39831197290032344, -0.3978503657651784, 0.09070484807546851, -1.2989969141445796, 0.5111377136676635, -0.025956101436087783, 0.8425669296016292, -0.6099427500374496, -0.22634765476800378, -0.48673692775997857, 2.437612189390113, -1.0783038835392815, 1.3007730095075738, -0.4364457599083607, 0.3157431227383986, 1.5330999620955919], [0.7952859516571313, -0.19067867656046175, 0.5845742269411488, 0.07848471113046218, -0.5713982039360727, 1.912807877107056, 0.29226447092058444, -0.4080595999497431, -1.5380673337719468, -0.5405010468420203, 1.441166715491823, -1.4317317710084998, 0.7937294692146347, 0.6413983324167992, -1.009248995883854, -1.5883362741201166, 0.3926714736312326, -0.6677645275018691, 0.3931459375169582, -0.7711868551990262], [0.3685971232217701, 1.5321914150904068, -2.18550480443419, -1.9422469005802028, -0.43478298186187553, 1.1508118371604417, 1.2554573342751176, 0.08961480208297082, -0.6283427591492871, 0.5243967667017677, 0.867225167486302, 0.5468946401942686, 0.9884322928596122, -0.6713292016877803, -0.8078020753447809, -0.7199084960911712, -0.38142235488364534, 0.5895974097707212, -0.4976732451523986, 1.0274062268838933], [0.21103396242461722, -0.35962564556474164, 0.4935704119489082, -0.5623923058835779, 0.7474004738519354, 0.5851370276399505, -0.5846795096577904, -0.4161022102276315, -0.13242979612456768, 0.014994935343132985, -1.779678897677879, 0.42999888252708296, -1.0947742738154154, 1.1849196701496127, 1.319273921960146, -0.2477501733748637, -0.42595061142119994, -0.2087967667313728, 0.3943181603612035, 0.5897191351536193], [0.13726675470140887, -0.03811229646728946, -0.8505090128983043, 0.9424531692194777, 1.5012584142786778, 0.4428781570431537, 1.5659224447340436, 0.08090877271539604, -0.46032970498048764, 0.8687281400538875, -1.5963663662069483, -1.0056294077782058, -0.5029142674700494, 0.6741846024025081, 0.17743391475406817, -1.2621614676317625, 1.255067141720634, 0.8019141750124686, 0.6489344997216514, -0.4489688505426687], [-1.9080660843839872, -1.2012755712320935, -0.4413497240205584, 0.5430069714122531, 0.0019745255502702152, -0.8475626037047195, 0.6041882756598085, 1.03855187484353, -0.8284905954023105, 0.2911296583500441, 0.4208110827361323, 0.0626120319526773, -0.5650883472563375, -0.6004872575423879, -1.042340216946723, 0.22817318175654724, -1.1716983753854346, -0.30272551542226034, -1.2005283401303484, 1.6817774621499506]]
[[-0.06418200899312197, 1.3822644062290685, 0.07578299825027154, 0.9890823688713263, 1.1176778491411357, -0.5796231591088897, 0.09394390483537982, -0.5858982648664868, -0.8413455993547484, -0.8641354561828118], [-0.5022482215043536, 0.6896200895624073, -0.811597591162992, 1.1217926469903459, 0.13790096843474878, 1.2966431407587642, -0.9720995278776623, -0.2871581384755201, -0.004818046362213899, 0.41192668882976713], [-1.047972474636295, -0.37410603845399654, 1.1749648185709287, 1.280821723238401, -0.05474816875252464, -0.24469336848189893, 0.5969919084892277, -1.5029828008318644, -0.25097885592899966, 2.167775486326041], [0.582325418965744, -0.17066725099290825, 0.7082230137383416, -0.41769798016154785, 1.6069392723547038, -0.13465641117521068, 1.450671404573405, -1.5960123353400544, 0.7164413914931689, -0.257590139154714], [-0.6248879737636904, -0.2699658015966182, -0.1659829590983678, 0.5038604222668206, 0.3452335965099797, -2.386449202329152, -0.14861311408240319, 0.30008459543603344, 0.11844254289822616, -0.2273765023446039], [-0.4710259092503847, 1.0429581544925695, -0.8332500850150548, -0.19708979317827457, 0.36317973439158296, -0.26070195629055104, 0.9740358899490487, 1.0000392598898946, 0.28135340021229743, 0.6796694130194146], [-1.1841449499608394, -0.052328553343096246, -0.20513046242344946, 1.4861751884721695, 0.8703630207249322, -0.8864844678850268, 0.08738999900993759, 0.4673266369241493, 0.8374372696064929, -0.06170508560496324], [-0.70137035226932, -0.7581392314332513, 0.1311109112469811, 2.754813967534993, 0.5255340761043068, 0.6469025973294865, -0.38821945402550945, 0.09440320814591163, 3.198121384230324, -0.30027224870131236], [-1.4603876565612275, -0.12411796572384828, -1.5077954751851255, -0.2688834094472462, -0.27860126068797336, -1.4338449189947533, 0.877289331837214, -1.4756394382532712, -0.7713526058797867, -0.15005301538494054], [0.2967573911614256, 0.2778429298410944, 2.076674758209293, 3.4817211560616252, -1.1514778849638492, -2.8117528131238183, -2.5362892049430377, 1.2502835570550368, 0.4947665070248493, -0.1282413761069501], [0.12790889577023826, -0.35177995776701015, 0.554436801218746, 0.9654441418207117, 0.7932788901378006, -1.0534820023312608, -0.37344141161984545, 1.0925896396811643, -0.42888470939102685, -0.6181223290241219], [-0.09652619582095116, 0.3123752077100278, -1.9927869272846153, -2.2982973261620123, -0.3097639357017362, 0.8680920739340934, -0.40392351687622496, 0.7239332454762113, 0.4121069864134266, 2.8318236373141543], [-0.574284300282937, -0.5954391190690146, 0.28703210597247136, -0.8703758879263279, -1.3123843446711327, -0.3226962466367545, -0.8589456072824072, -0.2857040521184314, -1.5185847578782836, 0.6881953512791765], [0.9518320608425377, -0.7439691318095809, -0.661994281558978, -0.2457596394657053, -0.09888664256620704, -0.5963850033388012, -0.7388883864001334, 0.7337936233437946, 0.5710163195421164, 1.359565621878471], [2.0983348692768766, -0.5316724091112613, 1.9876078840241351, 0.7563045094360931, -0.5474456524971794, 1.663931962774026, -0.831215740709135, 1.9552351853330405, -1.9829703358839008, -0.3619077584930025], [-1.0442850737923008, -1.0691870189709642, 1.1360598411834482, -1.7789242530838407, -0.32665402502410873, 0.9459494770959588, -1.4902799274661542, 0.18489904016177935, -0.13899748015179805, 1.0825934331722955], [0.2457340242769877, 1.3516293324299429, -2.653395232798626, -0.20751856300101645, 1.7114774902168843, -0.1103717098618171, 0.3128837328275547, 2.1903032775823092, -1.8039802589007994, -2.1037459492227146], [-0.4454348996962452, -0.9923822909535986, 1.6230745531419324, -0.3450575460211016, 2.2234972788941874, 1.4164648871085403, -0.31079732062305937, -1.4782212788819726, -0.6133084655587286, -0.1846611140615627], [0.13478553510755517, 1.1875132056076445, -2.042722507463685, 0.755751269537692, 1.1606605608096836, 0.8818393040629219, 0.5951778561821908, 1.2826363453693779, 0.8481991346142038, 0.6369883117196387], [-1.3959580472686806, 1.222496904065105, 0.5873479094008228, 1.650296079262762, -0.03402720796599316, -0.33550058484186485, -1.1900896831981855, -0.4079540597095294, -0.019399292795898707, 1.134307420933727], [2.0363073614656453, 0.4439844093246831, -1.3476202003932871, 1.4229879327199695, 2.3367314450362464, 0.10031930686569339, 0.5929265354099602, 0.5295599631960071, -1.061747994969317, -0.26095432429263493], [2.15668521643717, 0.03576859920261482, -0.2820032599293751, 0.6711902600352677, -0.354266875505219, 0.4368604151257075, -0.22037444330172642, 0.6928448102823532, 0.16515359512655703, 1.6501031749035304], [-0.6478244999700536, 0.7573445574296563, -0.8483688262893603, -0.5097883121943716, -0.0754620050380235, 2.6454403596826332, 0.2891540576603457, -1.0419378551482916, 0.30539600287005575, -1.4738345934410173], [0.20478800018200136, -0.08440271018886214, -0.9527270464514375, 0.2553938280505642, 0.4612235962663501, -2.4636957947572444, 1.8040177604211458, -0.4624671007666663, -1.4776905963960503, -1.0019058445576818], [0.015959953454235967, -1.9021247297490285, 2.096740583305601, -1.1682555631374894, -1.2086975459194584, 0.38260966725625256, -1.4387610199788936, 1.4554403455978786, 0.8885172210165533, -0.8854552250290684], [0.9446525999363632, -0.014029958280234952, -1.8970511342265584, -1.0230547683760007, -0.6737438328865056, -1.1197458778082876, 0.5372997988601961, -0.5167563394883524, 2.511505071314516, 1.4191647035224688], [-2.362832647732192, 0.28858029237219823, 0.4282319954545224, 1.1845067299880923, 2.774793253662076, 0.0388514674880149, 0.05412344246961457, 0.2426001565766103, 1.3143481073846615, -0.35231004139892524], [1.80069699577123, -0.4234135947542566, -1.5912959883114823, -0.1461558903654642, -0.6924999415424815, 1.4199730714237129, -0.5645827195085786, -0.38903495367962, 0.49480089779623515, 0.9336695806571474], [-0.4239073962117894, 0.3633487953548929, -1.070344685548129, 1.2043805914370913, -1.4613347994156645, 1.1113125367573988, -0.8255414870630812, -1.1737368977528182, -0.17673707495695887, -1.6075522065164907], [0.37965036017967, -0.3185256512200916, -1.1080579764896117, 0.8035649018603792, 1.880158450507694, -0.47219537281085017, 0.9892687232617492, 0.35378129680171055, 2.44254347055059, 0.5972069145880284], [-0.7869886302074172, -0.299651454926372, 0.3237485191268414, -0.45067259499591594, -0.6433486633979838, 0.25864251421730533, 1.2535583574585811, -0.853756664935751, 0.3474619730270282, -2.231946130484458], [-0.11612328840419787, 1.344085107784073, 0.8031576308157159, -1.2168598197539509, 1.2488156448636576, -0.11473600589914065, 1.0954966363597654, 1.4003549345428532, -1.3081899809671151, 0.16204309282458082], [-0.9983686070705713, -0.2288997889549133, -0.2573332362387317, 1.9201706524649553, 0.889002063266057, 0.2342781565656406, -0.36427071136125017, 0.23620769762583874, -0.44229942503226194, -0.6305056519159925], [0.47149121696221047, -1.4367282877716605, -0.012155570733500343, 0.5706388592845545, -0.36112808908871263, 0.18931136379491123, 0.7839261692139521, 0.04555513750234073, 0.7862790863422711, -0.7728255529839315], [-2.2213895191731976, -0.8285897172524183, -0.8872829586417972, -0.46711669160084857, -0.26055584142382004, 1.3412880358291395, -3.2756118005902692, -0.792981423464898, 0.09792208206340461, 1.299695755243592], [-0.7675659317964693, -0.8320283672811144, 0.9548378945328674, -0.6736892724123841, -1.0357511721636408, -0.8777832590466444, 0.7885976554059828, 0.24293495114384797, -1.019729669787844, 1.3735462571546893], [0.3394123935381515, -1.4260312371371902, 0.05864503231936081, -0.4825336518347286, 0.1274859220823857, 1.873256833066547, 0.5000904243286389, 0.6196878385274985, -1.1756871265666682, -0.004801391855527262], [0.1555184618475847, 1.8466098160575635, -0.25378303083530135, 0.6445912804999699, -0.7817819224107974, -1.4040903147575317, -1.1471850801441825, 1.3378127565621405, 0.18409057610124063, 0.04072278066387319], [0.5374041890433117, 0.8530324067760343, 1.1923475602615925, -0.6535680280312364, 0.759094451595418, -0.025681757134698058, -0.13196954361334678, 2.010761766938331, -1.097928320645226, -0.012455312567698855], [0.67316007216456, 0.02482540258705426, 0.620523053987732, 0.49497044817804936, 0.06869595417962458, -0.5465677683248763, -0.7989545694559071, -1.2063528692239947, -0.3234243626285472, -1.2191461954437213], [0.36405349002515386, 0.8043163537884569, -0.9380190886991042, 1.237839414098929, 1.800746967204519, 3.6652373227533888, -0.505552368438472, 0.0424668199040883, -0.876528919583734, -0.4061165675168265], [-0.05627543504782623, -0.8197079525227873, 0.8538601661698734, 2.4061115025540634, 1.0209132282905296, 1.4875963369541034, -0.37752226429347957, 0.013994630500175628, -0.05096532574200288, -0.05895449086055316], [1.0085583597747734, -0.9582132401841978, 0.31343592511451507, 0.2292691384208039, 0.01808469202606217, -1.072609459871882, -0.847701814172082, 0.831033882280401, 0.038340578088910345, 1.477988038707155], [0.36454611174179263, -0.2456455234335508, 1.2083857724390878, 0.4117345199420383, -1.4143469383216687, 1.215408489125153, -0.9449034673411978, 0.7366587717471453, -2.324274079145712, -1.0590867154762293], [-1.1506247257120166, -2.39684397282573, -0.09296287978139296, -0.8737046605975214, 2.116459914717168, -1.3151374285725372, -1.5265515123504076, -0.21931035473675753, 0.8400055407570806, -1.3029463186410006], [-2.678648230478354, -0.8639736577330023, -1.3237590487400592, 0.9441799372167418, -0.12758993225482862, 0.22213557740144754, -1.159895485217079, 1.1080888243542046, -1.770858560456159, 1.435079485928301], [-0.14701330340521812, 0.9963162749295099, -0.6059529973223537, -0.6086159290955185, -0.9880296768996435, -1.6655020667308467, 1.6368063924057528, -1.7909894787414766, 0.24374039157051408, -0.08459357608202023], [0.012574123866838541, 0.6800158499663509, 1.3995966555747656, 0.4092762157216289, -0.7463134892029039, 0.29498840951212296, -0.09326306008885978, 0.14350438964218237, -1.6399981258202214, -0.43308047608148137], [0.9960908375080314, 0.8149422234198545, -1.8356150443591694, 0.19898202166591453, -1.995800571175733, -0.4315993252649215, 1.0696127234033574, 0.8495401386079939, 0.3376727674496655, 0.17860002872058495], [-1.6758675857866088, 1.130744446428492, -0.5419415834815036, -0.37283185363585003, 0.9957022473981487, -0.9638361687415703, 0.08141272602639722, -1.7956261326554477, -0.36478125274023887, -0.7140477764391133], [0.13181505975642227, -0.23457637560159503, -0.903491091900695, 0.06251560178749085, 1.4581823335040704, -1.7891378409184588, 0.02774310438087946, -0.21837035757743514, 0.5102345561895519, -0.6227807563993505], [-0.8002618876151223, 0.23134311851962808, -0.40271475286181385, -2.5569293348998334, 1.5271211215551321, 0.1529706694980013, 0.34244731343802753, -1.3219100802365105, 0.10178639048130196, 0.9039252216447037], [-0.6309982991944051, -1.7088142083987843, 1.630676001504694, 0.08785998682684952, 0.5408693812095331, -0.07832694219116108, -0.37428426980008467, -1.4003282056914474, -1.1873620021448927, -0.42671344223337393], [-0.42198138442992345, 1.2625545074390547, -0.26945076028857967, 0.6876165125162542, 1.1635912107714117, -1.031804234855654, 0.02825684871267365, -1.8132341821464915, 0.04986124585229934, -0.4775813523238328], [0.5352495681523637, -0.659313106492353, -1.2819313215954393, -0.609493732911327, 0.3639904638947735, -1.9532301031738932, -1.6377099669144262, 0.2649553719691021, 2.2443657215693995, 0.1995242575896483], [0.01695459888271426, 1.7477410209749111, 1.6711735775421237, -2.564688128563793, -0.5203300066142476, 0.8054932403933647, 0.859955517816825, 2.135387009220309, 0.2699051312648493, 1.6991601915783003], [-1.1114250275944382, -0.2648258019675506, 1.0321977660001433, 1.0722943808020122, 0.48413783277453654, -0.9642238761839725, 1.2881851230904906, 0.03381690531657921, -0.09345692613023433, 0.4976044146485303], [1.0606845999192496, 1.2164539903095215, -0.9700246854013471, 1.2955059132573359, -0.6522169646883756, -0.748633471052652, 0.722403401529937, -1.7430980858088867, 1.2640803784115295, -0.33029418427786494], [-0.06842948539829521, -0.6350538820538761, -0.5757348475637873, -1.329841007442109, -0.14298545153897613, 1.1064589410142045, 2.0319267383284063, 1.6892480506911407, -2.2740346964344673, -0.5661115105219646], [-1.1328349287376527, 0.9663065779742807, 1.0415758659975791, 1.739992403280671, -0.23676589561786093, -0.983493637151182, -1.1331263224748007, 0.0954355242395866, -0.3569782219424631, 1.5688158520260653], [0.31754465158696377, -0.4080153377338595, -0.36165239016904294, -0.6575033692764878, -1.658532267162847, -0.6648987832327528, 2.292416864223481, -0.16189428431666816, 1.2349795430951545, -0.44161308161045193], [1.2317799924060042, -1.0193399233488845, -1.1082069865094826, 0.8055497476683404, 0.06322893913098451, -2.674972359929011, 0.4732806477837156, -2.5533550436852623, 0.554637115077533, 1.0153001928813625], [1.5202403010487573, 1.9129680561315026, -0.8587128644292384, 0.11752623007877168, 1.3817619981567606, 0.10993277532802818, -1.4739459764491092, -1.7940513609776825, -0.8578481465440635, 0.4587975183535021], [-0.7972108393001691, -0.4678264165758232, -2.538224737371675, 0.07925713319307295, -0.7945912819143475, -0.1371746854591237, 0.9098047767386122, -1.0611355194777978, -0.4622983673073016, -0.22318152613926825], [-0.49269659602897203, -1.8877828931468552, -2.1305320821942892, -1.1926518535253636, -0.4820344265628959, 1.440287959933165, -0.5507191743733484, 0.22481392189011065, -1.6080843508931033, 1.5844608767249717], [-0.4007056590036757, 0.2568848318769208, -1.401507332667189, -0.12433684442637705, -0.46239176174192587, 0.6694969027518433, 0.4566317044884536, 0.023134252003949047, 0.5766295427455417, -0.5835619648059177], [1.7085955372612114, -0.5670240763035147, 0.05334266707834071, 0.3152873162717285, 2.4621703363310696, 0.7490510728751416, 1.3032132462572363, -0.05131636868820813, 0.28541068128982144, 0.6270155946311219], [-0.9162432649855283, 1.7363748366923482, -1.1013947927269037, -0.8179358173483567, -2.065209143834966, -0.7702565863683178, 0.3353570586208769, 0.3142165702997821, 0.5454031094482177, -1.6615692667186004], [-0.7769236106939947, -0.2161176441847627, 0.0780000850583266, 0.771054523452995, -0.8958172033973719, -0.5894162293288169, -0.574494822254294, -0.10668529739845424, -1.6269179880846196, 1.7490132317621645], [-1.3196047303162555, 0.793327086300961, 1.010551514924591, 0.09120404254383147, 0.9010476818878146, 0.0448099683647246, 0.09335572881477233, 1.3412810133841027, -0.04357973566356874, -1.7678338139150847], [-0.017437463665762758, -0.9631288833501243, -2.0396615138450143, -0.14296284605544102, 0.5118525470580582, -0.399163739601969, 0.20543590049023452, -0.9780847915159842, -0.12748173264122284, 1.4630496858398359], [-0.7615361465378041, 3.039049892563813, -0.665245015315883, -0.9208854826502868, -1.3126396747443998, -2.0788029056817856, 0.1478895259585013, -0.038437021679061885, 1.1029099710588257, -0.24441562765902894], [0.16280000155469324, -0.5673891566261337, 0.14860552457203366, -1.227149372231098, -2.5569261984675324, 0.5255742203189749, 2.0750556526294712, 0.9788966204720527, 0.1342015739706631, -0.4365539398028189], [-0.719702744856293, -0.7465442803556804, 0.06519639691084272, 0.014732056115832276, 1.4933828702999523, 0.4934443786765329, -2.086371695424814, -1.167469025901839, -1.5191237316647344, -1.1138057619169397], [0.3410177556477487, 0.9012004789668646, -0.5173023404473135, 2.097873103528114, 0.06853745349757, 1.151109247576249, 0.4939190595600001, -0.4346835712889748, -0.62444216960192, -1.0503273977723517], [0.06520097273003778, -0.016283143080335415, -0.7718800211457834, 0.048475049241243726, 0.1542809350289146, -1.3810672507150121, 0.06502932652232513, -0.20756787915453356, -1.0157568493176095, -0.635170007831604], [-0.4200333243285118, 1.2333780438672353, 1.7792484366688353, -0.504992061019723, -0.0463541997517186, -0.20279517136860406, 0.6994823399638586, -0.6868035963306754, -0.5413236846864421, 0.5889909651443849], [-0.42740564269978504, -0.6992135628827674, 0.44614693510862363, -1.802070780629235, -1.5654082140816137, 0.8369967869671023, 1.1535403223633738, -0.11461328313896346, 1.0004083812835607, 0.4742475638669791], [-2.9367239596910233, -1.9401285682506566, -0.5026802983366284, -0.05508421138883957, 1.2248542583546147, -0.39911339715297095, 0.4910846215494328, 0.3064855222377132, 2.157028047548559, 0.48591374988398883], [-1.60178091951667, -2.050828286156964, -0.18371693385124493, 1.1946915445600725, -1.3160940405870183, -0.01942936012894559, 1.1362656169783012, 2.538824439439126, -0.7841196220462232, 0.5359318187712693], [0.006763190307463061, -0.9180187299900746, 0.818565286951685, -0.218412901609771, 1.4197823120883093, 0.6013853305643304, 0.10168524264690618, 1.0913293673875228, 0.670997722412502, -0.7554958292623846], [1.3782920193263577, 1.5028382013172474, 0.08284663130198973, -1.4597225904743172, -0.14178795141400533, -1.2765986273354326, -1.873404420000688, 1.5108925457629694, 0.8140511488510029, 1.151360459427192], [-0.051680067748086866, -1.4067016890455308, 0.018759055696147494, -0.945322533301442, -1.8267609809371836, -0.7526727693222093, -0.12384615597504746, -3.049467766913153, 1.1041393731625428, 1.6751643815671666], [0.188828849437714, -0.9515811097691786, -2.434988454780606, -0.2515515767307101, 0.22231319714329617, -1.137926535341633, 0.42157526662009, 0.783882163281191, -0.47017975172095716, -0.43608771867620005], [0.7519936742796658, -0.06743721199066725, -1.3125266433096783, 0.506066175407245, 0.10748171711606402, 0.6364406684223416, -0.6248568662777703, -2.4530566495239383, 2.082610197350899, -0.24694077843117482], [0.3415329992071632, 0.7852185438665088, -0.256948109704891, 0.44533161719210057, -0.050235999835494954, 0.8328570891096385, 0.03394645717540035, -1.3119364636485495, 1.4189889540916965, -0.4584459540302888], [1.1895605134438452, -0.7344392596499344, -0.9498236815634754, -0.43181372065681867, 1.9547906390800285, 0.5656653061118764, -1.0035878082885987, -0.46069034487271593, 1.3293253449418163, 1.3858578410844837], [0.7585530006845053, 0.804556620209349, 0.6682092320149076, -0.8519870291937525, -1.049174158727375, -0.1687675902559748, 1.0585036829991072, -0.19020393996945392, -0.35262053056734527, 0.46778852977581153], [0.7399494148534901, -0.8960669320930135, 0.23140765260320562, 0.7053500528901787, -0.24942063080023383, -0.49256567328581663, -0.13608310257540576, 0.41717761302835255, -0.8078952251316568, 1.2984288424087869], [0.6238466868940109, 2.028487180959612, -0.6245586123166952, 0.7737729742874141, 3.24450517684192, -0.04832077889805678, -0.6084441200883612, -0.05116868898561328, -0.14711151826768804, 1.35861438959842], [1.4586615020302567, 1.0037594532234642, 2.060028306796893, 0.6289228415393783, 0.6615853892102416, -0.2726660894539225, 1.0947758807450376, 0.7353127325411114, -0.21117562531851317, -1.0876013310539756], [0.7528309362637587, 1.6070165240114, 0.7963392086396919, 0.6772713535307254, 0.20635441534402404, -0.5993826228426328, 0.4311803695760202, 1.091039454024223, 0.0886519362632644, -1.2085240928990004], [0.5645297707728689, -0.8427013191034503, -0.29535371465966975, 0.2779703449933802, 0.6984292510963394, -0.7290899730424059, 0.2305297701623974, 1.3240366189091959, 1.1656239782528142, -1.1986055027189815], [-0.6341588238413657, -0.29238839906239267, -0.5576399922391205, 0.35764420445548456, 0.1942028398020021, -0.1681602820240882, 1.4503447511800285, -0.2565061357308411, 0.19524880304281614, 0.30981458782134846], [-1.2876419189997632, 0.7545784616092472, 0.5535630149888978, 0.2807117198122986, -0.9809664772132849, 2.373793868343479, 0.8447920242597879, 2.0326130264036837, 0.17748347557343255, -0.1772864285878156], [0.6905039774040163, 0.7565866880438354, -0.31306500625394545, 1.2203316876033996, 0.8959059800220439, -1.0843865930352616, 0.8127665659541972, 0.13866960239102794, -0.11726682134247848, -1.6305184321600126], [-1.2607599452452056, -1.5489346662448455, 0.8489364066248569, -1.381353886231866, -0.754428562443606, -1.963064010725637, -0.035862065606220225, 1.7157866835705846, 0.678024103500741, 0.7836795382519812], [-1.7361702757676265, -0.898805613401904, 0.21995773459470808, 0.28750275614172205, 0.402269460403018, 1.191853336606959, 0.7495118473452469, -0.8575416455518555, -0.07932622136015628, -0.5727789921338707], [-0.32443851461425455, 0.11730958253674173, 0.6225607547829224, -1.9792165935599424, -0.34814809364369664, -1.18550742983464, 0.15677943739854314, -0.09248430104896863, 1.2491129933390244, -1.1469155574582477], [-0.486202859813702, -1.3750689046603763, 0.175987803165741, -0.08496783844635553, 0.15780840262863488, -1.0989697120962751, 1.2760006744771704, 1.3480776259983147, -1.6958974877777186, 0.38590688555878205], [-0.681190513459501, 0.6800237885674933, -0.9772897476811809, 3.4253099067398884, -1.714077044210059, 1.1967039501497283, -1.7834072914856924, 0.9731509470509697, 0.7061865072711, -0.26517685165174965], [-0.20382732565852957, -1.9429918067845329, 2.6033185094614275, 2.0063798963127164, 1.240341312830976, -0.1498103933549073, 0.5126811324296562, 0.2854068641566585, -0.04424038864272207, -1.9267314112840208], [1.1321794884613932, -0.8545142695863893, -0.5175657209473333, -0.19904570845323338, -0.48959861169149416, -2.2360697981320463, -1.1407786615518432, -0.5377908214066938, 1.365337791717272, -0.5918583356307778], [-0.6321865933105613, 0.05575078113653793, -1.3433567907663722, 0.5939718903670281, 0.6095911030531289, 1.3440913505560719, 0.09806489770499462, -0.9632268066670627, -0.3295389472852574, -1.563883913693509], [-1.1785468134143045, -0.040382366414622166, 1.1142312654138786, 1.7501137494588992, 2.8096179628573874, -0.1658382342011687, 0.7163651307927262, 0.3814297352158329, 0.4107584290238962, 1.0277372921790908], [-0.583257323254046, -1.9704494298431845, 0.31688837164775835, -0.3328386288111143, -1.1399859452279482, 0.3725858152389874, 0.9725546604724155, -1.0546600778571074, 0.23543405774078374, 0.37885803892216746], [-0.3326761675330059, 1.2959928882193008, 0.024701228513843227, -0.35288901936384404, -0.5963693016771626, 0.9150152852640684, 1.437640935861202, -0.9224660589131092, -1.8686551853525304, 0.7365050963887078], [-0.8056345812607297, 1.2710238864143177, -1.2518364998537903, -0.18463407608114724, -2.097198034908452, -0.47852621620495667, -0.6964549847070484, 0.1538293161987858, -0.509878216788542, -0.14271168910564985], [-0.857230726536268, 1.0263137013130528, 0.634082641390398, -1.5991210928423085, -0.3046251365881524, 2.1360873077537748, 1.2248179564160067, 2.2686336481935436, -1.1482061864626085, -0.573143069530784], [-0.6503966249713904, -0.9320902422860434, -1.1764189955963789, 0.7651973871636367, -0.8226548596323855, 0.15633878986667032, -0.01452690138363034, 0.9407902179535027, 0.529862285046349, 0.2209452895051919], [0.07667896142765143, 0.9037411792653259, 0.6165073452625707, -1.033685930785077, -0.7717705894686223, -1.5952357398334174, -1.355039001437199, -0.9965025405358187, 0.1712826612952086, -0.9997558059414513], [-0.21283979281534746, -0.19920013514011203, -0.21611896275572073, -1.521303724503534, -1.3854948840982693, -1.8512468758626075, 0.7495052344640092, -1.1572766550290556, 1.5085945580020206, -1.101125804930907], [-0.3886449848219258, 1.6726312080407437, 0.9639490968935385, 0.8850106042535338, 0.6064602430685224, 1.0801642065005854, 1.7646552110996416, 0.10349170126758385, -0.08464956091642048, -1.0871435522571717], [-0.5474725248415544, -0.5605837336320864, -0.9562274799923565, 0.9109649095726052, -1.2408613963141208, 2.932123306934349, 0.22164950142010106, 1.4733554030314837, 0.7559050841655746, -0.6495066857644768], [-0.1685822726345461, -0.41649352475217355, 0.06693592056204999, -0.8560221492965183, 0.17621812776795326, -0.27404813861022453, -2.6301256456496724, 0.40938814678213187, -0.20000712904140874, 1.9977017524240857], [1.7294508251808798, 0.7753381363067494, -2.1317360107507315, -0.7350918508797837, -0.888375065813932, -1.4979008382017975, -1.5631532867158262, 0.5164197324486081, -0.1810840543654764, 1.5059773440763398], [-1.0170866631587983, 0.008088799570419651, 1.5199496823054055, 0.9807060145427153, 0.9506028981643037, 0.15021958566697813, -1.1108173302273663, 1.9664607739948985, -0.8447795323284192, 0.8492265738197949], [1.1073028005642056, -0.5038130778759483, 0.7158963299975759, 0.416468061897558, -1.2874808801084145, 1.5777885951443915, 1.933844244222087, -0.28996399303090736, 0.006630242668999675, 0.3294755422471236], [-0.8099975269039627, 0.19339058118064856, 0.3885884284817008, -1.1612264503553504, -0.7661889691665299, 0.9486454761153356, -0.6361058375464577, -0.2924666057074608, -0.3107477208107668, 0.7267791926092999], [-1.883776643419229, 0.8365132619633834, -2.333226853107735, 0.5836255569757158, 1.2181818471906525, -0.2256173012351139, 0.906905723900877, 0.1286190857662826, 1.0451414732261077, -0.7111995704735874], [0.5665825859945257, 0.05432202028285847, 0.8487510482834025, -0.8715078251122662, 1.2444201133116688, -0.5762341991283038, -1.216856701835893, 0.9526037065589302, -1.9427723025369796, 0.6926368400860919], [-0.8955911192546423, -0.6774312313903131, -1.0936566179420644, -1.4693835849099763, 0.4032927987943516, -0.4063683051662005, 0.2806529639756588, 0.7832091265378385, -1.1325290881567118, 1.1631703485790785], [-0.624577715980361, 0.5797493828239372, -0.13486984128118296, -0.8768329884384255, -0.08797051745993804, -1.2358114257497275, 1.735892719910329, 0.3635037926597563, -0.9068374475759636, -1.6919552056411586], [1.5356038750151595, -1.1963362992032818, 0.38888543321053404, -2.623694877439649, -0.013397635037463485, -1.2187043626587393, 0.7664980401762276, -0.10601863067566183, 0.7113126566045223, 2.7095280131604604], [1.0334694144996286, -0.49495947359339865, -0.2120564823736992, -0.3749429561590615, -0.4266562790821525, -0.52747994010167, -1.0606111291743647, 1.4333530461219375, -2.216206297366241, -0.06376938552960901], [0.4238539890647192, -0.7821383352039546, 1.3113534693412352, -1.8260495506861467, 0.12790866569967885, 1.3796124513596635, -1.1243286455460686, -0.05477978671647615, 1.4166522465895508, -0.14961656556084468], [0.36513050843291944, -0.6195866841814671, 1.9597546553186187, 0.10891245902819376, -1.7612307401118976, -0.5880618721192441, -0.5768877824560863, 1.8844423346999688, 1.0021231478999673, 1.3279904115810526], [-1.5208340627079333, 0.504241458359915, 1.032267755219561, 0.7174354210171329, 0.3581299922762101, -1.4022242565759697, -0.6505413845754179, 0.3543164363994109, 0.3841575182976548, 0.8935242242960425], [1.2079526004153192, -1.1919895492546568, 0.24356201766654792, -1.696498171230194, -0.8840411251760119, 0.9357222069935115, 0.6766398346943132, -1.0610858642210468, -1.5976113048209624, 0.5723696427955751], [-0.3086074109734778, -0.31176908430469913, 0.8449298813565944, -0.1251163984052265, 0.7233474523942597, -1.7655168374324737, -1.8887148070156745, -0.3789564624093855, -1.7184383162302634, -0.9220004386196242], [0.6133730265813679, -0.7865447106303262, -0.5812141862292209, -0.059507074691463796, 1.0353290859396682, -0.35991384867833814, -0.875773953969222, 0.4223880437882391, -0.592311402774501, 1.215076659066039], [0.5966669187420839, -0.02260164898793824, 1.0487514606675825, -0.5444481865322722, 0.04423732303745563, 0.6178223044180723, -0.6990565309162335, 0.47335670155291315, 0.5294570933045014, -1.7077642296752387], [1.2711329452252178, 0.46576627895136763, 0.5554963747924496, -0.822558076395275, 1.626729325696557, -0.6202349959728704, -1.2692160014988572, -1.210011731473753, 0.6862780416479787, 0.4219407233794421], [-0.7842561348130624, 1.5055678211447565, 1.3141073068912024, -1.5019019468938866, -0.03114110237814727, 0.8274504754408835, -1.5645265010233724, -0.8700946442714527, 0.06518488729244973, -0.4882284867403808], [0.018414501526943565, 0.31473238350337013, -0.7195622464295849, 2.200551410351324, -0.07497241248237575, 0.5424487830464758, 0.6243653651748563, 0.9177105197205055, -1.4625239529612741, 1.2997480687304237], [0.1813858011963074, -1.268551599149239, 0.4465753045269752, -1.3941820201942456, 1.242300653230833, 0.13625380902199807, 0.5524861936907911, 0.5246313749055886, 0.39447235247297435, 1.3336694575484045], [2.486961513820605, -0.11633051660302506, -1.0439709041000038, 0.3887094242734282, -0.2635604012696621, 0.34208513581526706, 0.22826202675206364, -0.6373710285463133, -1.1105350715419047, -0.06290100800390061], [-0.32574321830047737, -1.2391616196003357, -1.3158939432947914, -0.12774804377129156, -1.2263263427668696, -0.7285503615971651, 1.4661846726283159, -0.2020453527145084, -0.04767025257704462, -1.099521779367132], [-1.409128610375779, 0.5378855910997388, -0.2864585280043314, 0.0165152685539815, -1.3151531629313373, 1.698011263907631, -0.8099555982015078, -0.4623037580340221, -1.4322458053156277, -1.4089975594617279], [1.2360786109824784, -0.9597387424278647, 2.0254224423030984, 0.7662056729023602, -0.17319294258683146, 1.0372419165291016, 1.9747610005300977, -1.2336919238706139, -0.2824055637028017, 2.8034670341876984], [-2.0341839388001364, -1.1368019961345115, -0.5192136354183982, 0.9082171257366641, 1.3787169802586676, -1.6341086719817444, 3.1816094763025458, -0.42045082489390756, 0.30650392608671295, 0.0710556839955124], [-1.594024783918823, 0.007369445399440787, -2.01350285515455, 1.1473001374469325, 0.9708254692011404, -1.437474200340049, 0.3016321628620615, 0.39290499142706103, -0.654276991507607, 1.8338659185923383], [2.231116716981633, 0.5901916669766194, 0.7693422674479309, 0.1985130463835001, 1.071527765580573, 0.7111752370738452, 0.3865442990077758, -0.535931375665402, -0.7043840171347061, 0.24998229623608872], [0.5263978457948515, -2.0190345419826734, 0.09024324291456781, 1.0256008509584504, 0.9501850534540898, -0.5148598006514521, -0.008382879634522077, -1.3738369784831972, 1.91460830657994, 1.12400329068073], [-0.13888248555539534, -0.6886268072137912, 0.7075947814319641, 0.4565911205173385, -0.27963146606857603, 1.4008437377920406, -0.6524870726715384, 0.7979681324437115, 0.49411452686958507, 0.28006901347322766], [0.9663851435937346, 0.354655254583245, 0.29380271468431146, 1.0879693348201946, 0.204068439771662, -0.4080429997923218, 0.49676125968057344, -1.337126755360474, 1.6636789177990952, 0.2009881462622032], [-0.08506531730939348, -0.5409819100823239, 0.0774468556331366, -1.375547687790467, 0.7570222477641477, 1.5507219989669385, 0.225060295820597, -0.3119872519070328, -0.5143169825404071, -0.011346976127271265], [-0.23602312574262632, -0.3861369619351397, 2.002508211699671, -2.264006859603922, -0.8352682748306021, 0.4023837450470662, 0.023322568614591414, -0.752689080525369, -0.2984734743107223, -0.6818661534054996], [0.7380440405852924, -0.9403553379715153, 0.5970039280927402, 0.6777603307207751, 0.7949491155903435, -2.1107140508273856, 0.7151002965972467, 0.9515470626917731, -0.4607603575017242, 0.02698930273638355], [-0.0892183095197888, -0.4015607581079721, 0.5692281240538722, -0.42304063006460374, -0.6320769329400325, -0.3385342439634884, 0.3047160567985752, 1.323403532752764, -0.44679709024306, 0.4994797675039094], [-2.4181177365515776, -0.7886179954843954, -0.7192704330068276, -0.20166398378379818, -1.545535770869445, -0.04275977208150747, 0.32938470070618053, 0.577784294034704, -0.03719497524028835, 0.24628709572739987], [-1.0200889821662977, 2.3415162663054327, 2.032459129948708, 1.2758261550844423, 1.4762192602705853, -0.49767288617732003, 0.6874666726471172, -0.7411594178388258, 0.68057900063237, 0.5896966044999162], [-0.605029068984188, -0.5243182763164892, -0.030652111278002957, -0.48842995686603485, -0.19236551771030244, -0.9980210207592632, 1.1785424533682731, -1.2367087587407186, -0.3296193485928602, -0.5570760981677251], [1.2571979324406597, 0.01710555473976118, -2.505424696321749, -0.4619796750566543, -1.361920770728655, -0.05049253315975973, -1.0970776967273776, -1.6786472718389829, 0.32209287503847317, 1.1134172602423897], [0.35987085772936767, -2.8623205820697715, 1.1888268597123859, 0.7108829730840459, -1.3179796917408224, 0.9466414155774353, 0.5163766992082865, 1.8090543668622336, -0.16549118767959747, 2.2286203889276957], [-0.18876606560210185, 1.3092603738405897, 1.2667906383529637, -0.8678832580031884, -0.8645227140255398, -0.044776590585218885, 0.6590053965128336, 1.1966127173659675, -0.05054119569546882, -0.13687786743761646], [0.7493526765856523, -0.8385376935720653, -0.38097752998107226, -0.8336751680615138, -1.5297345659242279, 0.15001935484592982, 1.1171664191650195, -0.16629870567767055, 0.30545738740789985, 0.15126335778824476], [1.50735589320402, -0.300340716338102, 0.65954240306815, -0.4715549983127416, 0.28065238648114443, -0.09268802428391755, 0.9349671497894965, -0.31559037339033075, 0.21172624869559134, 0.4385359423733525], [-0.6815605380164024, -0.4972481491882626, 0.7349672822508934, -0.9791797407585574, -0.24087728203967865, 2.220078372478264, 0.3875257190642699, 0.966323430696376, -0.11991297273804935, 0.2282488847778437], [0.7624338710191739, 0.32978911295455793, 1.959018834443833, -0.6918662142869612, 0.21531252751172097, 0.17814566692331252, -0.3426669430791246, 0.6940133647416452, -2.0143129315108275, -0.9592957080250663], [-0.4756086221997162, 0.3128470395106504, 1.1660684318379884, 0.08153116538313568, -0.9655694995806395, -1.0486415305519192, 0.38131793532088454, 0.7368633088808714, 0.16371962778123927, -0.9726158299044404], [-0.9757468167575728, 0.8013948337853514, 2.5180110031647063, 0.19802551002489108, 0.8240262442338819, -0.7935456161841932, -0.868265220264046, -1.5371533460877167, -0.15060095974959153, -0.9545978691191157], [0.26237428722268424, -0.5280781585418317, 0.6982445613365174, -1.7180507040371311, 0.8407717209816964, -1.2587747196971706, -0.3209919290386886, 0.45444944438560875, -1.568110122481568, 1.7904493155675567], [0.6191073341811821, 0.3891900000131192, -1.0254280997690435, -0.17799597045478388, -0.34907430446490917, 0.869464460866836, 0.36303469614180855, -0.27647646135167775, 1.5165142676721657, -0.0959894862913781], [0.2654690902565594, 0.5923651672521771, -1.5204369863074643, 0.8053712785289852, -0.8829576793771132, 2.781106725257169, -0.6223529588158276, 0.20203302285963975, 1.5107669914872661, 0.5026196281125426], [-0.6444138620865906, -0.1697305843605586, -0.09931090101361836, 0.10039688154439662, -0.586812510607917, -0.6494533189669958, -0.06630031986958654, 1.131753542042189, 0.7157515706051861, -0.22168899393509653], [-1.2331242192810314, -0.5728064056183012, 2.816067289254181, -0.12624655079979755, -0.264961498577672, -0.23575789041330064, -0.8700996888867364, -0.2202261145278309, 0.921399133094523, -0.2913381809658256], [-1.3405584600092284, 0.10541786896994391, -0.7379940639053488, -1.5451555604502916, -0.9357268840044572, -0.1651307387667107, 0.027833249238599013, 1.3373180618090619, 1.6447066963632044, -0.5413994664644274], [1.2277398227719114, 1.4643578241392112, 0.9986269801646392, -0.7553573004357984, 0.11905114295900034, -1.0034287584001944, 0.5592550862903523, -0.31918132167387386, -1.5023983612780505, -0.6110199899945835], [-0.8286237597214148, 0.3325587970709762, -0.3311263116267324, 0.43184889097618406, 0.7644093592930288, -1.873383611429958, -1.2369015864419965, -2.245374174791129, -1.106953491437977, -1.3188315783418783], [0.22775501976404547, -0.1934857270456442, 0.287800182495328, -0.36322413353960414, 1.1094462050684324, -1.2237001421890488, 0.25880051209805943, -0.8457233949184207, -0.9974975158309188, -0.8692335962987824], [1.1812699590529618, 0.5156733802688711, 1.8461203321637192, 0.9830475186223383, -0.2082877340670626, -0.35967091003693796, 0.8202328748646597, 0.8628176346030038, -0.8986862583560195, -0.3375939524785883], [1.200471170756998, -0.3798395784789916, -0.47969742559405726, -0.464202194266625, -1.1387386802239465, -0.46412141739724894, 0.386015266553972, 0.9869645795446216, -1.207125899529612, 2.259227957488173], [0.11076947412974392, -0.12335237967742, -1.4818681281609534, 0.6941325933166442, -0.16796159319023365, -0.09490779846287388, -0.01261817878640023, -0.4571540729826591, -1.3221058072008653, 0.5149026192517323], [0.6749650087976579, 1.370796761119359, -0.05224887155390118, 0.4100138146338016, -1.2648495709470824, -0.9099426050973468, 0.38571888899265566, -1.9734926707706815, 0.03217084766164732, -0.6107296392650324], [1.327294612647332, -2.0506356746746337, 0.07909048466808266, 0.41287023010121077, -0.9996368706757424, 1.5867443563615817, -1.353172214714168, -0.2635793132775922, 1.4912490139553445, 0.17828191207598848], [-0.8004708340405845, 0.24635439428159386, -0.3817065135313227, -1.1058433772086864, 0.8387900466606585, -0.8279144593576253, 0.4411492085367797, -1.4755521093072708, -1.7093770179301455, -0.7676927476739147], [0.38240914081843513, 0.43434443388774796, 2.5810073643017133, -1.4190994022716246, -0.12618825291117364, 1.954050998936072, -0.48781914988794844, -0.05151259426603716, -1.180077537016028, -1.9036845926836403], [-0.10793337613781695, 0.22564135232390126, 0.833607042189992, -0.8511251501583159, -2.233825702584552, 0.7406249160797538, 0.7466337198158469, -0.2659521235535185, -0.29232098050756444, -2.4099470286452296], [-1.7130540944120074, -0.3939459141741184, 0.25859529465868625, 0.17178715835866706, -0.22437546687264315, -0.9903557645876193, 0.6541022220899516, 2.2496874741670623, -0.263251851091151, 0.030013581980333607], [-0.027536406957111684, -0.16988446619829445, 0.7716999839362318, -0.9947398589970966, -0.031976149757399944, -0.22908945849563622, -2.893019773038015, 0.15607440934668032, -1.2264380145084819, 0.2358992969997503], [-0.8575956201793198, -0.19894889910686214, -1.492946925138446, 1.900273996644649, -2.6838402615650025, -0.06559437445709884, -0.4581228988733351, 0.28413507263588345, -0.5131743263025293, -0.4142865961710503], [0.5789002379890864, -1.273512217250024, -0.8917095974688884, -0.8953760317497466, 0.7089195796900366, -0.04624564283933783, 0.798862775054988, 0.08991701256215187, 0.3920051285904864, 0.5929347707893995], [-0.23104597374913954, -2.3569301681296215, -0.5698249259277726, 0.8647514383953376, -2.078026372881729, -0.5497348159552786, -0.4861969627504405, -0.015583726843070468, 0.24686974798896755, -0.044851999695614854], [-0.058462656615490986, -0.9994107185782375, -0.3753990226723581, -0.6469711334800492, -1.72002024151947, 1.0066260934193632, 0.38439188420248815, -0.29010685126837216, 1.0556762853256019, -1.28458253971835], [0.8379038627647734, -1.2142282930707513, -1.194169598268057, 0.7807593732719897, -0.8470525340245896, -0.27587648306256435, 0.44868902938280564, 0.7086424683908547, 0.4671985388376461, -0.5214916255381778], [-0.6076208012982933, -0.5968180490548831, -2.0366505884177744, -0.413553375993777, 0.1441175730494374, -0.5935606555873422, 0.38712963278692075, 1.4333220504047168, 1.1565255490667834, -1.6198059467849342], [0.8183592490143828, 0.3222155849769605, 0.0016855900665103268, -1.1523525749184713, 0.3186840999811677, -1.103136635855892, -0.16214311376280321, -0.14252147436186385, -1.1590780297562857, 0.7988419151404411], [0.5644694881417989, -0.4219830979908853, -0.05959077950237987, 1.3200034360140416, 0.2225627952783876, 0.17320724807537702, 1.6950190482867926, -0.19247542661339478, 0.2254926126485681, 1.0771820781094625], [0.49692539552978854, 0.26272567485396475, 0.22013997263571283, -0.999700240639903, -1.159983045089889, -0.2369171083328911, 0.5192092901827988, 0.2019683155470279, -1.1041857375807638, 0.8618193195454213], [-0.38272083070631563, -0.8311498326142314, 1.8340399801572818, 0.14623789089256234, -0.018427040973832225, -0.4582586018555057, -1.3000518530733847, 0.23814260625718295, -0.7116438518800573, 1.9589785530040953], [1.6357077263946032, 0.0465904074319647, 0.809250349282801, 1.7904595878397425, 0.4304679514127038, -0.33456183203111917, -0.585843466356511, -0.8677723866111633, -0.14429080826111518, -1.0666860583667597], [1.6815349698237627, -0.2957494694913984, 0.8245244556900054, 0.06209274716446819, -0.6537960734146198, -2.0127693947054652, 0.6027106144311304, -0.39833965917983866, -0.4148893801389388, 0.2576476451557483], [0.013666549327957493, -0.4638444192844427, -0.46902870682075515, -1.205264182486308, -0.1403582393941204, -1.4016929458921858, 0.05185248426227307, 0.2650350894742459, 0.22338997449724782, 0.6189053958876131], [1.3348440870005691, -1.760984865666061, -0.18655310045141832, -0.24199851238087133, 1.4759045501157266, 0.41688267122401484, 0.8717139991955678, -0.5875476673498112, 0.7567929269639476, -1.5414232115836666], [0.0414559835134602, -0.31437465347098087, 1.9615758112378177, 0.10763798404778815, -0.7341243630502253, -1.6029071687446583, 1.216257347946212, -1.404359338379259, -1.4072120370775762, -1.672872952229667], [-1.5253714810518877, -0.21718389918442493, 0.7704153758484433, -0.12659651881846987, -0.12972508862982596, 0.5862805937775496, -2.242911750083632, -1.3617836464225745, -0.4133017961397279, 0.10866831600242711], [-1.0605157187776748, -2.019024377632175, 0.3627091851646536, 0.7203409733060818, 0.5159897703432136, -1.090819138495331, 0.09373048660396112, 0.1482875755415146, 0.26099323337664065, 1.2000448106346664], [-1.560521425695385, -0.7694101783727909, 1.0196908352772136, -1.7219334131823227, -1.0250115288393244, 1.738512144822403, 0.8049747353573554, 1.1613648815950164, 0.6285029200372292, -0.3642846305118724], [0.9849674322546655, -0.004249502255779986, 0.04131897294781908, 0.2705953539071591, 0.04632731608829318, -0.6121093726774105, 1.3546444920758416, -0.6053140147236948, 3.1268246816749428, 0.15416544192965909], [-0.2531280529403374, -0.9364680136857979, 1.1442678256887722, -0.5817255946165036, 1.8758695001680723, -1.3680348180016655, 0.006953880002949805, 2.4549002371470663, -0.12397902743208758, 0.3194561535786336], [1.5560568365949319, -0.320315184622498, 1.074877719352884, -0.7247214528756372, 0.1946296030264558, -1.8638365178685157, 1.8171902935230935, 0.5025912751442817, -1.1893203410747855, 0.2451016044847674], [0.11185823863001639, -0.22256876857716676, 0.8935132714704773, 0.43820961756878907, -0.5071749770860409, 1.1297488841346082, 1.44591916030567, 0.43598013807531294, -0.9599877402909182, -0.8716613931214864], [-0.13814851162263572, -0.04955440354403776, 1.046345277981981, 1.186670266575781, -0.016010298868936703, -1.2011191138027963, -0.8503500987779269, -1.2720265452593675, -0.35343555625333417, 0.3500653507470356]]
