[[-25.156203592730073, -13.901384633155487, -22.716034235665752, -10.768562235478887, -14.441781259104411, -22.031191721063497, -13.25689266128527, -15.475556017052678, -22.234319160218465, -34.66505343115669], [-43.168926859780946, -14.849976169295516, -44.5513169624542, -35.31621712450027, -42.848219817391445, -8.298420348692662, -38.139607153798146, -34.011198140027766, -40.036052139661045, -22.466326392333382], [-63.86258360186331, -39.629112797614766, -56.70006857066773, -61.41000139030024, -67.00614618965805, -48.02701445706249, -48.754830600956666, -53.86629845564817, -58.382992405971265, -54.777636959401136], [24.94192223166049, 31.52586789530985, -20.378775552467122, 13.315212894290106, 38.585410046975184, 6.10973957227407, -4.941186683756641, 16.514141567026844, 19.971562882519525, -4.450082869044147], [15.824267111338814, 6.815914443583123, 0.20028206252608333, -1.2425372599434201, 3.052269553468148, -0.5246657749953632, -1.8929534290660013, -1.701013854804828, 5.450481451809706, 1.260424675789836], [-9.102541882841848, -13.717507130461847, -6.287957996251062, -0.029232137517963497, -10.393265996679988, -17.81712483336006, -10.071352841368576, -2.6632382880998695, -5.489051636846389, -12.144372655276847], [-20.967901861515788, -17.82848799234638, -29.18846181120578, -29.282277037013476, -18.948417647876305, -31.35140359675906, -17.47186812890176, -20.79384334029737, -18.980941636731593, -20.82403507005626], [-16.870628343604313, -12.80049755801601, -12.513046513388439, -13.468155596799694, -15.882869635103182, -5.871361938741766, -13.14967758768712, -14.09161683164338, -15.594439359320972, -7.5806529842598]]
[[3.969167279128077, 0.5912629586507699, 0.7420416110526171, -1.8407649230561989, 0.1978432087921063, -1.3147325458371408, 1.5710982145787218, -0.8259477992621911], [-0.450660079249159, -1.750597549590451, -0.38577299973123247, 0.24058955142967103, -0.48886144427912254, -0.4590056473978268, 0.7311566353386267, -0.5583331186108081], [-0.08090981991798529, -0.1868397350596936, -0.15697850989446982, -0.6615165568064794, 0.019711244636045802, 0.8698452313540912, -1.032603663471594, 0.8027528655778787], [-1.6323647870031177, -1.337085404785438, 2.772866486184511, -0.9216907459999281, -1.1626246427099567, -0.5772782179808094, 1.0788862792354532, 0.06291447048761055], [1.1448327160200666, -2.2661173510156924, -1.7422592947318423, -2.0460788732082262, -0.5408793190477219, 1.6039759041673636, -1.407943106590764, -0.5339729631712524], [-0.38784084670802627, 1.0403365459737335, -2.5623745018463184, 0.3364185069313541, -0.4914070343525234, -0.8416263624798457, 0.5765156760063013, -0.7767411747688893], [0.9614809243347866, -1.8147042775319076, -2.1330639851424062, -0.805778378813407, -0.27841273959992485, -1.7180416076386442, 0.017958487294825215, 0.017107099996510486], [0.5650639151969513, 0.3973222381568909, -0.24894192833314763, -1.0623590381420782, -0.037951448198408136, -0.5110696916188, 1.5590588682317794, -0.9768413737587189], [0.10653086053457109, -2.7202243542010764, -0.5826967247563479, -2.3568304387349523, -0.8555545137635603, 2.274667950482495, -1.567670668520048, -1.098706036736753], [-0.5119068382492324, -0.11798240450150621, -0.149916535039746, 0.2850991266303488, -1.3102871406231662, 0.943560920011916, -1.0222686635488822, 1.1776068822341657], [0.736172592645101, -0.2508133480378879, -0.927532142454096, -0.9611601986955829, -0.509200176513024, -0.5636889990545846, 0.6053292730049397, -4.299947182111481], [0.8179971456471408, 2.545498183244481, -0.49880409325677366, -1.5697843755770067, -1.4600246864533653, -0.49770402704950856, 0.24459697120499257, -0.24365775521568112], [0.8257141775126384, -0.39935381058474206, 0.7788798773599552, -2.6291977059654723, -0.6186350605377176, -0.719304516055889, -1.6524660392271244, -1.5278374795115548], [2.1086168548107382, 0.13308005771185596, 0.9034912428703749, 0.3705551100936585, -1.5507290982177238, 1.2515904655014352, 1.7269642673505288, 0.27967042395633324], [-1.7467032157282898, -0.48851227438220635, -1.0428107653152865, -0.9690445428723063, -0.26663086929693647, -0.7485720689428853, -0.5424357114577766, 1.8168734794864538], [-1.3255727364431849, 0.9825391037356875, 1.2353809700472504, -1.92202681343004, 0.33357003508229977, 1.6481911971518803, -1.533068906260551, -0.6522065191485412], [1.470685491100907, 1.0609367587416456, -3.0433435659374704, -2.8977010421458775, 0.5046287343733274, 0.9644737844452279, -1.8816532009670948, -1.616230666849395], [-0.4542126114574043, -1.6009618697767218, -0.299403089200988, 0.22741530255800907, 0.1797843949630312, -1.5253036673796458, 2.0440983103527266, -1.1952740490431906], [1.9203374391241144, 1.0095581379739613, -2.5722911243336943, -1.1054259359946645, -0.32259714516034277, -3.204041850220965, -1.3683501118175747, -0.6949361201617946], [-0.1252645883895665, 1.1191990030590622, 2.519421665523113, -2.288757262354808, -0.49444626627205773, 1.2780572596803819, -3.7971311301234745, -0.8000999018509016], [0.5354894296675173, -1.1148635449057858, -0.31266687401611737, -3.1755733301773983, 0.09899968641663907, 0.8387037265578843, -1.3703839388475645, -1.7989646391068064], [0.08509206954531363, -1.6202522952885405, 0.7726046441354562, 0.3000151760753403, -0.896872782102367, -3.0090914816081824, -0.3629172555012148, 0.2652615230627777], [-0.6118473962926418, -0.9262193301486932, 0.8528451344413304, -1.239274188465112, 0.15370762420933048, -1.1179606322213262, 0.7175143174443233, 3.015232279854756], [-0.34512111557603947, 2.1875441353663962, -0.8842006427259768, -2.3280574529687743, 0.5627445847723861, -0.19200806789863892, 0.5875461494553817, 1.7488898727191897], [-0.05316508275074422, -1.2668063617122496, -0.9052148487531728, -3.4531746466518447, 0.8709729597890523, -2.0177742528686538, 0.9955047232371247, -2.151481526165238], [1.112208849061514, -0.8756872615273491, 1.3356147651889996, 0.18034412772562963, -2.0665606026260037, -0.6002412128365965, -1.7529093482655362, -0.598254762682844], [2.6379899065915953, -1.8416801799459626, 1.0752135435640273, -1.4756823099359422, 1.3460508647092249, -0.15327381556317443, -3.38643826438595, 2.021939278393309], [1.8968839888075788, -0.12189548085835261, -0.04298287991045863, -2.90059742407092, 1.513373314696975, -0.4817299514864688, 2.342361094480047, -1.2664489461632242], [-0.8725596694899391, 2.296223061564119, -2.2497804076232244, -3.7706227797217773, 1.8179269116555117, -0.846334613883429, -0.6541871334881563, 1.5445464705760736], [-2.5920084033366284, 1.10402631824779, 0.20153420525364962, 0.2626817118828474, -2.725177769081649, 1.6253759705861635, -0.9741095767367565, 4.25791316144241], [-0.12927216185395018, 0.9350423248926144, -1.091247419065847, -1.5588053577133234, -0.06309411588256024, -5.258061011223039, -0.4649313008310267, -1.2779483876903632], [0.6843592296682997, 0.37990688618116186, 1.0371164761115903, -2.7951713612356612, -1.1924283293346287, -1.2407170832713474, 0.3652746476397262, 0.6703273474000417], [1.5013316033522965, -0.9464188946567091, -0.4000883990786851, -4.121098845979629, 0.004521232299202927, 2.321684709800997, -0.3370696867106183, 3.4192278749147227], [0.44601089225203705, -1.0673046428328459, 1.7715291612070951, 0.21449218510989676, -1.4087947416729143, 0.5321478019271146, 0.8915746908621192, 0.008721719526742673], [0.490617420507272, -1.2244699530751242, -1.7591928441109181, -1.6157923371493492, -0.6943864027216884, 1.607828274959938, 1.8043809470301369, -1.4469152734428916], [-0.2814006213569644, 0.7465176188053608, -1.6125308145008213, -2.9624686679637584, 0.21043056400677923, 1.947972352217692, 0.49641903558312567, 2.307597695265332], [-0.6711472814850116, -0.34598028328281494, -0.443339870800043, -4.197934240286316, 1.2618575273045782, -0.02884298059816115, -0.3681000882823506, 0.6111928453901075], [0.19113383839990417, 2.8621700882558896, 0.342901960899449, 0.20605966304948664, -1.0517571458801656, -1.3957384173178395, -0.5720494725326799, -1.0461591813524629], [-0.6698630631625396, -0.24112173636822037, 0.6811160043760404, -1.6544740717966813, 0.03817317795697782, 0.2945134291128349, 0.39963346125386234, -0.2914758098523553], [-0.5645424237159186, -0.39538690097768914, -0.5976365116220492, -3.077577612119783, 0.7504605168715369, 3.4081306429486546, 0.3656477156164637, 0.6719266661447155], [0.38369354434114356, 0.13077251073412088, 1.7040897336263219, -4.782506971189114, 0.43604749731996617, -0.21511871812510014, 1.1603974458749065, -0.3915783080792364], [-0.5424223958679417, -1.9833708217124257, -1.2755731339164116, 0.2433767468060264, -1.3160630961603337, -0.8679231285949632, -0.7370326885156019, -0.6471518094730782], [-0.03260716364206719, -1.577469405885115, -2.1122127958603416, -1.6109655016553295, -1.5375496748821862, -1.8019972202260872, -0.2544731612146628, 1.0539862559731428], [1.4292689263091147, 1.9999939223129928, -0.108985817430726, -3.149181255665334, 0.12437324896453263, -0.04106422203271736, -1.2095744458364492, -0.40155263713625156], [-1.3008545481108196, -1.120701864778696, -0.08497496177968089, -4.7581499655537, 2.5535784626868336, 0.6020284435674688, 0.3695924428030294, 0.25989860430274003], [-0.6042065200075077, 0.7945723143338398, 0.35290265314982344, 0.17250932700237764, -0.7800939986084615, 0.03193812707458518, -1.0025587918355048, -0.7850366959446741], [0.7562769927644104, 1.3843792003307838, -0.9100644205656748, -1.6871618170002327, -0.9064384405077222, 0.25725169362674455, -1.0786181450448584, -1.4686068854039804], [1.008709501370733, -0.5667396680651726, -1.4835133168103987, -3.180663511088623, -1.9670133447254303, 1.1921707198367915, 0.32961776637972384, -0.5730906644399013], [-0.14083168607690627, -0.8714274763873663, 0.4246345488750489, -5.015165781569515, 0.9319494604068649, -2.3416302166856475, 0.37699058545371966, -1.9971544801711534], [1.604464461861931, 1.237272392629115, -0.10086003283236677, 0.17914079169657735, -2.3027338537175175, 0.7198809952457501, -1.8654874410439353, 1.2305891996781948], [2.030668559028203, -0.2550560735554541, -2.5072847684432644, -1.6824241450809438, 0.8715203690004266, 0.6649372520217645, 1.4603684109772677, 1.000427833421136], [-1.8491344575262523, 0.4244908532432379, -1.0752559651953268, -3.1829820937809212, 1.16491800575237, -2.152538871726474, 0.5371883184374283, 1.9320165123476518], [0.7710887117931683, -3.586474258814829, -0.7511755130362174, -4.967006209411079, 0.28240856293001343, 0.3385676881532313, -0.21402213395767064, -2.14322023098466], [-1.7525933641155742, -1.0672483448394026, -0.9728817623881774, 0.31010118483565235, -1.1113552173372663, 0.463599477948426, -0.240985573729687, -2.0292800917249183], [0.5815510438706298, -0.6826701634584375, -0.020324130750768554, -1.668524010223044, 0.7672976569833493, 0.22598400855471848, 0.49419223096873566, -0.21245417000299827], [-2.5339893625627936, -0.2682072770371497, -0.6361771274146086, -3.148004066340101, -0.03184855386875621, -1.2918537683181825, 0.2163391805617666, -2.3415832341072296], [-2.672384083865918, 0.3868139559122956, -0.5411743498844994, -4.930717363688089, 0.9658623906006011, -2.153424974556957, -0.19605905641817467, -1.8937162896347786], [0.31007463955662984, -0.06288492220570427, 0.45506589140895787, 0.33241424527027236, -1.6202803567366473, 0.15951815288128357, -0.5070700496098156, 0.6642676269719913], [0.6218603883183202, -1.3184479325311371, -0.652458888598622, -1.6363835027831528, -0.05620298481239133, -0.7727879047266583, -4.202814287094507, -0.22252854441051823], [-0.4363624278500125, -0.14534443171981756, 1.0798931147872568, -3.459213947614798, 0.7454486206817216, 0.4243900745672581, 0.19868684785607282, -0.743298552067047], [0.7439539753129532, 3.104015009657441, -0.1993257318465902, -4.944164878409479, -0.7064588686141268, -0.381235201218036, 1.2318130191735377, -2.0645076039407533], [-3.155349305507723, -1.2111723119854967, -1.2373160094277922, 0.35655019677312183, -1.9695568822408283, 1.6169846283647198, 0.5346746390560866, -0.24401087612265204], [-1.312865475676304, 0.7424136188578604, 2.176185103326112, -1.6151093780573913, 0.5932950197283394, 0.241111617095161, -0.6134198943699548, -0.8151953854610338], [-0.5360857371061539, -1.863027983028974, -0.32628474967336285, -3.045655687098975, 0.14635079316815447, -2.5395587727551803, -0.5938615116799416, -0.407164904346432], [-0.1754981934005454, -2.088354668480749, -1.2091901775983382, -4.732267921475113, 1.5206894678193512, 0.2709037096049097, 2.273990999922673, -2.809672156962397], [0.6627999553741828, -0.9101918739728971, 0.7169420606105933, 0.2690797159059112, -1.262991630746546, -2.9831767928935458, 2.82578562100181, -1.9989646801494014], [-2.518497065299546, -0.4582478707588482, 0.15471483976903122, -1.472483386578045, -0.3401182853675366, -0.3514594684838265, -0.8021862879349368, -1.5351849002560642], [-0.4372812771028724, -0.3359377695392526, 0.7056214251490014, -3.0406542041540576, 0.7400229934750683, 0.6096625454363844, -0.9877903688008464, 4.006138127090156], [-1.1306241638865524, -1.989521315484934, -1.359099737917211, -4.527360987759542, 1.7408177332801469, -1.8791640254810216, 2.006888123441229, -1.3569405781002437], [0.12451072335599624, -0.39172114316871987, -1.7259019753556246, 0.29203634243973065, -0.9788076253414285, -0.7508853107052254, 1.5613968117499508, -1.0545179737197565], [-0.6519764714238107, -0.926582215564879, 1.1810747380584146, -1.551083190229666, 0.3095114948901765, -0.35235443361298247, -1.4539023700665001, -0.5072644451784697], [0.4583213450380277, 1.8780601097890495, -0.8501891283537468, -2.9215725671356774, -0.1226300497689625, 0.9021146344247643, -0.044456771990105504, -2.128687074890943], [-1.4287215551261792, 0.7682549642588156, -2.029476445027222, -4.3176970844840135, 0.5186741229259579, -2.032195692439705, -1.6009254926437073, -2.056587541637563], [0.09320709333797256, 0.03707230787845972, -0.6049075792666306, 0.42306464703403324, -1.0398967595661308, -0.4467936528387548, 0.4253290590229833, -1.0190710502242868], [1.622435674646023, 1.9889642869806743, -0.764553010593134, -1.5194066141664448, 0.3548832279719613, 0.7775932196660879, 0.9738771476761585, 0.07210521266755952], [-2.3603203267518005, 0.14897322544829378, 1.335403196627275, -2.846435699649266, 0.8208790497228452, -2.9742994447634237, -0.4317847172545093, -1.3807117955640402], [-0.6028607635542569, -1.5032470233770971, 0.4496744795376145, -4.132542925802962, 3.0381717950861447, 0.8034645069478459, 0.32939390796110557, 0.3787930271058583], [0.4610159761532002, -0.15191150922539076, 0.9131612983053556, 0.33141243520158686, -1.930574131261822, -1.4492440949687975, 2.4462732004250105, -0.6602959812476248], [-0.11476294216157312, -0.369260993419854, -0.5704421545958683, -1.3934419873209698, 0.07202835938090563, 0.23602186876121922, -1.6623143973556578, -0.6513870827125111], [-0.15781444500810338, -0.9194231756285351, 0.7777551684445794, -2.817165065246988, -0.22904449451453013, -0.2800438283024703, 0.15800938402405487, 0.38303258029553916], [1.6343211073239754, -1.2233416488668678, -0.3096231145047945, -3.9798391082407623, 1.6660570199775668, -0.46653845216330103, -0.9245569209749837, -2.6051350378514075], [-2.895996744763551, -0.48929029217360376, -0.8038677192506467, 0.344229065445721, -0.9891719489929431, -0.9270489918351794, -1.1854758661092142, 1.9370298102577466], [-1.3088678970587373, 1.1669876835885402, -2.4536870550978906, -1.3736889597761668, -1.2104899432960188, 0.2238104663158092, 0.4058438567897552, 0.665457749824776], [-2.4400108891753827, -0.028734907864435055, -1.419147187198148, -2.716788234191276, -1.2660543572181528, 2.58058942126877, -1.3551933267133902, -0.02820485464546513], [-0.01480649105045806, -1.4554564836608794, -1.522073745571689, -3.840388569916603, 2.3844305448755665, -1.60511790678969, 1.7750361391864224, -3.3100551459792564], [-0.2983835492672219, -2.05144149973847, 0.21502651269175013, 0.42374095092204095, -0.8621738918540859, -0.9098793633816901, 0.6025127763507632, -1.4969632235030328], [0.8261800960420447, 1.7849817750851213, -1.8486144058550753, -1.4348474053231988, -0.30926632998753634, -3.09626857974608, -1.5088422085155764, 2.166179559053979], [0.08880585698171364, -2.415687998629168, 1.4018072571192015, -2.6438388887632334, -1.1147426310375517, 0.5943022523368351, -0.11386434859803314, 1.5005990565700835], [-3.09776412152293, -1.971935825323148, -2.647283895583672, -3.7279280981824257, 1.8485410874741235, -0.798849844120135, -0.10837376492954917, -4.424549939133217], [0.16010635175565857, 0.43451405045173586, -1.54493467997191, 0.47419795996388464, -1.84160872718938, 1.3762343485110398, -0.16158599473361293, -0.4917966515147903], [-0.5309206244115836, 0.283933509362397, -1.8093461060481921, -1.4101777150237038, 0.445741613346515, 1.197645606198349, 0.8837136540351698, -1.4868484543648564], [1.2822917037962882, 0.7863287542789615, -2.1491105485782707, -2.5904346460535703, -1.4411241027542947, -2.730370119084561, -1.974531244166933, -0.04605191782478911], [0.879895097840347, -2.07493932944209, -0.3797793293701168, -3.640991190225361, 2.8663668906888256, -1.7687295135087644, -1.9836852355912198, -2.0176959601929547], [2.5679769853200707, -0.9935602785303312, 1.2015901777542506, 0.3751441826345693, -0.2960437913648306, -0.0004101591789271719, 1.4485108443431969, -2.1660700176135186], [0.39215541012709576, -0.7526043506327887, 1.6427933158981838, -1.3876037859795094, -0.5158376763426978, -0.9739881864970539, 0.6696504847202235, -1.1918325192888972], [-2.144613481686568, 1.39053961760925, -2.150205740084323, -2.7024514205597283, 0.43447171446158667, 0.08460038667012953, -1.299659125148018, 1.7889946178304261], [2.217857798938554, -5.141405784372843, -4.19356019296121, -2.1642817741362723, 3.1357233570966123, -2.820946950414414, -3.4308139668160744, -5.540711345302276], [0.46626912384533675, 0.07676622944652989, -0.6761558554420694, 0.47916475639723227, -0.38275079631450054, -0.9412640090495865, 0.10388192402953855, 0.009228936659200925], [-2.3826844534333294, -0.08756558230148803, -2.106407017516185, -1.2557619092739645, -1.0999856204305756, -1.2391376319882574, 0.2608301499436409, -1.9577662257147541], [2.3618773475411516, -1.305466396295997, -0.8873440373378727, -2.506367550854622, 0.7344610486678809, 0.47120391257207017, -2.2079480016293047, -2.8904645293079865], [1.6822310663124056, 0.6045970833272951, -2.279604590154266, -3.4903381103780946, 2.480715027651373, -3.1376435035788477, -3.360909360529467, -2.028025817984773], [-2.9042744927311896, -1.5198751703357953, 0.5209716001466372, 0.3834417080778735, 0.3510750108170739, 1.5767419660481128, -2.0906909104974853, -1.7339399194923826], [0.6614375702825765, -1.0541754401200798, -0.12298425504320182, -1.2460256528006508, -0.5780495673789908, -1.698774032165547, -0.49756771766675545, -1.5670237991668257], [-2.2427944971311597, -0.9774732005712083, -0.06720013505103628, -2.4847577581043825, 0.32339115220179493, -1.6465118406339285, -0.5585937663764532, -0.5202526919011692], [-1.3305794362679286, -1.201512739483194, -0.559414553826115, -10.512801228270302, -9.868160920567089, -3.3519544766714615, -0.8692288110376186, -0.4905255557136121], [-1.6395385971076943, -0.528491773588928, -2.831049783220312, 0.3815477875172605, -0.3761202344167135, -0.3549919247887042, -0.8896116546076747, -2.220144089896023], [-0.834711184470284, -3.1482776552204697, -1.9605573699911587, -1.3430137969642884, 1.1891364673681175, 0.5364204520670454, -1.1710780780531884, -3.0480176817324844], [1.2679576362642877, 0.5834748752338498, -0.9042899151400625, -2.4370749053564476, 0.2996307043669771, -0.36376652970984014, -1.0404874982777852, -1.489722814355471], [-1.9339791029408493, -4.6936002719225565, -6.469248150851826, -4.3854813706086055, 0.2042589312821385, -2.758417433819343, -1.0670522140285432, -9.979725988548866], [-0.8977613195341475, -0.9955190585063076, -1.679983729077223, 0.38186334810300815, -1.4888677433737554, -0.2594393450081921, -1.157823291096622, -0.8374115122287936], [-1.6130521511161509, -0.3701206846114493, -1.5309944587444164, -1.239303620971072, -0.773367544203047, 0.3874748566565035, -0.07414497068142126, -2.3867903339293015], [-0.7497713636122165, -0.7560308741788085, 1.1598872067648964, -2.542237958324636, 1.056782823094208, 1.0732511724287783, -1.5285131483612622, -5.069875377267961], [-0.6304892743133986, -5.477416405186946, -5.07111266120162, -7.801087621492218, 0.981953253929666, -3.640763502704758, -3.1626214988328987, -8.977966415532352], [-0.7891797771660161, -2.612486815818319, -2.2479481570212143, 0.38528499893830526, -0.8035609129874406, -0.962060319696892, 0.561302195237598, -3.2567714938799677], [-1.6172313620295455, -0.6433355657795615, -4.109034011350698, -1.265311930690094, 1.7765799643287963, -1.0569942135906816, 0.30963825129243094, -4.06356481918944], [1.446100115765717, -1.3695720991821045, -1.2998526023739028, -2.5313012088369904, 1.3314590692256734, -0.30332159585833074, -3.5984707650649272, -1.4713145164828445], [-3.6796096009317805, -10.0262844732265, -18.02244571503739, -12.058650468138872, 2.8130627566593445, -12.332851224306372, -6.825441742345033, -24.051249424683107], [-2.7127613454733273, -3.676166100776622, -6.914509409251182, 0.3749067527949014, 1.3565245395446548, -1.93212952737233, -0.7414018905736546, -6.387293206825023], [0.3417176827137335, 1.9848094873971562, -2.5101350836650584, -1.3617764682143996, -1.5600933268713226, 0.07357010511993689, 0.5881641667316881, -0.36220024985703647], [-0.2172511751365579, -1.2666169779209717, -1.3562174398880456, -2.5357516146598194, 1.4178909305639156, -0.9729785165929197, -0.3754968902755548, -0.9193720768904992], [-0.5107986629666121, -5.751023846964569, -10.165511648177402, -5.7867599995751355, -1.4250725208511479, -3.8700867457243633, -4.832855162621525, -12.596130226809606], [-2.6222556458320834, -9.610466709036285, -12.16071051387545, -6.548284647208306, 1.9579047184557832, -3.9875850863085898, -0.7764874971645412, -14.869704103340467], [-2.6274054924206065, -6.332316406772675, -6.380598166737762, -1.3968207971465472, 3.8823970638319065, -4.137987910235826, -0.31019281259528, -11.522367435793594], [-0.446772496142088, -6.612943913900586, -5.7218600210144785, -2.5628207287869267, 2.150348516602828, -2.565120236929543, -2.9784581667053898, -5.143594749609046], [-2.7327743339939023, -11.629498899043677, -16.149611092432867, -10.813294002696642, -0.7118806909396157, -7.46287111906073, -10.14494917295533, -20.53813853278675], [-0.696460864641941, -5.443329341882919, -4.3351232711605485, 0.36664035750575424, 1.547299027112511, 2.4442271312315347, -3.9482773301686893, -2.8091098174731792], [-7.505076858983959, -12.787945824387412, -14.683117782593778, -7.089542678719618, -0.34758979709951154, -3.608343409988869, -5.307009571438101, -18.13292215819131], [-4.693039450945456, -4.3678004092428235, -2.4923689897607266, -5.880322074482261, -1.252138541044283, -1.0680709607293901, -3.9108758743155727, -5.775655699037695], [-19.99794662855076, -39.49436349409794, -56.888870218015505, -34.55436489947649, -1.4196121278833453, -26.06137128707028, -20.330623212162966, -75.31014047600571], [-5.955424181011619, -14.080726076456934, -14.29041188616607, -11.147387953002065, 2.2245938238722824, -5.026244240013766, -3.0053853876469994, -21.00600319705659], [-3.4424158030932333, -5.5443325608572325, -5.44166070123965, -5.832134032106606, 2.334358695948915, -3.2223976382484785, -2.8844788159524644, -8.029321998868047], [-9.078263314978363, -29.951196186088236, -27.12641785755359, -24.931041291073356, -1.2239842476785128, -16.114810517628165, -3.861620281803627, -40.61500355616032], [-32.828622080990485, -32.736592753422016, -48.55615806042823, -53.650883070566934, -4.013927202857506, -40.89852944702821, -15.962028679338463, -78.25289437088888], [-38.04635671609119, -70.37031693317368, -81.95029548446742, -56.27241918408974, -1.4304275762422594, -36.30242235943982, -26.587148971741033, -103.23742148335175], [-13.76436895995029, -20.075816871458787, -24.714639401725268, -12.06871631048772, -1.8002000920925765, -10.25484237147275, -7.455481335312225, -31.957981824645668], [-2.398799594026809, -9.010060468723605, -7.4111568780853565, -9.193826972875394, -5.297908588334316, -10.745500619728919, -2.705174363160829, -11.986325342859784], [-94.40897550222053, -116.0088732117888, -154.01589494859437, -135.814883506089, -2.2790907620866316, -107.70662242045022, -59.440533408119855, -243.55669892832282], [-66.37114864174703, -90.45381030672384, -100.81362369147327, -85.1820081169627, -5.0621070614588195, -60.978519677833354, -30.713192899118468, -133.81429477709747], [-76.40709903383525, -97.46173332137887, -112.16763473290064, -56.87108548211276, -13.802177374196347, -56.93330121166402, -32.625875324831945, -133.91553823662076], [-37.06642907116668, -153.22762939947756, -137.98840570052758, -114.06814019167365, -18.89972905396975, -71.56876383784666, -27.594966386636994, -185.1106663395089]]
