[[-4.282012682047626, 0.752969519197924, -4.791939487738339, 2.010673068311106, -2.420874878576849, -2.269195161280515, 0.29629413245987574, -2.4957775306599497, -1.9503500821859938, -1.757060889871209, -1.718888838596079, -0.20826772659372852, -2.1669672418054438, -3.698120922088353, 0.30378994496208894, -1.2815322735208128, -5.3733032743248055, -1.0845650271418896, -3.6073974554478783, -3.0927789660658793], [-0.6724505934515229, -0.8126938487088357, -1.6035071450473253, -0.5769088743886486, -0.45454025819181726, 0.7107297535478568, 1.721273222308372, -0.40528214662474416, -0.1568124643696568, 1.1906448498034605, 0.6612186664958373, -0.2568757885514323, -0.11133434171844704, -2.421773958841508, -0.9537984502138399, -0.2695537796790944, -1.6308340224278417, -0.25328328821903684, -0.6259797426334637, -2.039005310887757], [3.716226086551208, 0.6694293872034944, 0.8845474641618647, 1.6056569390186175, 1.9277413132640868, 0.7467965192377399, -0.303993860981608, 2.438461193100958, -0.2478174252713258, 1.4062361006829396, 1.613625704141637, -0.17330527764444628, 0.7247905289950776, 0.05830942138893323, 0.08540653656294186, 1.357618537624167, 2.2904292905742176, 0.1995722394706535, 0.49576795899949255, 1.9723583165685976], [-1.8945877527075965, -1.6720955429229982, -1.9675937147726443, -0.36734554547110965, -2.433476826208179, -2.1303979443762358, 0.668402995337489, -0.36716651483966545, -0.4413734025471995, -1.4018498825748846, -1.714829491691424, -1.295721668286135, 0.4141837362931351, -0.29559619433501805, -0.9106185564455653, -1.363880024384067, -2.361237841465166, -1.5535662678786009, -2.4625186603789113, -1.3044508464189501], [2.3106090075431727, 0.8034580894015696, 1.5145205044215129, 2.9266808689496955, 1.792171355477837, -0.34414222105462705, 0.5364994144897097, 0.3131153052879451, 1.9869110961329193, 0.06494125225111527, 2.011206829597153, 1.231509634991924, -0.6998301159457956, -0.911009765697017, -0.07978206615437851, 0.9146583411788501, 1.8597704718246693, 2.682292468103653, 2.3781547232395956, -0.14499970721292874], [0.2940307949335184, -0.5423236342392339, -2.301054093985484, -0.15053849468010738, 0.3333551785761287, -0.2226237786338472, 1.147353005414829, 0.39488304012019415, -0.29009100406581906, 0.22892189020365727, -1.0294273069662205, -0.23260769162483652, -0.8719628724786931, -0.1429769321903676, -0.4294246197055401, 0.3937856316787911, -1.5654952565606335, 1.0436303810704513, -0.8411787711822556, -2.4278972919122546], [-0.12143891260684016, -1.2814207740639711, 1.285988240323143, 0.689208267176412, 0.2773815619936916, -1.3342886093320736, 2.537435113305555, -0.07320871417639233, -0.6538130390769439, -0.4888457906416022, -0.17448267574198636, -0.1734325706282085, 1.2074484629866997, 0.3552750582657961, 1.3655170737069804, 0.7331920400695593, 1.1077964499636541, 1.6333840868578107, 2.014895548686127, 1.2350456227020625], [-0.8981026936351694, -0.9799466173823896, 0.542974478398749, -0.9293723611798423, -0.2744006579898705, -3.816842471145567, -2.9903978343613398, -1.3650149427094473, 0.785432303727165, -0.7220485929191172, -1.0027719081426376, -0.3578490692350935, -2.6515165708449495, -0.328323633544628, 0.6459640210913452, -2.244939944803006, -1.1440749283601304, 0.7613638197027858, -2.1350403249542755, 1.8766131109300737], [2.157015794283984, -0.588938393138552, 2.0694990247601357, -0.9692590584867958, 0.5860081975626256, 0.3853474396241832, 0.07171065686666848, 0.797744375029781, 1.429018368492372, -1.9222612726278148, 0.701748534227703, -0.7111848270150578, 0.7206705086506203, -0.15079423205993495, 1.2722916430921032, -0.889122099523586, 1.5224429161752882, 2.134325515503207, -1.2993383296730605, -0.38048601987347863], [1.1867915277364736, -1.9363028265921183, 1.3119499397340664, -0.33627253335276813, -0.8926342489288679, 0.9784194844480223, 0.9208000162074126, 0.3027010756359977, 0.7664086990642938, -0.870563659104349, 0.04006130060602655, -0.5732472805099947, 0.7885311137352784, 1.41112428138928, 1.7779182254794001, -1.3938891016891568, 1.8418731494378748, 0.43231042279294923, 2.451247829894053, -1.366496190212506]]
[[0.5879738608269235, 0.32880960270103676, 0.21997356483163225, 0.9497514208400947, -1.0890675401178906, -1.0566169891694794, 0.18968123944909662, 0.07450773153434467, -0.797410941392442, -1.1661135004078866], [-0.7544352669028279, 2.120460326529165, -0.4082295333034381, -0.7078999229475728, 0.7535823907102829, -0.12655273037079826, -1.1237184635077149, -0.2477860858790134, -0.37184238854379836, -0.11382223041277847], [-0.778140129441952, -0.5551125253134643, 0.19922980875377808, -0.4364684226699718, -1.2514766365295429, -0.1621832718103116, -0.1114817588661931, -0.12270239366123209, -0.16940536463212671, -1.1495997443806427], [0.12771536319742188, 0.19075000370159786, -0.9933526889069318, 0.6473802307758234, 1.2978129623455283, -0.31170740315328266, -1.3569442983575632, 0.8108919367531889, 0.979025718301697, -0.8009415647988902], [-0.4977347008696916, -1.360504188486199, 0.7825860148582685, 3.4856515221782773, -0.7552786698962588, -1.4594976876479726, -1.3064833809116094, -0.6227031351220217, 1.5747479244762252, -2.0815645490359636], [1.5654171870343034, -0.23705612011745839, -0.4418850383532114, -0.3585426764469272, 1.2475086164466962, -1.488333704691345, -0.20716859724909154, 1.122730650491053, -1.3998968130598646, -0.13967915800413344], [0.6858598293054671, -1.1173043554507287, -2.651678204939701, 0.4679398078453082, 0.2544048971483223, 0.22741474099182224, 1.1591253780882316, 1.414760931518252, -0.8997643673739797, -0.04605283632073132], [0.01922896423858317, 0.05041012570083828, -0.49826347730316217, -0.8705939554447094, 0.4012130767801319, -0.1615351177133674, -0.14262929880792757, -0.7909916571792182, -0.8705136409092414, -0.9826347603159329], [0.31591099381778914, 0.7768399831226723, 0.7595091666115972, -0.1087633381812414, -1.3543363209683594, 1.3366565112907387, -0.2554888435471735, -0.7181507548169914, -0.0221873739936411, -0.7345011485182984], [1.6080556378774287, -0.874726419548492, -0.27508035587538116, -1.9922740052918657, 0.05886241357766388, 0.44154582613675486, -0.6477752023575553, 0.17845829611939676, -0.32436916366762447, -0.7989377025376092], [-0.563459424867254, -0.47511207111464976, 0.493303760824589, -0.012281999894501617, -0.3022270944238619, -0.35638582077479286, -0.31978998075678267, -0.39732382654521714, 0.362879498987705, -1.1551614461113786], [0.7340657171680172, 1.1196387406522283, -1.4829468810849462, -0.40825899375507524, 1.2269505625281374, -2.0914266296569135, -1.4614300155609097, -1.5687733791460141, -0.047749178947439186, -0.7192957450477008], [-0.28981551737915656, -0.318814418650506, -0.31110745594153677, 0.18082323128989608, 0.6000390824593601, 0.5342303220102367, -0.13655642209227273, 1.3520081145522904, -1.1336156712713843, -0.14781429335337617], [0.8080333827341136, -1.7875632477247092, 0.8002997801255909, -0.7847059316504438, -0.19128286014200901, 1.4871702065613015, -0.5548445374061578, -1.370300610756459, -0.9482558436321493, 0.39435844164061934], [0.13722895156923998, -0.07626053040625715, -0.07804329498744855, 0.21444041853049728, 0.4484742439796419, -0.9262489983137073, -1.8797306089083528, 0.2533051362975029, 0.5811704277395383, -0.3051395896941109], [0.01539615083141277, 0.34213322898607645, -1.5050894995758446, 0.39487255733419097, 0.5022544338650052, 0.37128146582962884, -0.2555764967628162, -0.735567106475179, -2.049195565132668, 0.15994227597570343], [0.2778648385319221, -0.27724052237510627, -0.34556787701570973, 1.7705727254626513, 0.09308112548649673, -1.1380827004859049, -1.1068557875941452, 1.8188495559471052, -0.1295224890266014, -0.42784476660309606], [0.38754708420106226, 0.0899689975701934, 0.4227508884172101, -0.2493188629122152, 0.6952391142802978, 0.009269412684105499, 1.7111511256143752, -1.2533229119482514, -1.1159600949927702, 0.1635378127370454], [0.49881561420048254, -1.2392017153880568, -0.8453065743766147, 1.5133023414785896, 0.11124789657010005, 1.8976717749492138, -0.6613447998569647, -1.7097198403646265, -0.6136366467782125, 0.01073186503413463], [0.1364590441397394, -0.9676975112637577, 0.7368220483666617, 0.7028759506327271, 0.906898486770471, 1.468023033063346, -0.9585820163543903, -0.1982436925542455, -3.0554286680194904, 1.46974158004057], [0.9204760861004524, -0.5260175467155526, -0.4142118431903863, 0.6158730833514219, 0.6123731342533532, -0.5249567492617614, -0.5846642006413366, 1.6147088304958248, -0.13623051621130516, -0.5344464143164298], [-0.18549132532732823, 1.3564363970870614, -1.9929147810561778, 0.34859626878811584, 0.9466464526811896, 1.6501037755752828, -0.45184978036753864, -0.0516113629741003, -1.0554560654610161, 0.11170560464846584], [0.4832421821907807, 1.1136358337691135, -0.07264802931965979, 1.5137531390100492, 0.1444360853654825, 1.1974494248691703, -0.38603615987113615, -1.5943655460513755, -1.128259180864737, 0.4506653761865836], [-0.26444287345387013, 0.37879706629912174, -1.1039330588052017, 0.6073272668340477, -0.954735370286292, -1.0624162890293518, -0.24494056114581506, -0.2717948746148582, 0.8398787023843705, 0.5005393551901034], [-0.12647233513082912, -0.7377553885501891, -0.6084486356192286, 0.9593148228432541, 0.22944681148672344, 1.6334984134310297, -0.898313677753797, -0.020335181027020727, 1.7387102885304488, -2.448523545584719], [-0.8251504229414012, 1.4304743680435843, -1.3995535294346926, 0.058617678648201714, -0.48440117141877886, 0.5036697855753808, 1.1811635082564327, -0.4614735633363516, 0.17379732882573506, -0.5617331650704263], [-0.13718208642488078, 0.7789495033730746, -2.816904967615114, -0.15949528157616621, 1.4358653471029277, -1.01744953183779, 1.0263100980494635, -0.6274746575191128, 4.895381405178603e-05, -0.6677415536974213], [0.5789660291058765, 0.24596166663699837, -0.7942906451511432, 0.234781332912571, -0.7248535993158741, 1.576364423497365, -0.048745736262128324, 1.7332565307978358, -2.081894108659082, 0.4939454981328873], [0.31262707012223745, -0.9563993717515832, -0.5118988623126708, 0.816957649453417, 1.5441836633129322, 1.1169355226736442, -0.7305552225093765, -0.20635985444301358, 1.1961629265112332, -1.086275642355123], [-0.5735374822173404, -0.7632640258675827, 0.943952917257574, 0.11864774794099016, -0.9393277706728579, -1.306255697645015, -1.2900580588853707, 0.17094204430197246, 0.0611407442895662, 1.4641358945585294], [-0.17086433198651255, 0.7939888312637263, -1.2032152591062786, 1.6868126107443246, 0.43868285207976887, -0.050631776883731196, 0.5897827532203168, -0.8970673737152666, -0.06464743306939906, -1.1986832502294613], [0.6948358340989722, -0.28684948487305445, 0.8968417459044135, -1.445704881322976, 0.5516615107209581, 1.3079818125324292, -1.2609185641720566, -0.8481359294899675, -0.26649219832540744, -0.9629778042025778], [-0.27500040248248114, 1.378863557967623, 1.7237890197876555, -0.48203773918627646, 0.8804050949947434, 2.059133992021552, -1.827492543414222, 1.4243922327342684, 0.23841054941092873, -1.2977377503422802], [2.058640492758017, 0.03349833660150207, 0.15977684428718827, -0.7403577136464751, 0.03635976754398486, 0.10291419596086594, 0.21947405396864483, -2.0741879058527806, -1.3185574737613515, -0.05671651006951552], [0.8326372323723896, -0.22282381783001892, -1.0319551992236848, 1.6124814565789272, -0.8029410657556678, 0.08099851540197871, -1.4406114567418047, 0.9070761666791342, 1.31765579569711, -1.5094017953166798], [-0.6237113150382428, 1.3003249712156293, -1.0610258177455685, 1.47744322096403, 1.093982961604088, 1.4583617825752864, -0.39612046972641224, -0.12476349022070392, 0.914783448531961, 0.8178642744842252], [0.22896039815749214, 0.25445515880914366, -0.5886634794732117, 0.6758662997028597, -0.8181754523132727, 0.250216267494894, 0.24064528117882814, -0.06471127276576782, -1.8979963600982614, 0.19843753117161173], [0.4194853603177855, 0.6504138302344645, -0.752185276504424, -0.6098533020462347, -1.5354311986686024, 3.5199820344633994, 0.042125913816602446, -0.6994176823894716, -0.9907498802150737, -0.28081148312751014], [-1.0308618716002704, -0.39377309747090644, 0.9530541935927893, 0.7422518892430243, 0.390048097835184, 1.3973510244515426, -0.5468432334035837, 0.46938000465040014, -0.9411722174219432, -0.1190445017655253], [1.512375963865479, 1.0664626930165342, -1.685419443127763, 0.476727028549741, 0.9037261345698336, -0.5896503770838943, -2.000479135399934, -0.9677355782762387, -1.5893856168175038, 1.2459824357575642], [0.42267478623031673, 0.4244103702027461, 0.00494082713651118, 0.4551330320649819, -0.8689750161417723, -1.3712935051307078, -0.22979749476548575, -1.6485306840752785, -2.0436040240554583, 0.415397285545647], [-0.19059447614915043, -0.6395234789322585, 0.4574878528503572, 0.49331884951244975, 0.5886776393861549, 0.1278350466283904, -0.5238740194770669, 0.527926908517436, -1.1551399710767085, -1.0156969743915638], [0.569877869425245, -0.09811428705233095, 1.7064438966351383, 0.660377387090909, -2.3109739220159637, 0.47677492366626933, 0.886676898680892, -0.4087398091571089, -1.81886367542887, -1.0207712044579638], [0.9929966314615719, 1.811572262616838, 1.3681511510346926, 1.1741921606928807, -0.33492379037328274, -0.08568702735243697, -0.3044891798907932, -0.12544709001111906, 0.19340617272348265, -1.8993352250961348], [1.6900823150123334, 0.22416695358447322, 1.158867935387164, -0.18576290984691896, 1.4846892200081212, -0.6723720989829534, -1.5314943033494661, -0.13234693166770753, -1.1202543910540206, -1.6379192379304426], [0.7225821519230355, 0.17542888083141223, 2.098947214911018, -1.8453746707887508, -2.6497216788193976, -0.2203383362722118, -2.014827751106244, 0.47294369034153355, 1.0773543894710527, -1.0189995630793711], [-2.8904092957030496, -0.12431420422764165, -0.06971139582864037, 0.7590724114832871, 0.04684703957347903, 0.2592159354997985, 0.3184848734146219, 0.3611766495018775, -1.1503456023557126, -1.0704119157940477], [4.589270626537089, 0.46720118592219495, 0.6653351348299997, 1.4246729597024752, -0.6786071640292799, -0.48258344708985346, 0.25471131917602124, -0.09805926918195651, 0.8331028923999424, -1.299353612945999], [1.0681285379211538, 0.3456985736063746, -0.9849186493561397, -0.23597177991145482, 0.1895819656349818, 0.6844579150724711, -0.502931954271478, -0.7824968824979355, -1.0309126866426583, -0.9844453915453082], [-1.743522384016857, 0.22390901156731952, 0.4939644839890485, -1.8297053917420523, -0.0313753407207433, -0.020882600711703145, 1.3910029469042755, 0.5341201248105852, -0.9501764221476529, -2.9590248601057203], [0.25437703897242037, 0.6458336797039708, 1.4729096259971675, 1.792901535689272, -0.13330292816202371, 1.3097764339899673, 0.5784180686645943, 1.7947383192229625, -0.67428132468047, -1.645704886834105], [-0.08607706848762828, 2.075274462524149, -0.36834820252879114, -0.693587533633092, -0.408949212814244, -0.05212523222519184, -1.9913347891200281, 2.2877661504718008, -1.9713565744997996, -4.772928728966626], [1.734458474965518, -2.547974056891206, 0.8713936181954126, -0.28504523832119644, -1.252424500341208, 0.749048135588973, 0.19760168547348697, 0.1760977163937331, 0.28139847509477894, -2.286166906762243], [-0.8832598515089451, 0.11972163230088215, -0.40980017351663217, -0.8956801900897922, -0.8088226011253812, 2.2845089343551317, -1.016536157716509, -0.2752080917161808, 0.39293034758648154, -2.4686393681444456], [1.0036777719286696, -0.5194692570640964, -0.47039192171401545, -1.5940467551036854, -1.7204551462068949, -0.8002215145174498, -1.9564263684676244, -0.2526825985904196, -1.608366607694451, 1.36290481494165], [0.10569002253761876, 0.5432464292658656, -0.8530352598314297, 1.4847924990327266, -0.06238937030330318, 2.2920927502150468, -1.1832432014457879, 1.0504069392898505, -1.0425189019390637, -0.07728421391674885], [-0.8524182160357938, -0.10609021563281473, -0.19444929366753377, 2.5085940648868785, 0.5271226451133331, 2.1273645149873954, -0.6658718398903491, 0.303926956416798, 0.2577729012700511, 0.050522950125503514], [-0.8002276196094615, -2.0750299817311726, -2.036368661066665, -1.73410011358397, 2.5470777477589395, -0.8001363841695098, -2.8961366091339302, -1.1777445063416885, 0.44882629696855514, -0.9840029766921936], [3.1988461521270373, -1.0372630754088703, 0.21707702538628865, 1.05263993182962, -1.4968260164750158, 1.5165432272160835, 1.8175277137665264, -0.12997289080903268, -0.2052294417967775, -1.1818550242070818], [0.09365148391781916, 0.352477426911446, -0.5866386161496802, 0.10851866648764184, -0.3084966825366199, -2.0693976683648874, -0.3071460131652432, -1.498831648372301, -1.6119315409687847, 0.8344998990803983], [0.686661508138095, -0.4098481214593068, -0.43665381887769794, 0.5710734647245749, 0.05905341422359999, -1.4857451195439595, -0.7761184395445379, -1.3661211199353345, -1.2713996855137613, -1.04549472513215], [-1.7594561627610164, 0.15282102034598563, 0.20918350740532862, 0.500678752573703, -0.3582715576801109, -0.7031472797159697, -0.4044352316369146, 2.877492859609317, -1.555224555744542, -0.5702154300577003], [1.4710016386319356, 0.027171802283344725, 0.38782855987366943, 0.3066287649810949, 0.11463671793022719, -0.5401128682401397, -1.6586689958158145, 2.270350242211344, 0.1344125348012908, -0.13587131092638646], [1.029283210048438, -0.6135383719946236, -1.7053656265549382, 0.24233312683423286, 0.37200391843765207, 0.16288669153377971, 0.6760738064887233, 0.40070864925917754, -1.6739014191755353, -1.0822165248241815], [-0.9807146204428534, -0.27393357768907783, 1.1877177481221868, -1.033471836876536, -2.214178099381457, -0.5253781708699541, 0.38634198938865977, -0.149486103923835, -1.9018788319989806, -0.7422124866760902], [-0.2791162028405163, -0.05370147189774098, -0.5266961001557046, 0.1786115559118386, 0.178345034003577, 1.0302083018236365, 0.4273144052534743, -0.18762655709805467, -0.8298479947637212, -1.1690910118081375], [-0.011996401262738179, 0.871934447591468, -0.5106070695895811, 1.9877251870898605, -0.5338028628983774, -1.6980285482094444, 0.929021871468454, -0.5460536283773169, -0.6879612003764015, -2.0928359236693024], [0.42743970428144934, -0.7169902334577314, -1.6184373427924328, -1.1143233661950858, 1.304204892504293, 0.12731963564579843, -0.9902615474838761, 0.6011023434816368, -0.45513048696755615, -0.6962276687726385], [-3.1135077828119715, -1.2850401433964684, -0.4755768195004801, -0.14047172801495247, -2.3394991443826703, 0.19432876481943256, -0.890083113479268, 1.2745577319810912, 0.05197853234031023, -0.3531571521542111], [2.2853613508838193, -0.8259711086787476, -0.06757169532734707, 1.506931238981576, 0.21668913201795478, -1.1757705184085347, -0.7815750165776865, -0.20590701270188003, -1.3256484459349829, -0.6068766560431222], [-0.0685263619261731, -0.18903669075732732, -0.9398437954536834, 1.3610688151691708, -1.0954168957292305, 0.7668606807023818, -0.8761137362738913, 0.2886199088136114, -0.2434667535870132, 0.7766086733751701], [0.19123018034869635, 0.12293184637256854, 1.6039856201166913, -0.1454135904776086, -0.08726425471653992, 1.1915230719287526, -0.009956363199196488, -0.7863870925354869, -0.5160829322992012, -1.6735790821291836], [-0.4363171363510538, -0.25081430396232696, 0.12545891307977142, 0.1343166238826388, -0.23463020472921767, -0.7245612049862493, 0.12286925129960585, -0.7851567899322162, -0.7044117834386621, -1.9479998301696548], [-0.821333859021835, 0.3445042401946449, 0.39482254766593267, -0.8689209008604939, 0.28270873480439335, 0.5411724043533612, -0.20261448520817768, 0.8022177727319405, -1.0567787348958193, -1.3954801617302226], [0.3014307199848099, 0.21443661000287068, -0.5256328016784261, 0.7583631449086756, -0.9019436864079674, -1.258276438805758, -0.6184632113697468, 1.8304993345001916, -1.0218791321216425, -0.15360917257038628], [0.8998166143991911, -0.1531570100272819, -0.09433009847905473, 0.35311960090305805, -0.7408108591814621, -1.1606979276698595, -1.545865642349562, 0.9740770410177041, -2.3012970149204817, 0.3240770261907631], [-0.8593855505821276, 0.7560777567760627, 0.947749890545787, -0.9299012235658689, -0.368403309327769, -2.3138872828181656, -2.0154629289740904, 0.9103782164476337, -1.615395283411284, 0.14747767528752206], [0.4507782665830643, 1.7573774339619819, 1.2860993378144272, -0.9045034968464329, -0.9679888436342473, 1.1129796328245718, -0.42429808126583707, -0.4485513745919781, 0.7688052379748684, -3.1009458102660004], [-0.7528448925507626, -1.660572326238536, 0.052290298219010684, 0.2520336197798111, -0.23433454473540444, 0.3757969494692605, -0.6858817931172893, -1.1134980156339374, -0.2662870496149885, -2.1563452515111807], [-1.1957466888097539, -0.645790672162113, -0.0318553802331628, -0.2571647378873849, -1.2092362824738792, -0.25101233141024365, -0.40741693710874555, -0.7259495545509946, -0.35088614144814056, -0.07808246057388309], [-0.29473172670217196, -0.5604960606193141, -0.028189175897533607, 0.4346082288684276, -1.4221172088349068, 0.7264937737191138, -0.31400521856204067, -0.4144382189031902, 0.1035816053560824, -1.279464196311809], [-1.0026401439747556, 1.702236440668829, -0.8051835327935878, -1.8140493856856672, -0.8708445938912192, -0.939322474987104, -0.5108585991319913, -0.6357305969864959, -1.7870324187640279, -0.9684032221193579], [0.1548403995404564, -0.4535901490762609, -2.45058514170453, -1.9747682756318132, 0.17720964491322172, -1.5201158770637295, -1.5437651113507942, 0.2695367545462021, 0.5991574749499915, 0.06302603958224982], [0.0188596165998037, 0.31217215723027264, -0.8710805741006483, -1.2930603002433216, 1.2113207589230781, -0.4550861676507109, -1.3055942929338449, -0.3355807766479751, -0.3684114318526382, -1.0642211772124242], [0.12390097187321358, -0.27857582250708335, -0.3128426745159678, -1.1501801178599909, -0.11487535073152245, -0.1290517065065807, -1.311793319020414, -1.0676378395243515, 0.2199662889895587, -0.9695077045700682], [-0.7571400947080328, 0.397295280681865, -1.101476491927057, -1.4119352181950187, 0.6368440783030915, -0.4066183028457346, -1.154670623203122, 0.29595430090755404, -0.02194106735193546, -1.5538690495619643], [0.6783118027099869, 0.749016635971797, 0.8103381272630865, -2.0960601410382806, -1.3148653988394237, 0.6948567685384822, -0.18604637309431538, -0.4378803926737332, -1.3992823605072957, -1.1999956387566164], [-1.0040734240850915, 0.2463986505916516, 0.5833950471314261, 0.03869329731885094, -0.3704735174979768, 0.006267991415334315, 0.22655657880821742, -2.0792794388122933, -1.554673519308465, -1.022740985147451], [-0.4419310880138479, 0.19249267837107378, -0.6537179468485291, -0.44853457241705535, 0.08108301032700921, 0.357194722010842, -0.8123951283313519, 0.5132926742899274, -1.5008255735327052, -1.0121446305029902], [-1.3145471157884727, -1.9542670193256453, 0.4985511974856917, 0.5945760629180373, -1.033600113506623, 1.4271014057925069, -1.3169958393240753, -1.7101527571786794, -0.9172456802442258, -1.053629476403019], [0.7845545393558708, 0.37991495202921904, -1.3386577294574515, 0.2899188995981946, 0.6999875081357583, 0.3871637319252736, -1.1900966571882012, -2.111792425686424, -0.4270645544599823, -1.2387250362547624], [0.047872569148943715, -0.2126170015436727, -0.011416464554825005, 0.882639056196485, -0.906299114672185, 1.1552868604008484, 0.39219459250142974, -0.5958523234884848, -2.401168101725524, -0.7450849082460559], [-1.051912584200127, -0.010502428589736454, -0.7142491226349591, -0.5973868760094048, -1.0534142965720739, 0.2832611261969352, 0.18097795442018488, 0.09141738864422197, -0.8356069807786177, -1.6111868948361665], [-2.7665854450966405, -2.744493236803453, -6.013188900138767, -3.313340642314487, -4.70719625770803, -0.6039124283251311, -5.463836593408268, -2.6277259059538305, -3.983214752276412, -1.5320529288044809], [-0.8774690675015262, 0.5469762118179808, -1.7951107629726069, -0.5176219411742005, 0.5383126967054057, 0.1511491604713054, -1.240994652099801, -0.5491258157184797, -1.1860315940483663, -1.188075660274396], [-0.15969022519863066, 0.45053524493037855, 0.40240056530661283, -1.274620443915123, -0.08340627759535324, 2.6504922473970356, -1.8194394673872067, 0.06247656318634948, -0.04434376394013145, -1.5196662349233876], [-0.41010260393894965, 0.19908915434787758, -0.5743052526134322, -1.9499536865873843, -0.046309076623032526, 0.03139872999490262, -0.7542302451813634, -0.8798961175487647, -1.6338889216639554, -2.001905364194629], [-0.9459270748036082, -1.181285912210299, 0.5508101683456357, -0.4387293637095864, -2.2279527169392255, -0.4555749956068999, -2.7125732242966776, -1.813367883765977, -0.9356484046494097, 1.037517414097629], [0.2438176633090295, -1.2042025653575936, 0.18021318782143012, 0.40447993107494734, -1.009465146339666, -0.9373355314374725, -1.1047213755657017, 0.23001514187777908, 1.189782638471142, -0.8875030055214974], [-1.5966408636911216, -1.2327397953376305, -3.6662685683221548, -2.130619247997711, -5.510838049969361, -1.361522435700123, -2.1623169772767743, -3.984497999212847, -1.868739089666192, -2.3064569272701005], [0.5535479884688504, -3.337301545224508, -0.8120436709579602, -3.4899693788795676, -3.757106993291653, 1.8809497294893593, -2.484942174500769, -3.0163990627086403, -2.3288873845564892, -0.14801792077940507], [-1.7366960235199458, -1.2644028103691256, -0.6126366177405584, -0.7912176628327081, -1.4987421196285826, -2.206341654104506, -0.7814401922167978, 0.18316941400293177, 0.11146389048272067, -0.40249050640741035]]
