[[1.6813201774626945, 0.9647445012963916, 1.6450023465814283, 0.525412766152422, 0.7176774587430145, 1.5141244830807834, -0.17810512910994647, 0.5963687891451867, 2.2962364419121317, 2.3354702859778507, 1.4363424116022676, -0.2093796418805363, 0.7439129079790424, -0.08389526114620176, 2.3940129681552467, 1.595656183782096, 1.223930410483497, 0.1813930891817206, 2.167626318039853, 0.7198634230416013], [1.5137661332964047, -0.013874124976866506, 0.8352743702703349, 0.027949354734355794, -0.6558221285843401, 0.4102154423654182, -0.052892773918805244, 0.4472062005091695, 0.8363247840504335, -0.6703877060988105, 0.47744593643574557, -0.26399421400835393, 0.2809996471332686, 0.8994986536265644, 0.6823832109690479, -0.3290546785517106, -0.46484587245280856, -0.08934091102664822, 0.1513762267424884, 0.00939658227176235], [1.7003204906238116, -0.1202343448690275, 1.175409667226813, 0.06868381506320707, 0.6914321254534519, 0.45655361234388286, 1.5679114474908276, 1.0262049462944454, 0.862902318722207, 2.0500392102371916, 0.03846441436795076, 0.6260195154537543, 1.8038212488266596, 1.4033342781626796, 0.599444560517764, 1.300177175125227, 1.2364546938019652, -0.21589129232134496, 0.3005202767713511, 0.3668638162969469], [0.6687348234022449, -0.1945835099887361, 0.8980463111016904, 0.20240570712579165, 1.110658617317736, 0.3506894146937761, 0.12348941368770376, -0.5577553946617044, 1.8696919498573172, 1.0462328857877006, 1.674656374270994, 0.8087313365824891, 0.7103323697141909, 0.05966767028971863, 1.4648276760705994, -2.0608224522182716, 0.006649474425926491, -0.9423978729364533, 1.3605782990249544, 0.36030859563178913], [2.4185400009713565, 0.1363339303251397, 1.4512850358038574, -0.03482959326012928, -0.9050766835076717, 0.1599636177755, -0.30015240886715083, 0.7398013549218057, 2.3906763317002877, -0.18646313327783098, 0.12506157905473647, -0.8303480347244059, -0.5117912782641494, 0.19950368960111117, 1.0413005742786134, -1.2954342249064676, -0.21300969161848154, -1.1856477185379106, 1.0869064219291646, 0.45967067363840863], [-3.2550413728632512, 0.08207132236947184, -0.6516147152115513, -0.2579805507330715, -1.2569534232829314, -1.908548137604963, -0.3087118732419691, -0.025547195306445, -1.444986275685334, 0.804435012123991, -0.4122517600968949, -0.4652708066081712, 1.039787697152535, 2.021524332010955, -0.3303433673284576, 0.8078384440415681, -0.8084420571993294, -0.4553284182491294, -0.4842921919376559, -0.01360634369604192], [-1.2708802446058394, -2.122642032133215, -1.2788269277761641, -0.4772580929596095, -0.3341518646540257, -2.001033026329534, -0.1449351009175275, -0.46916030912718665, -1.1587857678124016, -0.8154769585223383, -0.16504974596479136, 1.0853303566499946, -0.42901752487368644, -1.2834101568811531, -0.538189463690369, 0.24296185728485883, -2.2010988435063488, -1.1799462348573488, -1.8528483446924342, -2.1297848835865567], [-1.1905900601227433, -0.005670160918888548, 0.13672097222790122, -0.022609516303612954, 1.1802134052994802, -1.3847340752224266, 0.2482905620734378, -0.937007374721239, 0.4391167009258733, 1.3751847425941126, 0.14057916238508095, 0.23204058200135894, -0.5151847642868856, 0.8152992614358153, -1.1186692060801735, 0.5362396034375659, -1.6413233744321336, -1.8961794876868692, 0.03163141387631079, -0.0984320691598791], [2.3262007975756367, -0.13703487709523518, 1.7427259369830574, 0.584468194086417, 0.8819705143621559, 0.43134975360417827, 0.3952721347547753, 0.5118580335186605, 2.455776496597717, -0.4360866261383708, 2.521093222137195, -0.7776080163258198, 2.2913853909808997, -0.32643162045002216, 1.0744706212403201, 0.9621652197887565, 1.339041646850158, -0.8011169378844064, 0.7002683411879471, 0.6209709690656623], [-1.495600854062273, -1.91814749342228, -3.664690028749884, -0.9424175306518886, -1.5699136612725586, -1.4132232016534325, -2.5830243543825353, -0.6765822957583377, -2.0264578857188518, -2.374746233274038, -0.833995785893003, -1.8874047302038437, -3.6374959797046413, -1.6928165128260915, -4.2141867595053775, -2.186695645175768, -3.913496458867442, -1.8603392079268397, -2.5517503119303035, -1.7675551347214686]]
[[-0.7126222538896445, -0.9558181281165754, 0.7590322595217232, 0.5868477091870984, -1.1010112465843793, -0.8809250569833454, -0.3811988022434528, 0.3393394047451087, -0.4272660061243211, -0.8199124024626042], [0.062153589614664634, -0.27322491237055724, -0.018485148120157842, -0.2733125598858836, -1.1008974880837794, 0.939786770789436, 0.7946812739124784, -0.35910557309569546, 0.24337063549111176, -0.1739333324404052], [0.023643274026895034, -0.5976615598099569, 0.058274797118422435, -0.9988017247620722, -0.6353038712930774, 1.8003011707133516, -0.7442829041792103, 0.4233459268681593, 0.9444979171536462, -2.5102754243532885], [0.3129247140761609, 0.37722205955740296, 1.3368346683853887, 0.18130358556695733, -0.5576206114920202, 0.7506619332567857, 0.3888844983377407, -1.4559948240391363, -1.6425678112464988, -2.0800620892392385], [-1.2679963673438885, 0.00521929688600402, 0.14587259777181397, -0.023995467064041737, 0.20210295750482749, 0.8370458375601348, 0.6893421156571315, 0.6903776325357577, -1.2154143739700156, -1.0241982197826094], [-1.034375358035354, -0.41183311059817, -0.7092875001292402, 1.594856832211922, -2.6113543690495105, 1.7488947920383557, -0.46268495058875214, 0.7186085285596747, 0.22961842490743423, 0.7826028012349225], [0.2740969692898589, 2.655380358263702, -0.2747424627143679, 0.48400520597144114, -1.7732666184607735, 1.009771015069648, -0.888054362943711, 0.9514996805891348, -2.0483342529453723, -1.8478434034702698], [1.4293341742263466, -0.04220331914842329, -0.6885959701101445, 0.02649743368796456, -1.9178408363698904, 0.7350209141751469, 1.1550389324713943, 0.9194385807190067, 0.5568902575433399, -0.5187324352674628], [0.5275622031666114, 0.00474401004201933, -0.8837243860056974, -0.17831824110312092, -1.0708300637167123, 1.3658287698456213, -0.18241008072191436, -0.11493291948159821, 0.042056519316199026, -0.47729142106307393], [-0.737392770266818, 0.9007624013306819, 0.9854264881542054, -1.2689056496267788, 0.3929451625627418, 0.32287646231663697, -0.9136442599179005, -0.26548658807989894, -1.5585323898740602, 0.01558044095546435], [-0.47910157434554707, -0.28231678795824927, 0.5953468794827985, -0.0893997563136611, -0.24430485827703313, -0.45671249093117644, -1.1849914132412078, -0.03351048383011464, -1.1294990836734382, -0.019317787533949717], [-1.4486825322369796, -0.10768938008711415, 0.29122378696151535, 0.5625245778832725, -0.329707939527133, 1.791014114789921, -0.49049765259342604, 2.5226175729077713, -1.049921617598714, 1.5242394498918315], [-0.1561234549799735, 0.4697697677608253, 0.8974797487984117, -0.14133216199428605, -0.7458233319025801, -0.0816672868414205, 0.1981106364627862, -0.5622311207811536, -1.4732013789983338, 1.7667542585120444], [0.2459310722994409, 0.8520933834166041, -0.20149711859625594, -0.849796913576343, -0.32955536810023095, -0.8267021203987022, -0.6838281075718985, 0.7307607797108121, -1.1538991052436138, -0.44391462012190297], [0.5082672069353588, 1.7313104929394694, -0.011362915663555793, -1.3028043372091447, 0.11718518018628699, -0.2045719585824353, 1.4401337756496213, 0.0742601437204092, -1.6805465711587588, 0.02972456447514531], [0.07242970471622881, -0.2597440717252257, -0.03735019582284983, 0.568171378015509, -0.16476267117095394, 2.076686175158943, 0.40370401669467243, -1.1080636729336797, -1.8298648922389729, -0.14379322954690718], [0.05283432649999987, 0.06727964087818213, -0.3029272004842356, -0.6793317706002989, -1.2112781007707099, -0.9223420946297387, 1.7436346043788713, 1.3337064834080552, -0.06677450279942357, 0.5388590652924272], [0.10393491120283314, -1.0560859429329663, 1.3960156025603854, -0.900914477039394, 0.4480101799485472, 2.755853542126488, -0.643320517079062, 1.07134402383185, -0.32592940081011224, -0.2743494166246766], [-0.5662409754901672, 0.5893538767803257, 0.5348248375964065, -0.02266214420070785, -1.2801641759927846, -0.2756557869087917, -0.9421385199349115, 0.10327380585930668, -1.2855180070821386, -0.4094200738222919], [-1.3662329903004977, -0.4638488050549254, 0.5645845465199265, -0.36609736636994805, 0.11852209801391861, -0.48985253718512983, 0.851810849912876, 1.6196442844127859, -1.302449094858297, -0.31809831584727666], [-0.9859519625605933, -2.4753115768585645, -1.525782157198493, 1.215076229938409, 0.2200754624894477, -1.4961961984518675, -0.17236810520053614, 3.406171580088603, -1.1238583011623768, -0.053121214630649595], [-0.45015932024675903, 0.6889327129903139, 0.9127511353263507, -0.21213477356157961, -0.8795401967315427, 0.5339446611245388, 1.3106511210654812, -1.2860962524225767, -1.6641694934735305, 0.4228926901418534], [1.1244339145574376, -1.5040079524145837, -0.14825193732491554, -0.13790351069414836, -0.06562893954964619, -0.7438416656613155, -1.5228860109695241, 1.1299009866989023, -0.8409147478504876, -2.396919379766221], [1.2441553395485, -1.4191778278920022, 0.6201804915819246, 0.7917480530450048, 0.6809560165196544, 1.1780731194482288, -0.39083969947490443, 0.8399705439848377, -2.4291083005834864, -2.2938221695584122], [0.18596467201732972, -0.6249860201997408, 1.4486682738901657, -1.4750685886396022, -0.9444121418945247, -0.6164441594411146, -1.83304285435244, -2.3193058089421514, 0.012283206009627972, -0.5991404225485601], [-0.9026014418994911, -1.648591174142679, 0.22478010767445347, -2.624490198403908, 1.5881428251420981, -0.14909494292619874, 2.3365595246419084, 0.8209227004567602, 0.0001575632470874827, 0.5575954646375457], [1.8838552644742692, -2.9566105503358595, 0.07762038077646441, -0.23118446446266247, 0.6368096317409159, 0.7151643749255892, 0.9902903077692591, -0.19352028998923917, -0.9077237729639606, -0.15740632005595473], [-1.3059838075049401, 1.6369115530029474, 0.4756912265689582, -0.42294080704772363, -1.101674656890094, 2.373783223535608, -0.6692181510085211, -0.3265201352997903, -1.6725911149452937, -0.047587286506040674], [-1.306402535163862, -0.38262162002831057, -0.13005438159057636, -0.5231538139899226, -0.2134866056268509, -0.6326877689929983, 0.38020597016728913, 1.773756295274245, -1.28612007683229, -0.5669561825406343], [0.0017065232762601028, -1.094044874354379, -1.2246583994293478, -2.5363557424227174, 0.4479419402643057, 0.14429127158632227, 1.5668411888132459, 1.8962766848347878, 0.1355329888510898, -0.12849839281508033], [-0.42127099560051856, -2.0942502431443013, 1.03451707635664, 0.5860276911704358, -1.1051223990349177, -0.7381147750421924, 0.1100105643404828, -1.844068890140737, -0.5918368764225244, -0.18753704858730277], [1.237130064551924, -2.892803135656295, -0.2868977041623568, 0.783009405918495, -0.30913204658539023, -1.263042572612464, -0.5743681046505763, 0.09308211556876896, -1.029634034255774, -0.2139260910307058], [1.3312927061201212, 1.1779513160822845, -1.2251137824878535, -1.2944779872245211, -0.8391281527557746, 0.5532721517195612, -1.9035188654034911, 0.11022867776982812, -2.0340922490380593, -0.05066873136499369], [-0.6526169598413479, 0.22946094297149283, 0.4981295511228765, -1.247900165849831, -0.8181362335801075, -0.778853172029303, 0.4030437754315675, -0.5960446788330171, -0.5949264811933507, -0.7177733582930342], [-0.02032982932615773, 2.0762335429873806, -2.0347547890732156, -0.6759328346195321, -0.2013595557248185, 0.9143456685186246, -1.05645696087469, 3.182057342520249, -2.4569798152560063, 0.4809102769193645], [0.9897620434898377, -2.560671755551896, 0.43793899155211974, -0.015735731936684667, -2.485140799036544, 0.6668695373615066, -1.5385636279242407, 1.0269078998500767, 0.43100241098886444, 0.2653297078753104], [0.22199499857619123, 0.1251395165588347, 0.49107676176549214, -1.3789796103591327, 0.10194224820391899, 0.009931206125993842, -1.564895263297455, -1.741203158293614, -1.2516467584677136, 0.48093637062959216], [1.5499918240642045, -0.4172411845982062, -1.204079201564359, 0.23151610650741164, -2.9564916165974537, -0.8679909731316292, -2.4887220695107906, -0.8743360760955452, -0.12927707718079506, 0.45838499018347567], [0.8806448872449156, 0.6522390662372023, 0.701667556612978, -0.9770132513768528, -1.2477398016614265, -1.0664443313360188, -0.8990463285395931, 1.6492214773602514, -2.2954262661665483, 1.6255080675067837], [0.6387602341255048, 1.2684315392604042, 0.6466184550834013, 0.15765960354078776, -0.1390462504493025, 0.23035376400204913, -1.3873193562851167, -0.8886936862864329, -3.136787337866136, 0.703006850560925], [1.3600029992610234, 0.501574535379773, -0.6233583166781342, -1.5288795748944606, -0.2716714292258186, 1.6116803063511602, 1.438532199454379, -0.27107303384434794, -1.1404482000872085, 0.7970550204370103], [0.5807982349686971, -1.3473056580019438, 0.3840817303692021, -0.5138138242283224, -0.5676132609012216, 0.6851315775692269, -0.9388580471308708, 0.9406833122260523, -1.6105602512657435, 0.3106917926347926], [0.10536955938913078, -2.7296915153214707, 0.892518039740757, 0.4232849363315876, -0.9591663038231163, 1.1763175266273942, -1.684734987662322, -0.1849671047257812, 0.17815773832517962, 1.0847663576862976], [0.844496943971391, 0.48299151784537786, -0.45363887936705244, -0.9400399591556327, -0.35728107707586565, 0.5106668874342221, -0.09360772621168273, -0.7358774148484379, -1.8064418656820287, 0.10232131706536497], [2.387947236551275, -0.7403492863128033, 0.9799290073716564, -0.3019927425700337, 0.6675142710426673, 0.6848776499877417, 1.2859442411448514, -1.752217408179856, -3.6965252886207502, 2.792383221545859], [-0.975224836333445, 2.0585185275484683, -0.3432640364938151, -1.4177969373640218, -0.25848225204110553, 1.3752004156389155, 0.09858234663905191, 0.0933316364384911, -1.799343659718583, 1.5681460366862787], [-0.922535554528556, 0.06648783569707623, 1.4608118996131436, -0.7584264879148693, 0.645670711208372, 0.005622667736787165, -0.7055156073571296, -0.03249596186907102, -2.743506816287224, -1.1304754720364234], [-0.2714186639691471, -1.0514265084825178, -0.9397144905814442, -0.5362973387329643, -0.7189934458574454, 1.880217508102492, 0.7557301335968831, 3.4978828578666024, -0.7910964521891765, 0.26354923293045174], [-0.19897595385710504, 0.8299776419428125, -0.5051486208149665, 0.7940350208153225, -1.7149078128274218, 0.48927443858262004, 0.28691683898522774, 0.7526317417151127, -1.7403832935656898, 0.553419564464793], [1.283372169819974, -0.776600319262461, -0.15008323455253467, 0.81780348955586, -1.5972810505707127, -2.7230805015047554, -0.13093127699063634, -0.5525988728771177, -1.8498710494875095, 0.21837148020090866], [0.2562596896900116, -1.798166656762316, -0.5209795774487768, 0.07123196161348143, -0.8914234760171897, -0.5434866981241989, -0.8496388912179722, 1.2572517567987609, -1.229771681229295, 0.4466050198632638], [-1.4284005379466889, -0.5819021401494878, 0.536804441286273, -0.9540086342528014, 0.11295906668336828, -0.2794327019243563, 1.209676383202641, 0.4882231215292118, -0.9880615012306069, -0.4097521971638108], [0.9014763901048842, 0.061301870164811804, -0.5170877886534312, -0.33618735036140596, 0.12927887255624854, 1.9932312814497286, -0.30550624830588663, 0.02177509457389243, -2.1651753410399097, 0.7413753603070844], [-0.883847292995469, -2.320222008844942, 1.1124644919495867, 0.7301971435964876, -0.16776364891909468, 1.3778102473858762, 0.7361867124703181, 1.2675704687574088, -1.9319927654971198, 0.9407516349816144], [-0.5120003498773327, -0.48755277823290705, 0.18434136149870278, -0.658008937017734, -0.37693825098608763, 0.5016275314056944, 0.5748457301790584, -0.6771243565922472, -0.9443595138857672, 1.2261837489056566], [1.083909460134939, -1.0671606911394496, -1.577722254982993, -1.4427426352780974, -0.352015543123275, 1.7136536411786623, 0.8057287275548279, -0.3107689212550259, 0.1205148723460432, 0.26559744861105544], [-0.023068474272964233, -2.002557002718914, -0.35135244981903496, 0.40600546433627294, -1.0198393835273363, 1.2175880874450624, 1.1887207042272425, 0.6172875957224799, -0.9924820245174408, -0.49706043170328756], [-1.4954838303140896, -1.5861313960992511, 1.1304199554437617, -0.8258401188879828, 1.010533159796375, 0.3685619527549793, 0.40394432658928, -0.6691887554455087, -1.3423501918752185, 1.7009239763977628], [0.8553697854455777, 0.5040141098332367, 0.14379234107534664, -0.6909179002032417, 0.015354150074013459, 1.0402037991942663, -0.3978373676140218, -0.10730835466096598, -2.220910321333097, 0.3781714220167268], [-0.3800881716480225, 0.3732471662667348, -0.86113847262517, -0.37076523946197204, -0.050870439321389634, 0.795110922156263, 0.07607091515185307, 0.9182922676689886, -2.6304993174547024, 1.3819490556045022], [-0.3866449396971676, -1.5697445527801073, 0.6176471235953713, -0.6381020156054424, -0.6145878971012617, -0.40969657705848644, 0.0021920843331910316, -0.29999301169041986, -0.15669173691040056, 0.8711898095032552], [-0.3500847581381777, 0.4044840853182607, 0.07022699244248014, 0.041005494234554164, -0.967596691775099, -0.0038038754607583845, 0.2281027080037471, 0.3505837554410091, -2.0082730614310838, 0.6888980328579556], [0.13110704294264097, -1.038880249763118, -0.6337531192916012, -0.9286934950958399, -0.27529322177911086, 2.4884181731706643, -0.007146841490228417, 0.37227640047579263, -0.827535851858956, -0.6362408063314969], [0.09413103134953295, -0.3134717510085158, -1.1290043540324624, -2.46636474638591, -0.44759599287363655, -1.5072892044261823, -1.415253974569384, 0.3588149337700397, 0.6384898154702509, -0.19112348856756298], [1.5284372598524176, 0.681474724683814, -0.7530726846135943, -0.7899404342516214, -0.9200491453622426, 0.6083930086380759, 1.9280213532886799, -0.5496136502810165, -1.4192136852944397, 1.6552348458915274], [-0.25455628479701903, 0.6197024852978641, -0.3902736155462532, -1.5172213863747919, -0.017332215600383796, -0.19073816019283485, 0.5034702632993361, 1.6621933657440828, -1.7677429861457388, -1.789517159311005], [-0.47963463478853197, -0.5702957925801116, -0.0766148256157058, -1.7014749162387017, 0.39465261684373243, -0.23264313041485638, -0.33042768300387587, -0.517864412697419, -0.6991606768319756, -1.789607625948659], [0.1695168333924793, 0.0534730663794784, -1.0438359482349877, -1.3652455302766957, -1.1598895734924177, -0.47194026257186705, 0.8581259025396688, -0.4054060544083469, -0.3241888160708249, 0.17836866629067588], [0.928068167651475, -1.540611955571296, -0.37684162541343186, -0.38981207018266845, 0.022966657923924674, 1.8967530873230902, 1.3649698802940902, -0.20869659979950123, -1.2606934697595444, 0.8848534730446294], [-0.7936357718102114, 0.48922524557442587, -0.3046240074797484, 0.48254442523391505, -0.491255598106989, -0.08123462861910495, 0.037893533661876824, -0.5492527115502406, -2.6298816781059746, 2.7544799745359243], [1.9948601314393224, -0.6048472282979871, -1.2070772006880996, -0.5307238089378097, -1.5038363927222425, 0.6842125001792952, 0.11886502703021418, -0.6256096583281439, -0.22335506942423697, -1.7412858248657916], [-0.30455841298251674, -1.7588451093561235, -0.5227241205507879, 0.8968706695932591, 0.333432004284601, 0.9620295822291414, -0.6805049855962417, 1.20873750361035, -2.424249787828615, 0.5619418391273546], [-0.6650272623317597, -0.6319228298723636, 0.22566233622451443, -1.0400381962843788, 0.31437348375844354, -0.8787240637533705, -0.4179938414367281, -0.9127013399210879, -1.4120415377634814, 1.189718315566638], [-1.1538489900814646, 0.3646087638177158, 0.2104759322418276, -2.0174459350115983, 0.7705248588663177, 0.5833176804184026, 0.5946309872562319, 0.7075684165163252, -1.4814521762514286, 0.19179107169594523], [-0.3459727038287452, -1.1050782221938504, -0.1627008169095126, -1.1571549310019045, -0.6481887671239487, -1.0126740633137146, 1.699379072615802, 0.36110255491428755, -0.5062528384574517, -0.025863059171337126], [-0.1623802039791536, -1.2919805539891402, 0.6379708108135322, 0.018028433473403133, 0.29912320184642965, 0.7167740962056456, -0.359182847755654, -1.667139540489101, -1.9052448796608439, 2.2868482441923925], [-0.3152486429213375, -1.1925655481945132, -0.0276344094214386, -0.5605851513481657, -0.686716576630633, 1.1007993706731263, -0.2847596601501908, -1.2784245517729553, -0.6859090438963211, 0.6804399126906333], [2.114569372384929, 1.0188220699656978, 0.05750517240856651, -1.9912240686010247, -0.9349910352785462, -0.4850410857906651, -0.38413133395148813, 0.24146458812384575, -0.9982805153465523, -0.4643781500056352], [-1.3417860915405035, -0.27933895594732244, -0.7796443675037863, -1.229900473225361, -0.7579638967800492, -0.5426399409831103, -1.097918140141696, 0.9129300722601164, -0.29131176390462327, 1.4937231419555899], [0.6175235524270324, -0.44728756836576145, -0.9849820873100793, -1.874638016110821, -0.040986181104743044, 0.937431924893119, 0.38866077096860463, -1.0915398100197193, -0.4532880387206591, 0.5478917721452021], [1.0133780558850638, -0.9848939027529975, -0.8955338956823561, -1.2891351084771292, -0.2586832124443059, 0.8261082950225697, -1.178453059658299, 0.9694580498774139, -0.4439081609698099, -2.0279685595859926], [-0.7748844546468183, 0.7728333183859319, -0.8734763744399122, 0.12249769131327264, -0.7539472433626756, 0.11273123960033762, -1.0033924659343045, -0.1403226292779973, -2.365802482266995, 0.8686128091338452], [-1.5124857172684167, -0.9508174937658714, -0.010163205895860257, -0.3808158988175042, -0.5567700959714669, -0.0713307537517547, 1.6219735470987875, 0.8043320730686718, -1.05083488169818, -0.25356874115981237], [0.7249242508475283, -0.518167908996327, -1.494219994902209, -0.7621211806765971, -0.5742700669787775, -1.1679389473477244, -0.08305899695104318, 1.4857802967008833, -1.058442553994483, -0.12663332894537507], [-0.9841635948310317, -0.8404620731622977, -0.7846899078659331, -0.5508502690677948, -0.6517439553879852, -0.6399411433674381, -1.652909821581553, 0.666146687998983, -0.8253838390031635, 0.7554078886890311], [1.3327141108322573, -0.09322372607361662, -0.24634263479156368, -1.7889353919580577, 0.5342508135918987, -0.3952064768657807, 1.9421846798726266, 0.5423181166953791, -1.418000497795531, 0.8113168301489493], [1.0073334834133558, 0.9169376561382266, -1.4102409084079242, 0.04776134883873608, -1.3861000054783, -0.3512934326476508, -0.5691438384533933, 0.37497136896202715, -2.2042377901524848, 1.2987810353996005], [0.37817867556774737, 0.10733416170149254, -0.849541109587416, -0.4273229524063711, -1.0540713128306247, -0.48937134940504085, 0.2156462714058586, 0.05027034911678616, -1.4424165443021957, -0.7317269481780451], [0.3063267217893413, 0.06978479305366206, -1.0002715371790714, -0.17922159611555674, -0.575998758527076, -0.7071520158443676, 0.9411074633744463, 1.0155307064206993, -2.042857118009276, 0.2861957433108669], [-0.17992350570852783, 0.4484097813290462, 0.0008194857237914926, -1.4931588150334043, 0.022593713964234454, 0.36628785456974244, 0.6520430179030373, 0.22962884104281114, -1.868228849210673, -1.2383964466315194], [-0.06781126284751028, -1.225510429238139, -1.2344879096184926, -0.739570412651847, -1.894341557398349, -0.41069763906353984, 0.3697870681300784, -0.3436619093430065, 0.25566671834321686, -0.46863383819545873], [-0.7430894655895864, -1.1671673438238852, -0.37978551382964704, 2.0198866293121824, -1.492893781015202, 2.2026428716815687, -0.8163018423144234, 0.0518601678338313, -2.454630052087438, -0.9500111280557016], [0.37370611156025074, -0.14476967420499887, -1.0711458146939452, -0.5741450930535735, -0.15283105999815275, -0.810411817516204, 0.24249419445216278, 1.1883911647653953, -2.163172808886001, 0.508967345361523], [-3.5047430039549994, -0.4959737725509877, -1.2677790507898254, -2.6420957948348396, -3.3593028577863797, 0.6996392504991384, 0.8093702873298858, 1.4341954342138585, -0.009608069801231063, 0.48546344532502905], [1.5740009556918815, -1.1688738506475618, -0.7639707722826212, -1.5501119031710073, -0.48382993041485184, -0.9168246964573786, -1.0355141920407438, -0.3100559487433469, -0.7366869517530212, 0.31227425867059855], [-0.019484858340979787, 0.15210259404988954, -0.6597521217137438, -0.4330130263421659, -0.8779893586702818, -0.34018162914400246, -1.5243614215326522, 1.0211821000300856, -2.1814818146412294, -0.7755822710083968], [-3.4519138770021276, -0.7520719178897713, -1.5266867787649876, -2.142488781371306, -6.283999707255717, -0.45408821923815584, -1.0375659052395272, 0.1456805992945498, 0.30465843927140124, -0.046675329208373986], [-1.222805345045998, -0.6396744540928344, -0.7460829124275328, 0.9979254065861278, -2.245974581815578, 0.2803473314195637, 0.8494983357740742, 1.2803260276751673, -1.987156359055759, -1.2841392521760042], [-0.38098432696979834, -0.34278436178472765, -0.8476777981140581, -0.3336835548991, -1.4783161727388296, -1.4630549650233455, -0.7319399808117264, 0.3402019262675521, -1.9868231290269798, -0.29649076606011693], [-5.414379910008168, -0.5667072279671143, -2.113473376659433, -1.8901128295044176, -4.428684220842055, 2.1410769303813986, 0.030255824505452545, -1.1714221169380397, -0.7234667067788814, -0.8785608248711911], [-6.364727968905333, 0.7951750588435701, -1.5430052039857143, -2.9037220667446317, -7.099456214465443, 1.382183703448881, -0.330252086074377, -2.076895831610032, -3.4773748411088286, -0.3600872457507507], [0.001995898274346777, 1.1816463431276365, -0.5499666069879492, -1.3828224158853637, -1.9164359874090515, 0.15346601203311705, 0.16313934068665437, 0.8409973044136827, -1.9251842745399188, 1.0204675986894491]]
