[[-0.8634249059708307, 0.07528275241499631, -0.12273064201739653, 2.247059094827402, -0.328634607197204, 2.3725499130889203, 0.39311922412490213, 2.854552507590065, 0.16585048337214553, 3.325193766074778, -0.762629666721979, 3.2735208857641362, 1.0141219199013698, 0.27171642139918545, 0.292226709070735, 2.0540245172903084, -0.039916915887496844, 1.278120408427427, 3.5087618828663865, 3.25859053721929], [-0.41129202286286987, -0.912790701627759, -0.028102589651071874, -16.43908767988203, -1.0575650927166962, -22.37924607315368, -2.777230712221534, -19.660366740343342, -0.939566546092656, -23.780833827329463, -0.3836921088224965, -22.168993705479323, -2.2381033176747156, -19.030620127575848, -2.1349375743159986, -22.84433901109839, -2.2410885021728717, -21.273353273230725, -23.959833733011614, -13.776173598157069], [0.8531181292808068, 0.3680829234309595, -1.1111558370184078, 0.5991623200293738, -0.862534946649572, -0.08678797934279078, -0.45062567066016107, 1.248295082145882, -0.15691644397362237, 2.7034114727110325, -2.438991794223467, 0.9822766867580198, 1.6225789196512266, 0.9710434725900977, -0.79214596092083, 1.9983478106540966, -0.22998578433030598, -0.05747648597965499, 2.8570542146553124, 2.0778811407370403], [0.24029400023195344, -1.2264272341109856, 1.2715604746731592, -1.3819097417415689, -0.8942005024217564, -0.21084860253632856, 1.0699170586589055, -0.23343764945930343, 0.3296061880578706, -0.5332283821612894, 0.8617749890684625, -1.944023638807415, 1.7108833881674663, 0.8813666863719952, -0.29172206968778347, -0.08051840936684772, 1.8597275865708949, 0.4344871043861328, 4.806617640304037, 2.0688387092005076], [0.7503525007061567, 0.6284252937857745, -0.4187667877993546, 3.410372553942874, 1.8671674202583408, 1.4136717972567507, 1.2351828653130172, 2.105078768220371, -1.0601991306454694, 2.189715513332372, 0.5464479470006985, 0.9522562828237848, 0.8180774268991643, 1.7877288162416674, 0.2564534880779333, 1.8733683568639097, 1.4838491202352295, 3.7260661183949098, 4.630368492401862, 2.2411448598834576], [-0.6756091687697907, 3.2246829455470913, -0.05248855488038421, 3.8013336852256954, 0.22338420043224472, 3.882985625001107, 0.8690988362556809, 6.043836512504123, 0.6166646243876076, 4.724051913434005, 1.6662487648724758, 4.224241034579277, -0.32451353392543403, 3.898125744439922, 0.3981293913405631, 3.723301031769914, 0.255862829387059, 5.2768741993320125, 3.7789845729613174, 2.403183683106506], [0.6460402898567316, -0.24533716900812816, 0.617281251356355, -2.8177869944263274, 1.4680020701245302, 0.10221249523056239, -0.4311399881380029, -1.7474685152006322, -0.3849115542625632, -0.719080933282978, -0.8227410887356877, -0.9692964001384614, 1.44609846991608, -0.13443366453398084, 2.9201487792267047, 0.6638260023226109, -0.7256620723460417, 0.1487754864986944, -1.4535365794229895, -0.10000955040711448], [-1.14135561305409, -0.536597724004257, -2.016595377022858, -2.033201677932204, -0.10168700193743466, -4.0092272103951565, 0.20933693145542306, -3.6836720638204, 0.7600817798354134, 0.4756096452828241, -0.11660293624693675, -0.31686063668195646, -2.579878518028697, -3.331701549843882, -1.3551316164796579, -3.8684634410105483, 0.5935740986615439, -5.049779334724287, -3.4029548126797766, -2.0365320327778647], [0.3321600276819738, 0.015496900589192642, -0.2484967328657342, -0.31072800714158266, -0.0883343205261108, 0.5330990121548204, 0.0036790757109217845, -1.2779871095484343, -0.025022294179140196, -0.8355317673383172, -0.06454667935589685, -0.43207051956257503, -2.10990877138595, 1.5275894917904629, -1.5118846279508975, 0.30322418281543667, 1.2841474889538504, -0.5657786996181102, 3.6307826921048627, 0.4761480159449557], [0.46589565730657856, -1.0892237766230062, 2.2653622234625814, -0.9487964330597025, -0.7065104351701509, -2.2069918056466844, 2.23200429975635, -0.5285542109902504, 1.2534778989895532, -0.16294291193433863, 0.1620333026530193, -1.4802853293659353, 0.8820120959520039, -1.332402104958982, -2.078365643394646, -1.0292987008778942, 0.21053576962710957, -1.4149324952191666, 0.18029468050517128, -1.6450627376069278]]
[[-2.444037091089396, 0.7998499734232313, 0.7683726050292405, 1.3288029910005918, -0.30927476905729784, -0.2500437670876372, -1.0853673179928656, -0.4651315908765572, -1.0754660089917993, -1.0604532043962822], [1.0636676813380481, 2.005681471717253, -2.9910353596930697, -0.810500013594454, -0.07947625897527512, 0.79381944954557, 0.5375045631576879, 0.9847261616945954, -0.9794097841277873, 0.38376082364053743], [-1.2137317238398808, -0.10185177686089741, 0.270987402989662, -0.9794905447906795, -0.22532680360631235, -0.32174549400292257, 0.4845985135162306, -0.4126985061665449, 0.052189640852785824, -1.5714207744159003], [1.0566768504429511, 1.0430362473701462, -2.730433182727242, -0.8106393008347671, 1.104069714306139, -0.44433892112466755, 0.09685997601791535, 0.2621316214530607, -1.8882164341857284, 0.8268686765459747], [1.435381534189398, -0.18224087355802845, -0.5139135007184595, -1.015219933406337, -1.0659099799768927, -1.7914185078722462, -0.28765265023594616, 1.453053529737201, -0.6364465063511598, 1.5354618349083944], [0.164477726818493, -2.7003114856484762, -0.7052738701812363, -1.1086891560876608, -0.20447963532216246, -1.1101535743664828, 1.1328657374333304, -0.1771593677270754, 0.2942450166539179, -2.44030466645961], [0.36127881245981697, 0.7521831925853965, -0.3284659265441615, -0.1525276346863764, 0.12870530381196013, 0.11538327242379247, -0.20163771796264437, -0.7670196116246799, -1.049092321027781, -0.9993793679790534], [0.26302720614781616, 0.7217182502877862, -0.3327092620478192, -0.12729674753840994, 1.0358840127005386, -1.1244777576042106, 1.0844010934573962, -1.2465550153342848, -0.3744212281812101, -0.5532466691821771], [-1.1050170549065914, 0.1718993101409118, 1.2317796257098634, -0.5165733247561524, -0.2631426578039946, 0.030291541049247247, -0.2525162979846104, -1.1383589242189551, -0.2146596629880048, 0.792915622227544], [-1.7375491729224841, -0.4139853134328307, -1.7219299832737502, -0.7719241292058405, 3.2780817797940602, 0.14505983026861535, -0.65132071709326, -1.7529049673786499, -1.039579544495811, -0.5664846850634461], [0.5645642202735823, 0.3797991068287765, -0.7907452214088422, -2.3808917888100782, 0.5714133502277461, 0.04901529920960076, 0.28846631388874633, -0.9268339514760527, 0.22566307942750605, 2.510458797618509], [-0.26961938258160856, -0.8524835967957236, -0.19425574985999566, 0.5641198882260313, -0.5885540204099622, 0.46946400861222776, -0.06140708564183453, 0.41600008995593246, -2.3417501639233915, 0.1145584708544614], [-0.43835200784963013, 0.13653880555413922, -0.27048854103764314, -1.0301436703432822, 1.156657507539206, -0.9135040550575595, -0.2670377138138318, 0.7863867062891494, -0.10716290440996613, -1.8443766869727674], [-1.5138873814675915, 0.76206011548474, 0.49276272884971056, 1.7610649548691641, 0.8585647023076405, -2.009296212450146, -1.112844724503484, -0.5925777290041349, -1.7788755080698624, 1.2865398395355605], [-0.30040588135558205, 2.2774159957291897, 0.04138702678752674, 1.2003239393799892, -0.7680105065443588, -0.34881589445386874, -1.3186354546379178, -0.01709748924041056, -1.2382953670367862, 1.4447292223453871], [-0.5254982629134967, -0.23379599974816137, 0.3201454416722791, -0.8759705328790564, 0.21891978450868763, -0.5559889912067246, -0.14304540104559169, -0.03338373356756672, -0.5739418963930654, 0.6400060982009457], [0.9619933494386517, 0.21890632244249728, -0.8551526925482179, 1.3684622997582898, 0.8189708785691395, -0.43632825402423603, -0.44153672221454915, 0.4704108786799895, -0.7639092475021554, -0.5295298765903619], [-0.9623735401187812, -0.4714229896198672, -1.0063489935111958, -1.2202261475660512, 0.5324150961211339, 0.4786277389506056, 0.9805306248728406, -0.06945386853641901, 1.048147988500156, 1.2082640477118733], [-1.311700059949549, 0.31777847657981584, -1.5768581179205714, 0.38233359758179347, 0.32519213012284653, -1.8139361255993982, 0.12287664984846887, 0.8925468600900397, -0.7856440642115617, -1.661704721528497], [0.06686283187139169, -0.0708429734947019, 1.099903824420294, -0.9712306530295053, 1.2942675283202087, -1.8616698980301032, -1.3131994123931838, 1.0202548978572583, 0.938172578254457, 0.31985311388239757], [-1.0661095356229535, -1.6045618274203126, 0.00018531144448377055, -0.37816871483924613, -0.4023588949548302, 0.5785789070399145, 0.8601489655660407, 2.101799595345958, 0.556987358558556, 1.0846100765563644], [-0.03984476372273659, 0.25736047128638284, 0.7076468277261494, -1.3251999150505203, -1.4530195967993311, -0.48816971161648093, -0.2058356695743217, -1.0581813352929126, -0.5348018605047166, 0.8582683772969965], [-1.0458561247386498, -0.45663713913410564, -0.1812262687454283, -0.20653316375865136, 1.564458492192348, -1.6374217100653026, 1.9380903133266782, -1.2260068295601123, 1.1411316908250058, 0.5547554604701659], [0.4928727128976832, -0.47193056084878765, -1.2211669092630943, -0.7444959899471153, 1.6545385402990154, 0.2003734948603441, -0.2018380928299525, 0.14247166813770618, -0.410913988144335, -0.2749059469843519], [-0.4623575929629787, -3.349296781798786, 0.7526428916024495, 0.6710315027038736, -2.057029149763856, -1.1265982205514222, 0.8255650546421298, -1.2972794221311117, -0.39582311311991514, -0.9531887052253735], [0.1655473080019488, 2.4983101068461755, 0.39239081518168445, -0.7112762043977348, -0.9034614564837391, 0.8746453553316575, -0.5081743941152742, 1.0042864666528288, -1.330281441734572, 0.038730856502210205], [-0.9124387700684304, -0.45130680684545715, 0.015230381010629714, -1.1959958362540324, 0.3160235288232347, -0.7640034824956524, 0.698009753843462, 0.6123729784474894, 1.2209997511125485, -0.26586932642114364], [0.084168061740942, -1.8124486894054292, -1.0554251442894806, -0.5748059098306656, -1.0011320044263243, -1.8298889002216376, 1.6949471575589443, -0.09007275464796634, -0.8591439818172358, -0.37406355250291956], [-0.1553959382723075, 0.44104721889115417, 0.9025057567801954, -2.052280696681313, 0.3154504046226619, 0.25415817130835267, 0.7268403097060598, 0.07141112393030026, 0.4411693235905358, 0.8403377954168216], [-0.3856202699688933, 1.2991430523791085, 1.0880147143394205, -0.4315592855553342, 0.4005025324835244, -0.6125630729136423, 0.045486592255931234, -0.4724702775764771, 1.3178500302990823, -0.7686049403057453], [0.11785055106643623, 0.25776718723556025, -0.298366179712783, -1.2705695153296934, 0.6665793904828089, -0.29075713501099787, -0.5744943397747242, 0.8119518707034454, -0.7769149646987022, -1.8843075625022387], [0.4229549716678903, -0.1851999225144855, 1.092065643951476, -1.4676419053295624, -0.42256136833688374, -0.5534970097411449, -0.58143515640179, -1.4039927357171973, -1.1436248874941009, -1.0996800064107224], [-2.1565384287545055, 0.5491982448416617, 1.3981479972967596, -1.839893440429786, 0.1199072061069271, -0.0343091958305451, 0.9615972323286753, 0.5258176199361512, 1.2167802723918597, 1.6686013855355113], [0.18265795462169102, -0.4119467104389374, 0.6061252783957729, -2.4688035081550876, -0.5097390172814369, -0.4199131115376422, -0.5744360901121652, 0.6396904565516093, -0.07599206761091103, -0.25314410979056506], [-0.7936680187621555, -0.19508908004240139, 0.6702422887573309, -0.7056960916289003, -0.3078151473346738, 0.2520129609601844, 0.5596561732160551, 0.9088254680329931, -0.43760877648621116, -0.9196760080071712], [1.633412208233722, -1.3846150526720102, -0.4548823754128991, -1.4394843448878631, 0.7382925915759155, -0.08633620662613091, 0.8517581068820788, -2.0915380055015262, -0.8027875299575692, -0.10624664143791883], [1.0995649492763047, -0.9852837567887559, 1.340363172563286, -1.1200527225544212, -0.5158491975780998, -0.6960768823511023, -1.0228285663596715, 0.6127674342858922, -1.5962444063285686, 0.8916162072095788], [0.022966638649178334, 1.1118426879922445, -0.46490420999254756, -0.6393014265060896, 0.7442278048756352, 0.3072097031146575, 0.09246211519692014, -0.5064691509588598, -1.602757560057116, 0.043005266482008], [-0.5122728798560647, -0.5410135064446729, -1.6875832575625982, 0.19146193247472054, 0.15053977470513769, -1.3565273379067975, -0.3301937554175715, -0.7949337764114053, -1.4485086583070501, 0.17791959701347243], [-0.6844639374698099, 0.20525767152498592, -0.999996901385106, -1.4730539629214179, -1.3712100103435996, 0.6045122789536849, 0.1721546352070082, 0.4376343060963178, -0.4027799902261075, 0.4606730818950317], [-0.7227446784734745, 0.4811513085827498, -1.2113537945440118, -3.218791399430686, 1.809321492292845, -1.7061175127188237, -0.8713105652613473, -1.1387118214991376, 1.7310073445379497, -0.860711424191568], [1.281821694036912, 0.31257350708160897, -0.887613357053015, 0.4973267716955042, 0.14391145210545556, 0.5127463393408586, 0.690084871750426, -1.9434312380115775, -2.333474749494831, 1.0509080116581153], [0.24692648260824807, 0.4954930638251121, -2.4058294499763093, -0.20459289622554894, -0.7702416220231136, 0.581075364806178, 0.9974617999174235, 0.6821658843776648, -1.270044912277957, 2.1248904887280258], [0.5807276650359141, 0.08137618200670212, -0.5358401979690384, -2.1895796712013325, 0.2322323830476688, -0.3006740102672322, 0.2673401968265076, -0.7760129334283371, 0.49960587421148966, 0.5027114077391622], [-0.25525349699233163, 0.16252266540170077, -1.5358397927901175, 0.006600178393820288, -0.12672253082029578, 1.3258409977423524, 0.34268919722014624, 0.4278941275473338, -0.8711812053604272, 1.874556381318953], [1.9883379732898843, 0.32209593860450775, 0.058832217859524, -1.145495871556887, -1.1437349265117909, -1.3616177591178544, 1.0396453402279506, -0.2547064314300333, -1.1144387344351911, 0.5017468429301961], [-2.322012828315094, -0.06358687792274266, 1.2686273600229343, 0.24854338159410827, -0.19752143544007214, 0.5576691858691492, 0.4054143288664155, 0.5842782124989342, -1.1268478028327253, 0.2714223180731959], [0.8447278392130075, -2.7234255311289197, -2.8242876103959813, 1.6322311981269448, 1.5792349708991775, -1.214247953789181, 0.5564036161531435, 0.07929039078112647, -1.3411580810818289, 1.4055186535878437], [1.0030311172461273, -1.0531149296073996, -1.075628802741196, -1.07758735327982, -0.37266020381203413, -0.48691845901197167, 2.2093635567057044, -0.9727158925768458, -0.7373901000138183, -0.45886406026628523], [-0.27402879374593864, 0.5276408304775988, -1.5308757923474372, -1.537551855358007, 0.8107076604682482, -0.08546043539947569, -1.3118581700991518, -0.5671101604098027, -0.4130930959608012, 0.7280083954611445], [-0.7610234022997303, -0.31433058426679333, -0.48378892247726957, -0.9134472982806635, 0.723718039459568, 1.2748108668499254, -0.5943437406360828, -2.8284803066440065, -1.348756983876453, -1.4635148842712626], [-2.8429613639627362, -1.7871930335677377, 0.5259590722103514, 0.05203317750629859, -0.6406330913875599, 0.03933621106787939, -0.12499053780550111, -0.9265798345350076, -1.745233253498352, 0.7879417098957063], [-1.030431038606979, -0.40243500601968346, 0.9204259200041017, -1.6437450385696637, -1.3734075530606111, 0.7166253715523602, 0.8453088719614745, 0.5996382585787399, -0.8531339190647068, -0.6816715111140244], [-1.2884977929720034, -0.4966464293655618, -0.3693947567639704, 1.1767381142018618, 0.011267718726055082, -0.018313453799907287, 0.22022820988437963, -1.3930408335537183, 0.191873286986105, 0.33676781039479625], [-0.4085627207464086, 0.30349884764955615, -0.4415542731192364, 0.7240120510071375, -0.1333749908620505, 0.4222708954005095, 0.5347936413249447, 0.018778506328035814, -2.2352824846026844, -0.09657204493607703], [-1.117732367754831, 1.1432411716100308, -1.0301139962508437, 0.24394567532220526, -1.2067050860532926, 0.8867830737572087, 0.0028882439470112762, 0.10683862455308932, 0.13306083034176613, -0.2245331473700451], [0.6127517538023943, 1.4647987449194093, 1.9667716074445398, -0.5072583897055507, -0.6556414785443634, -0.707853993876796, 0.8599937479816075, -0.6899963365862828, -2.1194747575752517, 1.6314762581601499], [-1.6944291685298987, -0.49386941798260425, -1.3713109763869709, -0.6183962645967873, -1.9447006082779037, 1.8510942327493183, 0.8603074941931408, -0.2816267291943647, -0.34465795014585615, -0.953636906410532], [0.9826306273857216, 1.6625824906236077, -0.028327592335564037, -1.4385748792859798, -1.7812247385296442, 1.8375422961598757, -0.1226502774948247, 0.7060146209533673, -2.1456366097640878, -0.008307975358840553], [0.6269594214742994, 0.772748152671377, -0.9467416766058703, -0.6836279583064108, 0.17768931739423446, -0.6431780781993092, -0.5482282094615366, -0.5852347729634495, -1.8837203207507063, -1.5017149134865886], [-0.5403189581154052, 1.1297865330824557, 0.816939243266388, -1.561965666853935, -1.3073161121192736, 0.35826435177570776, -1.7847980296132353, 1.9407596711227848, -1.3538402236439289, -2.0240285918619865], [0.18440925719693493, -1.3405787195160466, -0.7034270476491967, -2.524926923581434, -1.134516683829296, 1.0665672992668906, 0.13310589199594897, 0.9399761643651192, -0.24171309006987818, -0.8421615076291913], [0.5494067576459322, -1.121396613971094, -0.5675620018483277, -0.09242546500656906, 0.41175442127901773, -1.4415136441700922, -0.5420780001343218, -0.8761324899720762, 0.8057510605640815, -0.2020426021541851], [0.48058601447903815, 1.7846341397703378, -2.0850267694780475, -1.722336950947359, 0.13210962931881412, -0.5997950440407733, -0.6529604415354793, -0.8175953078450937, -0.9146196978013037, -0.6305303012862571], [0.6684918940676381, 0.28165533261076336, -0.37873137104082405, -1.7515604062883794, -2.2185806672167816, 1.7532478364230237, 1.8672536241760032, 1.0054915547229464, -0.2468874625260087, 0.7585163618053937], [-1.3765589672686143, -2.142686603107025, 0.8393672468503554, -2.135271997274001, 0.6364846020271715, -0.35846172103456087, -0.22116603154361, 0.6127024210110363, -0.6311699890438927, -0.02297880951229694], [-0.5600028074586235, 2.2677513045202566, -0.17550342802273897, -2.4950939700715407, -0.5806428833641326, -0.76340110976212, -1.1156458580809436, 0.8886100088661039, -0.3235748234338609, -0.8382923588516962], [-0.9644586026489473, -0.5379306972058178, 1.0418487190559023, 0.1581577184721297, -2.4923933819409028, 0.9647131446821243, -2.361751636177346, -0.622462597854921, -1.0952152180977945, -0.5625698852271931], [0.25681652963915597, -0.8560595945873617, -0.30927370942968574, 0.46865533305393703, -0.7779983062472547, 0.47137560022817127, 0.47119362178187196, 0.5178021235828503, -1.8722555606010995, -0.40279702194017325], [0.4935228572779207, -0.5592965758338386, -1.1433686255668252, -1.7896654809152828, 0.5630240886309058, -0.049795799764456326, 0.566029656494895, -0.04927011890748014, -1.1325324237319434, 0.0928794269904636], [0.3268787373164908, -2.115048815560914, 0.1367004576979881, -2.2021631943724733, 0.5341060368366324, -1.473795749774698, 0.1479372254095748, 0.5067220463132619, -0.0389662485144301, -0.0901664579819813], [-0.06585385313568987, 1.217986896628367, -0.7767589254491521, 0.3280872844000696, -1.592197621343541, -0.24861109137763113, 0.40020047275242454, 0.7839722026659661, 0.13766739214555476, -1.6264691959268327], [-0.3910399167732042, -1.294254228782209, -0.06211341563833136, -1.9270876553965357, -0.20328738600350582, -1.45391582092824, -0.4955101095466906, -0.3959805139420705, 0.4652468545386026, 0.04073899442344962], [-0.33788867724234345, 0.5363142378448466, -1.4420252717744764, 0.1678260617353457, -0.7704064179723832, -1.4000420543388215, -0.8030323784124623, 1.2627658518498341, -0.13171449911738708, 2.4356623355432885], [0.616573387467181, 0.27659093373475024, -1.2529147616254193, 0.20839767800104778, -0.7298715886492871, 0.7136152592900291, -1.0794451001120275, -0.012646909633587567, -0.29467548868895915, 0.9803448997150161], [0.1164339208074122, 0.3344779379098065, -0.5624907241976793, -1.1741357715451495, -2.069083227200782, 0.719246313487966, -0.3984024967648425, 0.2800630917242888, -0.11940019033946629, -1.32775374700317], [0.5724316478170479, -1.2393832872703658, -0.16730048589956606, -2.5032586976069084, -1.9732531813525032, 0.10151733756345989, -0.8488857671723404, 0.6178881992288573, -0.9721434208767258, -1.0152947289821137], [0.09949161680780765, 0.3961832714423871, -0.3256210671164613, -1.2360317737593138, -0.981743422200708, -1.2050980748955518, 0.4267370605969737, -1.0201378327457833, 1.9260072293850754, -0.19949036418539365], [0.40912563228101406, 1.651821559523646, 1.2590534937317226, -2.331310344718346, -1.6012497733762288, -1.2520341556920296, 1.1733703968910885, -1.2716275612182795, -1.0199824211342572, 2.0462451815398754], [0.10642721770702422, 0.2472790625870278, -1.8444124038726106, 0.5822287122885778, 0.1180228049732277, -1.4339806300153761, 1.582946473099531, -0.7804273556445221, -1.1880394280516022, -0.9764434041273644], [-1.311484460911299, -1.1794990964302616, 0.04709369546778666, -0.7428457354736716, 0.5347842124018859, -2.4140781039314083, 0.6167609023925956, -2.3391768602645504, 1.7267036925679953, 0.4220219134811076], [-1.565265906472463, -1.3636419793827963, -2.1621575832437814, -3.1783999912546497, 0.4346579709210844, 1.3718831603136856, 1.0667296404440718, -0.23522693486127438, 0.8915531738797997, 0.23109033944979093], [-0.7832945903064233, -1.594758743025162, -0.06605288856513483, -0.8318429423050328, -0.8179443058487758, -0.9127311509928893, -1.1969000558275922, -0.36040418754005804, -0.061054273778826135, -0.7453545756411493], [-1.0461021226584082, -0.03715603926225029, -0.24226394116963526, -1.8181680069516866, 1.5860099180309781, -0.019563101322503124, -1.3127537968523817, 0.9969422648890425, -0.47891766867387076, 0.8096578924929831], [0.5087058202818922, 0.5321597035708303, 1.610912495142817, -1.1506281452508982, 0.1798299550354387, -2.5590759033005273, -0.13275198626979717, -1.208929538823468, -2.5758780139205393, -0.1530031622038626], [1.2491918214192204, 1.5053001603151817, 1.2338842713397815, -1.8473249893213635, -0.2943534565157089, -1.7877282827113297, 0.4907993344030212, -1.01129187529101, -0.42394732982383954, -1.772381697034854], [-0.3090803537844653, 2.26226505003833, -0.5169084138623535, -0.7119147399114462, 0.49061071142420953, -0.9404488047647788, 1.0398527088274998, -0.11641893782802666, -1.4607868109482571, -0.18211716982857495], [-1.3004858302392501, -0.3387425661726037, -0.5147313484959897, -2.312976520814888, 1.3003465754615366, -0.3730906821284589, 0.8096178877431168, -3.328151189021124, -0.7972018242319961, -0.7009385594533951], [-0.6204494297040729, -1.4301859182378596, -0.3107125226688509, 0.2144561602039156, 0.39744275091371495, -1.1554161438588857, 0.11414740384214939, -2.780222939447415, -0.6923900552035978, 0.9825605490344729], [-1.3168361063196032, 0.6085111788142867, -0.9496685659496691, 0.4874011474029205, 0.21187593880939548, -0.9719992675546832, 1.773471854343382, -0.5699410926099497, 0.048914125139012596, -0.7495023756873365], [0.6903304111660629, 0.14375019533016564, -1.1294605341083293, -0.8050456654353696, -0.5943076110321373, -0.0011990043531275633, -0.8238116740084586, -0.052929910913834456, -0.7267059290095125, -0.493989968387321], [-1.088790697945243, 1.0166049910572417, 0.9439349180022517, -0.2854386968565271, -0.40722081315650666, -1.7162338853952832, -0.4305143947228069, 0.8612072172716245, 0.6407296811283619, 1.1960161925530068], [1.9635936912170016, -0.008556707323379611, -1.7967206668444196, -1.9265046012653637, 0.8692273861873514, -1.3129379915151231, 1.3840840460340944, -0.8342511717495583, 0.16057641295995073, 1.7619785054091726], [-1.7608257064264934, -0.8166106166285272, 0.8288902860658363, -2.2464992372481416, 0.7263353665631904, -0.45623367987661434, 0.06361064184205349, -1.4457733589219774, -1.544340578106158, -1.0622218784635247], [-0.0037670899878373167, -2.571747174351888, 0.2567184791163989, -3.0089347393495522, -0.4894517455696781, 0.5073575242997674, -1.0633154239533589, 0.007320468321314779, -0.8991718833955227, 0.9156378955410822], [-0.6114821312044597, -0.865561943769166, -0.7087823322755223, -1.532289506075048, 0.46939826881461777, -0.942819657548662, 2.896781944604592, 0.9607966790119534, 1.0849914585462845, 1.1109852108465537], [-1.3701967480798791, -9.237102189601396, -1.423434065809069, 0.25257898952874835, -9.679336870385548, 0.6770668285899842, -1.2260672828008545, -14.386785547795776, -1.3703663542581674, -0.589998845270471], [-0.2944381415247876, -1.4327939312661615, -0.2137676158157025, 0.5031812314246422, -1.054509294739597, -0.46173226021100927, -0.48053144693713357, 0.6175433525058711, 0.3472316738205392, -0.6684289766523944], [0.15502396968626309, -0.9929901469972066, -1.0980902778723574, -0.8962923069428402, 0.5076517850289457, -0.2682176663831366, -1.2142030456551032, -0.30342535350446115, -0.7298030507799185, -0.6355139678929984], [-3.559625590132006, -29.219710194102163, -2.3382063511694007, -3.408744410440273, -27.721488446025482, -5.553873618982922, 0.020713290401580986, -48.70730804586292, -1.450394730087301, 0.5908793855414844], [-1.043382843130503, -3.832470775505692, -1.3408010228628866, 0.47070019294092247, -1.508475157065933, 1.351621658429131, -1.680360055730389, -5.73567412577815, -0.6380005670794783, 1.2852005910807234], [-1.166575717400277, -1.8449377346602276, -0.26511518845186344, -0.5402110890890773, -0.8922858558668287, -0.4749015614150402, 1.5202457278817767, -2.1352157047211717, -0.6872343963947232, 1.0603264772895817]]
